2320 100
OBT:000591 -0.41590866 1.0122622 -0.33899125 0.49931052 1.1602708 -0.11288 0.70751214 -0.34719643 0.16779286 -0.32716927 -0.48211434 0.2634603 -0.19232634 0.15579104 -0.3265401 0.08786813 0.20898351 0.059082955 0.3235279 -0.39261618 0.014022284 -0.048118085 0.17488763 0.17706303 0.19213331 0.10183229 0.5235883 0.61305887 -1.0360073 0.22599755 -0.052150443 -0.43238768 -0.46553075 0.2755354 0.13953318 -0.16562793 0.5814922 -0.009514908 0.38020113 0.459875 -0.024480471 -0.20447281 -0.847973 0.024879534 -0.12738244 -0.14205626 -0.84904385 -1.1429424 -0.17843671 -0.36070848 -0.79012704 0.6529615 0.07768753 0.7140694 -0.2151103 0.10605047 -1.0222559 0.23713699 0.26443228 0.26388183 0.1075037 -0.28854182 0.14640863 -0.26214823 -0.3598473 0.3917267 0.72603464 -0.038725354 0.10333554 -0.24437721 0.1565868 0.023140458 -0.117224164 -0.67652375 0.3780884 0.45238277 0.10390513 -0.29441273 -0.14064752 0.6888769 -0.41233876 -0.49093962 0.24442011 -0.03579509 0.16977061 0.21200612 0.75388706 -0.6321544 0.33239365 0.49627605 0.14004557 -0.18056567 -0.18093477 0.381833 -0.73415816 -0.91705793 -0.60997903 -0.6068403 0.5194557 -0.61019206
OBT:000524 -0.43410552 0.99182796 -0.42087942 0.30078313 0.9240999 0.014064373 0.7765629 -0.3987301 0.38874036 -0.34593064 -0.5120465 0.34374025 -0.3679746 0.038137995 -0.02205687 0.08429113 0.0924617 -0.10135385 0.23381086 -0.23508587 0.18156622 0.105659045 0.22904706 0.11331026 0.06560936 0.08033199 0.49735346 0.45091584 -0.7335354 0.2825046 0.011940813 -0.35878778 -0.19207141 0.15647 0.14044353 -0.19055346 0.55329555 0.1492339 0.3069159 0.2612027 0.08877072 -0.16365261 -0.8387532 -0.20926845 -0.23505738 -0.16913722 -0.7832807 -1.0195848 -0.26248878 -0.189231 -0.8647121 0.70990217 0.039846446 0.5079414 -0.3198032 -0.041402094 -1.2006001 0.2172545 0.20574005 0.21233535 -0.08748077 -0.24605617 0.055648655 -0.15253903 -0.31798464 0.30028248 0.6777501 -0.0768314 0.20301408 -0.3230811 -0.17053416 0.02946488 -0.28357115 -0.68827987 0.28760067 0.35489663 0.20375414 -0.33362746 -0.3292569 0.559543 -0.37197566 -0.25880313 0.28071058 0.012478807 0.17961742 0.3578451 0.5987759 -0.69385934 0.17408568 0.5172947 0.16532886 -0.16257645 -0.11609111 0.3175381 -0.68301064 -0.93941724 -0.566824 -0.52406245 0.48914585 -0.55759645
OBT:000592 -0.39808568 1.0084416 -0.20178378 0.41538322 1.0055735 0.060781732 0.6515063 -0.45716187 0.16285442 -0.26836023 -0.4042236 0.23936476 -0.30646348 0.07298172 -0.21007164 0.10729356 0.25813732 -0.024837896 0.19410743 -0.28324932 0.029499598 0.2946456 0.028426502 0.3572998 0.18885523 -0.030036727 0.5371117 0.5139568 -0.88443625 0.24959034 -0.14403965 -0.3688083 -0.36390668 0.18729737 0.058597095 -0.27114478 0.5374057 0.0727799 0.26404864 0.39500332 -0.029289141 -0.24009718 -0.89070684 0.050286654 -0.25917143 -0.14048219 -0.82923114 -1.1468984 -0.22132893 -0.35159746 -0.91984236 0.7493346 -0.073861524 0.6102544 -0.13867675 0.13844876 -1.2219391 0.27585855 0.12909746 0.2988864 -0.17528225 -0.39476883 0.06844836 -0.16357584 -0.21149652 0.24224648 0.682753 0.08046164 0.15859684 -0.41631958 -0.07449525 0.101396546 -0.15530197 -0.8766412 0.4910939 0.23064555 0.22022927 -0.36792135 -0.26633307 0.7684761 -0.4858725 -0.39035025 0.022059202 -0.0159343 0.08958579 0.3335327 0.563806 -0.6012733 0.34845072 0.41702032 0.2636146 -0.20367259 -0.07901763 0.38725954 -0.64502424 -0.8735372 -0.6186473 -0.58858335 0.60309577 -0.5617558
OBT:000667 -0.46672213 1.0615685 -0.22457297 0.30879954 0.78262866 0.09719784 0.7932088 -0.5217901 0.3863424 -0.34146935 -0.5037359 0.31692737 -0.28331614 0.066624805 -0.17540151 0.18701062 0.120821744 0.06077673 0.03678499 -0.36993945 0.0019639984 -0.043519277 0.08093719 0.11975982 0.01979433 -0.17035979 0.5770181 0.44737723 -0.8110951 0.24083807 -0.0861515 -0.22296324 -0.18372735 0.30929536 0.11613722 -0.007604447 0.4677398 0.18119073 0.32099897 0.49742082 0.021064771 -0.24335316 -0.84965736 0.0058331117 -0.3321553 -0.26972973 -0.84369653 -1.0316873 -0.25613916 -0.24827659 -0.8629179 0.73102784 -0.03763409 0.37630975 -0.048507083 -0.0302553 -1.3729321 0.19861193 0.21977861 0.32801357 0.032639436 -0.30233887 0.12334933 -0.15208654 -0.3418982 0.28058 0.87023854 -0.12178294 0.33801866 -0.30414617 -0.03381479 0.18491535 -0.16413051 -0.76134473 0.21424355 0.18016593 0.3219041 -0.41931677 -0.27887636 0.4414207 -0.5054018 -0.3643596 0.11806982 -0.12671725 0.09923461 0.36249176 0.6657199 -0.7266697 0.2212652 0.52263176 0.2208251 -0.16702123 -0.16533607 0.3398278 -0.6310826 -0.90149885 -0.4275089 -0.55868894 0.4611596 -0.60057884
OBT:002172 -0.60618126 1.0748852 -0.029085886 0.32840398 0.70789677 -0.12448172 0.4925824 -0.465209 0.62052804 0.06249392 -0.14906779 0.38208959 -0.24877949 0.19818348 -0.21562283 0.015919773 -0.15043047 0.07926589 0.59222895 -0.5210741 0.11634327 0.19196013 -0.18135214 0.2489415 0.42767265 0.1984532 0.17406805 0.49803188 -0.85585517 0.02574662 -0.34599367 -0.38971967 -0.5077367 0.37525547 -0.058145247 -0.04037381 0.69439375 0.30995426 -0.21878597 0.37823611 -0.23881818 -0.24601322 -0.7576928 -0.10752694 -0.014606566 -0.22371145 -0.69359285 -0.98270464 -0.53534514 -0.18538074 -1.0065253 0.29346418 0.011024136 0.4347571 -0.21442181 -0.1359112 -1.0179262 0.26655954 0.13790202 0.33344105 -0.13879484 -0.41161132 -0.04560226 0.032860063 -0.36726713 0.17344762 0.5937222 -0.14706147 0.4124593 -0.39794868 0.26155555 0.13248159 -0.14504804 -0.7519741 0.43274978 0.24907917 0.14081968 -0.28401572 -0.44067952 0.29728577 -0.5928548 -0.1320765 0.29770082 0.1719351 0.08781375 0.121851906 0.7688942 -0.6562571 0.4171985 0.76434976 0.05909746 0.1527853 -0.24415372 0.14539039 -0.8566354 -0.71101296 -0.82680386 -0.4855767 0.47294465 -0.513529
OBT:000084 -0.48006988 0.48001125 -0.3468263 0.4207914 0.6821455 -0.09058962 0.60108656 -0.36363396 0.50887465 -0.20203134 -0.4910647 0.2603207 -0.5058105 0.15116613 0.11190201 0.114316314 -0.02022631 -0.055231165 0.26192683 -0.28889263 0.11320868 0.2959568 0.005327631 0.05029852 0.15865028 0.20186396 0.27693376 0.5179476 -0.41626462 0.22737658 0.07612933 0.021136781 -0.019503882 0.081453405 -0.11924621 0.08151182 0.6778191 0.35693705 0.1277543 0.30962873 0.36289608 0.061572418 -0.5355777 -0.49081942 -0.19054338 -0.11001395 -0.2965462 -0.8400699 -0.30892214 -0.30606553 -0.31444156 0.5228298 0.054502115 0.62705344 -0.15907858 0.02160187 -1.209439 0.057092242 0.25861079 0.24297194 -0.09863713 -0.26644424 0.06735727 -0.4163693 -0.3595664 0.3907662 0.5380861 0.035666842 0.2582694 0.10992749 -0.30996504 0.3341157 -0.0689513 -0.55241007 0.12516648 0.24367051 0.13184585 -0.12265648 -0.08165283 0.5045325 -0.16350217 0.015433977 0.5815845 -0.013862469 0.50117415 0.12284831 0.33449835 -0.46354568 0.082913615 0.1613876 0.4504758 -0.49587438 -0.4224035 0.41152635 -0.36135772 -0.7240665 -0.46181864 -0.3896828 0.26991746 -0.8322322
OBT:002263 -1.0837625 1.1091157 0.48420358 1.1549134 0.1272806 -0.33106604 0.123170756 -0.9120331 0.10185834 -0.081920356 -0.40950367 0.588148 -0.11940419 0.33020797 -0.4870121 -0.027765064 0.0025350887 -0.06761776 0.24721248 -0.26559663 0.098239236 -0.40882638 0.35639724 0.098700844 0.6623452 0.108891584 0.16688822 0.47629717 -0.9547551 0.2184059 -0.19603921 -0.6324612 -0.4413256 0.84404135 -0.22314039 -0.14538236 0.6372748 -0.36562958 -0.22685967 0.095378004 -0.40435264 -0.29835677 -0.6718284 -0.24612072 -0.24317135 0.1172711 -0.5600282 -0.93793124 -0.4601971 -0.18898252 -0.9205302 0.39552802 -0.29819578 0.3729115 -0.37413648 -0.4376523 -0.83472914 0.3754108 0.22863886 0.43181553 0.104938775 -0.54131466 -0.23937568 -0.17830911 -0.101098806 0.18700123 0.46709204 -0.4121702 0.49070802 -0.20696856 0.34532076 0.28995633 -0.4611576 -0.63794565 0.4915175 -0.086025275 0.31196868 0.15423921 -0.32962537 0.19672671 -0.5553146 -0.98114693 0.07017578 0.5298207 0.017526912 0.16691746 1.0019758 -0.77082604 0.63792485 0.78553313 -0.358342 0.4567035 -0.45278153 -0.27042562 -0.8233715 -0.9018488 -0.6381055 -0.6422775 0.6187443 -0.10156364
OBT:002249 -1.0725263 1.0789536 0.36536413 1.0110031 0.11921056 -0.35085395 0.1363953 -0.90170664 0.18788712 -0.017266685 -0.27392378 0.6042754 -0.14932944 0.266548 -0.50518006 0.05126345 -0.027208922 -0.050875645 0.36474833 -0.3237908 0.15834339 -0.34800538 0.3760352 0.089935735 0.76133776 0.18105654 0.1618547 0.503359 -0.9137143 0.18683812 -0.19953004 -0.63571197 -0.40358272 0.834116 -0.16014309 -0.16795744 0.68062747 -0.2565473 -0.15722094 0.2266516 -0.38990858 -0.34476352 -0.77086705 -0.29309264 -0.17943746 0.06315497 -0.50966454 -0.9973648 -0.3776134 -0.23661418 -0.9575125 0.40024635 -0.3101558 0.39334208 -0.3085561 -0.39976743 -0.8575888 0.4325863 0.11628739 0.545216 0.091309294 -0.62644446 -0.29957706 -0.1551612 -0.15409736 0.1377391 0.48051527 -0.39674076 0.5306545 -0.24857263 0.25405496 0.2777406 -0.46209833 -0.7184073 0.57996774 -0.04426683 0.29142657 0.09539185 -0.24760132 0.22776797 -0.5626756 -0.92745584 0.109758645 0.5038557 0.05334015 0.11745903 1.111723 -0.7568693 0.69196606 0.70352143 -0.32147768 0.40465957 -0.45303833 -0.20935456 -0.90107864 -0.99543434 -0.6379003 -0.6529753 0.62548584 -0.11833111
OBT:002264 -1.0346974 1.1067988 0.36128503 1.1356027 0.10125819 -0.29017618 0.17757069 -0.86647063 0.11853219 -0.109911606 -0.3250244 0.56366867 -0.16616563 0.22997957 -0.46378183 -0.012903082 0.006179353 -0.06947122 0.31992957 -0.30527744 0.16545126 -0.3293323 0.41642833 0.06864973 0.6286755 0.17394087 0.22386229 0.44634527 -0.9666463 0.19766109 -0.1239564 -0.50909996 -0.4180501 0.8771606 -0.1058387 -0.19018522 0.69943607 -0.3704685 -0.14186054 0.09059319 -0.46603158 -0.3086111 -0.7899744 -0.26736787 -0.23948374 0.046517752 -0.53464717 -0.8997262 -0.4435489 -0.22592631 -0.9291157 0.44245914 -0.39385056 0.38526177 -0.33150983 -0.44680607 -0.8516277 0.4125328 0.15965563 0.4652022 0.14752667 -0.56122994 -0.2210124 -0.17532489 -0.078017145 0.22845778 0.43669045 -0.44665465 0.5229305 -0.22599992 0.34148845 0.33560756 -0.48406067 -0.6173194 0.56941426 -0.022814078 0.37226725 0.14919691 -0.32657662 0.21035258 -0.5547309 -0.94685787 0.05944085 0.55543035 0.02738523 0.19972163 1.0174809 -0.81515276 0.5693589 0.7356021 -0.381734 0.45633987 -0.35945314 -0.23559631 -0.80101806 -0.99483067 -0.68740904 -0.6282382 0.7186544 -0.13818648
OBT:002221 -0.78690314 1.2671063 0.04569158 0.52758306 0.1660424 -0.37769693 0.111016 -0.50557595 0.5363171 0.0041311043 -0.02637339 0.7254454 -0.32312393 0.21216811 -0.4544485 0.07400242 -0.11168039 -0.07808866 0.59726614 -0.53801185 0.16621867 -0.14081897 0.29198572 0.056669038 0.7005851 0.43788087 0.33493423 0.3861409 -0.88137716 0.15836069 -0.3125312 -0.47424656 -0.5019306 0.6412306 0.004014499 -0.037580512 0.54599476 0.008876928 -0.1846626 0.46797478 -0.33235192 -0.3916795 -0.95449674 -0.0073953276 0.005376611 0.06089781 -0.60933846 -1.0251302 -0.37369925 -0.11478283 -0.9342467 0.03999082 -0.42787746 0.25160486 -0.103843816 -0.25410792 -0.8301958 0.42301324 -0.19000858 0.4482799 0.052162446 -0.4683733 -0.34940293 -0.011719641 -0.3171883 0.18792498 0.49144226 -0.26145285 0.49202535 -0.2522693 0.25738037 0.18476298 -0.39724594 -0.74412555 0.50883967 -0.011171378 0.24372955 -0.17158121 -0.23540953 0.048528668 -0.61237085 -0.5233958 0.2799989 0.2675819 0.025016652 0.050309047 1.0313127 -0.8394644 0.6945029 0.66147 -0.32022327 0.28868628 -0.2148582 -0.12321153 -0.80567616 -0.883159 -0.63988394 -0.5472481 0.6628081 -0.31909895
OBT:002162 -0.11986511 0.2713801 -0.45828086 -0.086927526 0.11739065 0.23448747 -0.08339517 0.20382848 -0.19080937 -0.1297762 0.042679712 -0.010881556 0.3505507 0.44247913 -0.36484754 -0.028778464 0.031968597 0.22136909 0.03304717 0.08798741 0.34785816 0.3068887 -0.022320168 -0.1623722 -0.16281796 -0.13928889 0.24011193 -0.04396102 0.09686512 -0.25450626 0.22411445 -0.033624984 0.02194961 0.6382793 -0.19720607 -0.22655594 0.1703366 0.05619224 0.028299395 0.46932936 0.3770109 -0.25043932 -0.25455517 -0.081959985 0.44777548 0.0609253 -0.37693763 -0.41480288 0.2859364 -0.086840376 -0.16214488 0.09292067 -0.35699552 0.09350303 -0.37542218 0.25886542 -0.30710557 0.20377822 0.76257133 0.2981137 0.30111438 -0.23834829 -0.079236835 -0.6431044 -0.49517515 -0.030788481 0.3132677 -0.037115466 0.41012466 -0.40957135 -0.074906796 -0.0032666454 -0.035687204 -0.039950844 -0.10642974 -0.18075354 -0.15260936 -0.5021852 -0.051387846 0.7849018 -0.10715942 0.66430324 0.46461403 -0.32945314 0.076494336 0.39501214 -0.021889023 0.05352898 0.31740692 -0.040054616 0.45685983 -0.07655892 0.25788772 -0.38828805 0.42830992 -0.12472756 0.2227459 -0.108190715 0.3936735 -0.68946034
OBT:000674 0.040949773 0.8626717 -0.46670732 0.037425924 0.29335013 0.13629052 0.03111393 0.48733282 0.19092934 0.20599604 0.36878797 0.19594464 0.3934727 0.57862306 -0.2563311 -0.16262364 0.3673353 0.21924204 -0.19984463 -0.0894036 0.57710975 -0.23364322 -0.2677595 -0.10609933 -0.06836076 -0.5918422 0.09674881 0.06781967 0.22161208 -0.2530519 0.39743793 0.267243 0.13556722 0.82649016 -0.16325015 -0.18460429 0.36859295 0.20230485 0.021052765 0.19540113 0.16528071 -0.11881774 -0.47132 -0.0019634187 0.7966721 0.3201752 -0.7746474 -0.28550982 0.21040076 0.17688638 -0.24167968 0.0880824 -0.53396475 0.24749489 -0.20603833 0.33493698 -0.054639205 0.3727988 0.8855827 0.24459966 0.14581531 -0.3991191 -0.24932729 -0.65667933 -0.7121219 -0.18918307 -0.09533553 -0.33730918 0.2729208 -0.55421185 0.19822809 -0.15782638 -0.2657433 -0.16942725 -0.22341926 -0.029341985 -0.20323765 -0.51143396 -0.21045753 0.55917406 -0.27443236 0.5106844 0.59018874 -0.45604867 -0.104137845 0.7389613 0.20229553 -0.23741412 0.2897552 -0.016426893 0.7382956 0.1567752 0.113364056 -0.32373822 0.11347917 -0.0711913 0.08641179 -0.04663776 0.39130017 -0.8287238
OBT:001897 -0.2423864 0.8727596 -0.34040874 0.013656045 0.28471243 0.03424459 -0.023503467 0.17782585 0.034563817 -0.12797847 0.42807922 0.26897606 0.42666122 0.35667917 -0.30512458 -0.29719064 0.560272 0.34154484 -0.029398931 0.1250414 0.297804 0.1252428 -0.25969353 0.077034466 0.17546363 -0.41288275 0.18418148 -0.10938355 0.05195723 -0.5770252 0.4439872 0.006276027 -0.18254359 0.8656584 -0.18520601 -0.29806978 0.28650683 0.28879622 -0.24536747 0.333529 0.26699942 -0.20955077 -0.45792624 -0.17243636 0.50307256 -0.061599106 -0.6929853 -0.10789607 0.32594347 0.037635814 -0.35093203 0.27746272 -0.62568676 0.23887137 -0.32543963 0.5957342 -0.12367174 0.17904203 0.8874171 0.3884208 0.20897894 -0.3489753 -0.22670944 -0.6305847 -0.9474769 -0.11585916 0.17609584 -0.42665792 0.3329906 -0.5311912 0.2098169 0.075434014 -0.10217334 -0.021163028 -0.08197202 -0.050636593 -0.06838132 -0.25606793 -0.24800298 0.82228494 -0.20311339 0.5576331 0.55722135 -0.33216542 0.0946199 0.70466846 -0.09314905 -0.13553998 0.28034753 0.25739282 0.53021884 0.04843875 0.13573979 -0.3575693 0.30188552 -0.15766867 -0.19422223 -0.033730537 0.046130758 -0.8585281
OBT:000001 -0.042800926 0.35346732 -0.27797115 0.31871006 0.11124228 0.023635851 0.13628215 -0.1162012 -0.34479204 -0.23338892 -0.17703868 -0.18397664 0.31977737 -0.2413399 -0.3623078 -0.06256851 0.27243638 0.13764156 0.08587764 0.27706593 0.17237914 0.15684435 -0.1724106 0.20219202 -0.5132987 -0.02841101 0.22694615 0.4106439 -0.30750278 0.20623416 0.022012386 -0.008540305 0.17960308 0.43557557 -0.19587983 -0.20056845 0.15756387 -0.04932609 -0.02292933 0.28638688 0.306397 0.043640625 -0.01637492 0.22975326 0.26172054 -0.12479852 -0.27876058 -0.32317597 0.056684375 -0.34913582 0.006918049 0.29076022 -0.027670294 0.200737 -0.3175919 -0.094889 -0.48739064 0.071614616 0.12711123 0.30872297 0.3204952 0.11263944 -0.1737881 -0.35897097 -0.3108171 0.3061939 0.22122432 -0.026020896 0.31090507 0.15602726 -0.35305685 0.15424918 -0.04244302 -0.23659764 -0.04915997 -0.28435382 -0.24376152 -0.23957098 0.120276555 0.50642675 0.30064768 0.05320851 0.06291971 -0.031561747 0.20176443 0.4242125 0.02742556 -0.03442457 0.09153599 -0.009239296 0.2520836 -0.0099313995 0.13129604 0.24788122 0.26011997 -0.16614048 0.03443505 -0.1512473 0.6443556 -0.4296263
OBT:002019 -0.07333608 0.01917024 -0.29251537 0.08864689 0.1655921 0.29381353 0.08889063 0.03454914 -0.2867367 -0.44354063 0.48630717 -0.18288165 0.62237865 0.36185294 -0.42775488 -0.14121164 0.025683515 0.22635444 -0.16226664 -0.06623434 0.22217871 0.37952664 0.12160346 -0.113104865 -0.17210929 -0.2904612 0.3961603 0.041065484 0.44373634 -0.27532995 0.20300953 -0.2674912 -0.043186378 0.5687028 -0.4075958 0.10065749 0.15599494 0.16461734 0.3274599 0.49287257 0.48457646 -0.08603527 -0.38061616 0.124408096 0.26516992 -0.07860296 -0.29000765 -0.4042245 0.1631051 -0.43898898 -0.15368995 -0.06375464 -0.29843798 -0.15822068 -0.22750358 0.09051742 -0.054433 0.102168486 0.4683402 0.30243337 0.094191186 0.00052252656 0.068528965 -0.30876115 -0.20075971 -0.2210807 0.2322542 0.4496148 0.3006985 -0.101887874 -0.10840213 0.09702808 -0.052072395 -0.47825095 0.020656122 -0.20939583 0.0820873 -0.556114 0.30980802 0.48727325 0.13165167 0.5178281 0.42109162 -0.440103 0.2557006 0.14958842 -0.21665388 0.28227964 0.3426683 0.1684623 0.3392468 -0.071856305 -0.024920957 -0.43604884 0.33527997 -0.25319478 0.5626703 0.051566698 0.49379933 -0.38935664
OBT:000392 -0.17688955 0.22859964 -0.24986315 0.16038463 0.029647091 0.0483218 -0.15598138 -0.18787916 -0.52467 -0.5895819 0.22209702 -0.2816694 0.09782592 0.5766778 -0.4314236 -0.10248527 0.02415643 0.040713027 -0.27144173 -0.18645003 0.3080691 -0.098629616 -0.2773573 -0.10063774 -0.32893226 -0.038266506 0.08119815 -0.14198884 0.07416674 -0.16234457 0.4855716 -0.06821678 0.15883096 0.60526836 -0.5470706 0.041948847 -0.07612916 0.15298225 0.111886725 0.11336477 0.5040319 -0.29331675 -0.5190481 -0.17154391 0.5474481 -0.028053548 0.0055865953 -0.31911993 -0.0051519875 -0.33747208 -0.5388919 0.064932875 -0.4673767 0.2880254 -0.043227263 0.24044235 -0.51980144 -0.1385172 0.60618025 0.25345585 0.11606458 0.3090894 -0.18474261 -0.42781323 -0.2982483 -0.0844507 0.06984273 -0.071009435 0.37681484 -0.2721261 -0.36186725 0.09962838 -0.07973598 -0.10831198 0.049240798 -0.15019113 0.09604569 -0.31763795 0.25626427 0.7297865 -0.062417224 0.44814494 0.44775847 -0.2511682 0.29825288 -0.067975305 0.3484964 -0.08415779 0.36269104 -0.018693287 0.6178489 -0.34445158 -0.23943117 -0.5167909 0.48557222 -0.031745065 0.019380607 -0.25151727 0.6498508 -0.49522817
OBT:002085 -0.30688047 0.22607388 -0.38859 -0.02901309 0.12214073 -0.0671682 -0.08007187 0.10682421 -0.14539401 -0.32974344 -0.10172864 -0.43603474 0.3031355 0.24182142 -0.16501005 0.028967839 0.16806032 -0.023903785 -0.17342837 -0.007920761 0.11461656 -0.17638414 -0.12689121 0.20303519 -0.37339965 0.015158325 0.20739429 -0.317616 0.3527012 -0.19182688 0.18861797 0.17125157 0.04358192 0.7305855 -0.21035855 -0.17521094 0.07816092 0.21994287 0.35629758 0.45795763 0.42152604 -0.31795087 -0.49183306 -0.129117 0.3872172 -0.07104144 -0.67777544 -0.56184095 0.124168105 -0.2445477 -0.050893992 -0.16463965 -0.35205624 -0.10013942 -0.25007188 0.19321717 -0.35516667 -0.16949755 0.65153575 0.2171359 0.12222975 -0.25727278 -0.109859124 -0.38117954 -0.25146922 -0.09724655 0.2068156 0.03650586 0.39954054 0.15573965 -0.019704064 0.01978526 -0.08655598 -0.22087651 -0.15393479 0.08291584 0.043150164 -0.086260214 0.15209167 0.583167 -0.070731506 0.6049197 0.20071046 -0.26110652 -0.16014679 0.0903274 -0.004694186 -0.06379051 0.4319596 -0.28049904 0.3463971 -0.06069198 0.18628544 -0.46611142 0.37090898 -0.08970798 0.19376837 -0.066423565 0.78477496 -0.61651343
OBT:000056 -0.17443368 0.5557 -0.15002884 0.20947242 0.15644331 0.28719118 0.025480492 0.17762978 -0.084520675 -0.18518622 -0.11205827 -0.08068421 0.4714591 0.2767171 -0.46977475 0.24141926 -0.19475211 0.15155882 -0.25501546 0.033814296 0.17130542 -0.091264285 -0.08833099 -0.32520968 0.0014943884 0.0055851727 -0.1522682 0.19100693 0.2946947 -0.2851576 0.17807166 -0.08068502 -0.2588615 0.43350628 0.1281667 -0.3504447 -0.23250636 0.28852144 0.32253024 0.15101826 -0.016221378 0.028772207 -0.46600792 -0.013754768 0.4203467 0.08594766 -0.1356713 -0.25177997 0.019125724 -0.12794012 0.06729674 -0.058636907 -0.48443943 0.17324509 -0.22153558 0.17891379 -0.16545379 -0.2223089 0.22724874 0.5567572 0.14406033 -0.025293019 0.015301767 -0.51981914 0.031252254 0.18820053 0.19394103 0.27275833 0.119218536 0.069591075 -0.19430368 -0.08988667 0.024720475 -0.34778577 0.16000961 -0.11748407 -0.14784102 0.12827793 0.18120392 0.5307351 0.21773915 0.5172456 0.15414146 0.08900371 0.33500877 -0.012997061 -0.116523966 -0.28671834 0.32557204 0.09734959 0.40246776 0.4423145 0.13402194 0.17614731 0.39432648 0.110178664 -0.05244598 -0.061427373 0.7827634 -0.28063402
OBT:002164 -0.123347856 0.8169034 -0.5792176 0.0041619455 0.17470199 0.33416808 -0.15709998 0.24786755 0.2821928 -0.07853277 0.47338903 0.13876508 0.35295695 0.43156812 -0.040268023 -0.18707967 0.5743583 0.25625467 -0.33228666 0.10279222 0.6600138 -0.049367614 -0.3503194 -0.1719071 0.1528837 -0.9096969 0.13322084 0.06255295 -0.12222785 -0.3122272 0.40141582 0.06435194 0.060407754 0.96838224 0.11346627 -0.026634928 0.07033367 0.21094754 -0.13122699 0.26838464 0.15706724 -0.44853172 -0.5409621 0.06370631 0.43800414 -0.15394206 -0.6273693 -0.05589883 0.17011224 0.012859614 -0.046039578 0.3983883 -0.71560496 0.14460291 -0.04489619 0.38903233 0.15936518 0.035179432 1.2829347 0.34621674 0.23524967 -0.19663386 -0.20769666 -0.73978376 -0.9199728 -0.22365624 0.24974574 -0.24117789 0.5886561 -0.5979061 0.29268402 0.12650988 0.0016195733 -0.111117885 -0.2264598 0.079827085 0.056413252 -0.26606056 -0.36372107 0.6073052 -0.16415952 0.7067198 0.6671204 -0.6453486 0.25989762 0.89972675 -0.03435341 -0.14299597 0.2503422 0.19258982 0.54800934 0.502248 0.1869312 -0.5325248 0.32007122 -0.40723047 -0.06040642 -0.08344131 0.47788852 -0.92042106
OBT:002168 -0.14007035 0.90805703 -0.37692785 0.056129888 0.19111472 -0.056788385 -0.12407206 0.18641715 0.29577228 0.03823131 0.38669625 0.19630945 0.42737886 0.444135 -0.25129157 -0.25090703 0.5748379 0.25267076 -0.16806506 -0.00019967617 0.3319534 0.11976458 -0.36416808 0.007416436 0.072041295 -0.35426357 0.20454615 0.117149614 0.034592763 -0.41748497 0.4347464 -0.08925204 -0.15617576 0.87724024 -0.07939201 -0.30579454 0.16617453 0.32907152 0.035876665 0.16420145 0.2612869 -0.13712949 -0.5403759 0.01230395 0.7605609 0.011734647 -0.8137433 -0.16319779 0.32868412 0.1776531 -0.42902735 0.18412313 -0.6264497 0.30907586 -0.07845018 0.48782378 -0.16808194 0.44951937 1.0251197 0.38856402 0.11558148 -0.292739 -0.20197833 -0.890983 -0.94981086 -0.1888895 -0.07758168 -0.44701013 0.44819745 -0.32594708 0.25701064 -0.21724357 -0.12522681 -0.10086656 -0.18389188 -0.06144375 0.18095545 -0.41241005 -0.26751313 0.78440994 -0.3878963 0.5685714 0.47100016 -0.4754364 0.09893911 0.82444423 0.0330176 -0.17562413 0.16893758 0.29285383 0.5970697 0.19321796 0.13034752 -0.52554953 0.29211026 -0.25164834 0.011504895 -0.14963135 0.16277759 -0.9327032
OBT:000318 -0.22946262 0.60108036 -0.5061767 0.12878802 0.09764132 -0.2667384 -0.07637484 -0.36748612 0.2137423 -0.40408283 0.18541715 0.041524235 0.23559296 0.5186128 -0.37461528 -0.29373252 0.2104744 -0.06224449 -0.013631504 -0.1505927 0.6026831 -0.45024285 -0.0935949 0.10529942 -0.39074165 -0.34113482 -0.07661003 -0.36054483 0.14325297 -0.46108603 0.33682555 0.038983367 -0.32047492 0.872757 0.64328814 -0.10730261 0.35869825 0.42509097 -0.09388368 0.21776405 -0.17612813 -0.24456173 -0.5130178 -0.086516194 0.33874616 0.11861213 -0.8253599 -0.39672473 0.15891108 0.44057187 -0.61338586 -0.25974265 -0.6140093 -0.085348405 -0.23038518 0.35724303 0.16875014 0.07333311 0.6579182 0.063420795 0.1879124 -0.31972492 -0.22140127 -0.39887077 -0.6172321 0.12547341 0.04511971 -0.30485624 0.42589235 -0.10131644 0.36989796 -0.26231927 -0.18858808 -0.3444307 -0.080617875 -0.10259771 -0.14323774 0.4704105 -0.27935869 0.014340869 -0.44983342 0.4412502 -0.09640354 -0.21270876 -0.022899596 0.48063394 0.32435897 0.055358283 0.17454189 -0.08331085 0.784712 0.06860739 -0.025544558 -0.43289334 0.21092549 0.07785703 -0.5149906 0.351433 0.542751 -0.7216966
OBT:002169 -0.05376659 0.8659328 -0.67731357 -5.8234156e-05 0.5314348 0.14652357 0.014707579 0.12245061 0.17907012 0.08988038 0.34993207 0.09049201 0.4813571 0.50828123 -0.34267044 -0.11173276 0.33778906 0.34722874 0.04576808 -0.040466055 0.42422584 0.110494524 -0.5005197 -0.19232571 -0.024939418 -0.5873164 0.3227716 0.274719 0.06380888 -0.46121123 0.37798992 0.007209049 0.061475333 1.0233699 -0.03816025 -0.21980017 0.3657616 0.46003747 -0.0482232 0.3406904 0.29922524 -0.20350309 -0.5758062 -0.16096659 0.7542338 -0.0035357156 -0.68421525 -0.24076049 0.088297896 -0.0058863256 -0.35307634 -0.017306294 -0.79431766 0.24675392 -0.25042802 0.33673593 -0.07017257 0.40638292 0.821149 0.38123798 0.17410871 -0.34659356 -0.18638633 -0.60398316 -0.9121726 0.28747118 0.10047129 -0.54046935 0.3636325 -0.50085384 0.24220473 -0.008822504 -0.0919026 -0.0064809616 -0.100220494 -0.121397294 0.018172601 -0.24807143 -0.29785928 0.6370151 -0.51429814 0.43421984 0.55460304 -0.45595068 0.19923982 0.78384703 0.11163088 -0.23220414 0.24908064 0.16481073 0.5669441 0.2718305 0.20538573 -0.6073669 0.09548418 0.08592842 0.124855615 -0.048820477 0.29830298 -0.9225453
OBT:001149 0.08391992 0.65868837 -0.38405696 -0.13992359 0.62423456 -0.059782002 -0.29027942 0.2167634 0.18739425 0.25636154 0.48883832 0.2484009 0.24740028 0.6731166 -0.34320754 0.06979558 0.45547324 0.2240791 -0.42651552 0.42455682 0.7583081 0.03705596 -0.32632712 -0.31879392 0.2731663 -1.0695406 0.015373598 0.08693643 0.38492155 -0.2089836 0.54631126 0.17080107 -0.05151367 0.9989611 -0.023192631 -0.16485511 0.4541687 0.6275751 -0.031801924 0.339771 0.19311339 -0.46119905 -0.59359413 -0.13237938 0.76135 0.4261186 -0.60566956 -0.56921124 0.24537489 0.033380207 -0.6221387 0.28409836 -0.6892126 0.14896174 -0.2031471 0.2020087 -0.08312707 0.39395547 0.9066294 0.5536592 0.07249255 -0.36874726 -0.41975942 -0.90978706 -0.5740418 -0.45661145 -0.15288521 -0.3500468 0.7048378 -0.5830396 0.014466778 -0.1277263 -0.15806757 0.023486514 -0.16838953 -0.09985374 0.07925687 -0.59907097 -0.35279757 0.4033367 -0.013028624 0.4628768 0.5581253 -0.37500632 0.2740063 0.6557642 0.011227641 -0.08498026 0.39629617 -0.15328233 0.48542628 0.51384944 0.5410104 -0.48407793 0.017759535 -0.041826345 0.05484665 0.0389636 0.6625714 -1.0500622
OBT:002179 0.06040845 0.94734895 -0.5985555 0.25742447 0.37539637 0.06205878 -0.0898565 0.50813025 0.2795423 0.059308168 0.15472314 0.30937958 0.33233142 0.56117755 -0.33368722 -0.23618515 0.36420792 0.5471969 -0.008451022 0.17865673 0.6440748 -0.079786345 -0.3144257 -0.018950483 0.10000949 -0.66860753 0.17604037 0.16268612 0.11513163 -0.41381618 0.42799118 0.08871358 -0.07669789 0.906436 -0.26927245 -0.4030214 0.19977339 0.2781991 -0.030372823 0.39876756 0.14517957 -0.24330714 -0.41823888 0.035338596 0.5700873 -0.016514204 -0.7946993 -0.05167706 0.20285557 -0.11599009 -0.37433457 -0.013259507 -0.7092206 0.3821659 -0.1596053 0.41774413 0.01979002 0.18006778 0.90106153 0.29731536 0.30979484 -0.23162554 -0.0024741928 -0.6861586 -0.9389154 -0.07036962 -0.06734435 -0.42138556 0.3884491 -0.7790529 0.07264428 -0.07975004 -0.1731644 -0.29911035 -0.079733 -0.07116589 -0.07843158 -0.10109906 -0.23889741 0.8982068 -0.4154781 0.5050251 0.4212503 -0.54958826 -0.009296796 0.86227787 -0.0052744397 -0.15342613 0.3509968 0.010391805 0.5784743 0.13409495 -0.035183653 -0.7386815 0.024852727 -0.24535532 -0.24237137 0.031871483 0.288878 -0.94197816
OBT:002184 -0.1188672 0.9637978 -0.38662 0.19697036 0.41647944 0.105338365 0.03811619 0.13122314 0.13092346 0.044682436 0.46459687 0.31235254 0.27685118 0.5639925 -0.3920673 -0.22173811 0.57583266 0.16685696 -0.23420013 -0.021466576 0.37068397 -0.007874674 -0.19303803 -0.05013758 0.066702455 -0.7120041 0.25048232 0.1224416 0.21995915 -0.2502018 0.32396162 0.16969585 -0.055989813 0.9048748 -0.06917137 -0.09694595 0.4693565 0.36767825 -0.22858635 0.2606226 0.27564538 -0.22696733 -0.45462435 -0.27680418 0.7319422 0.016937226 -0.78431535 -0.26978835 0.3112626 0.17322081 -0.33201253 0.030514538 -0.66792905 0.40631446 -0.05163272 0.6016491 -0.13488765 0.44773233 0.83492243 0.44241157 0.06438316 -0.14379412 -0.17332791 -0.7814541 -0.9423902 0.009801102 0.009309539 -0.5341566 0.275026 -0.41733617 0.4509043 0.033659462 -0.06907381 -0.08340065 -0.1141706 -0.06824245 0.025916513 -0.5403204 -0.13027261 0.6399381 -0.33197552 0.9352501 0.41706538 -0.6260421 0.048064362 0.830419 -0.028248794 -0.51948154 0.25837272 0.3531862 0.4278454 0.1083602 0.15552402 -0.35187027 0.07805167 -0.03999693 -0.12771887 -0.19223236 0.41353434 -0.76475567
OBT:001184 -0.060084835 0.7831169 -0.5586604 0.025956297 0.38820505 0.110842235 -0.35668692 0.3726346 0.43442702 0.06860453 0.2555261 -0.010593986 0.17477009 0.67175317 -0.1053678 -0.1786917 0.23460276 0.20495234 -0.15218465 0.05389474 0.423021 -0.16533281 -0.116974905 -0.20701836 0.023148928 -0.8092903 0.0223643 0.090326086 0.04552048 -0.16006342 0.513006 0.3124004 -0.04997675 1.0397183 -0.2681624 -0.19587891 0.45823446 0.2267529 0.06737142 0.09530932 0.20566209 -0.14447632 -0.57261944 0.09562939 0.96657187 0.2072939 -0.7277808 -0.3736459 0.32600054 0.04850227 -0.25688863 0.284473 -0.75635695 0.10802634 -0.26123852 0.4032215 -0.120363474 0.45384106 0.9232972 0.507169 0.21996629 -0.48348477 -0.058847666 -0.66246617 -0.64644563 -0.1591793 0.1525812 -0.3152214 0.313868 -0.41089183 -0.04489737 -0.39090598 0.0074616293 -0.13153851 -0.15692541 -0.11694786 -0.151626 -0.4047038 -0.49291277 0.4879362 -0.21343938 0.6601978 0.61112887 -0.5726368 -0.019626545 0.6628021 0.18057914 -0.20320672 0.27366105 0.051371545 0.44054666 0.39078245 0.12927338 -0.6829388 -0.02622632 -0.0488521 0.023273678 0.19562612 0.34902802 -0.90253395
OBT:001822 -0.35596976 0.9991978 -0.15759708 0.047298998 0.18419448 -0.27093634 -0.2559941 -0.009078972 0.21650769 -0.3313616 0.72906446 0.121393465 0.39800888 0.11201122 -0.41858828 -0.16309287 0.49367416 0.06918893 0.30227816 -0.12935588 0.32568803 -0.3194674 -0.53352857 -0.28112337 0.091945134 -0.56656826 -0.14108263 -0.29034576 -0.12874798 -0.81169146 0.6201491 -0.15908217 -0.23521987 0.7678317 0.3182544 -0.29358461 -0.20772614 0.2828825 -0.54030806 0.13345684 -0.23576649 -0.35369495 -0.5989 -0.3370865 0.42860875 -0.18186532 -1.051295 -0.14149994 0.115044996 0.042475052 -0.33006904 0.07890013 -0.8473033 0.014174956 -0.078928255 0.5969088 0.205017 -0.010698822 0.86809504 0.20503873 0.21500213 -0.26376098 -0.119881816 -0.3617061 -0.38784832 0.3178317 -0.10517553 -0.43288523 0.3550079 0.06250207 0.42035842 0.17992786 0.16727707 0.020454984 -0.20543076 0.06733608 0.39330587 -0.009663665 -0.048760895 0.35725763 -0.41985404 0.09607091 0.229736 -0.025372272 0.12002626 0.7123124 0.15674737 -0.045918524 0.37428343 -0.12072754 0.4886294 -0.084123135 -0.28226158 -0.36536664 0.2389414 -0.080669165 -0.69006246 0.20997337 0.15317047 -0.756663
OBT:000075 -0.2537151 0.36819017 -0.14159837 0.11086346 0.2991199 0.21630898 -0.04587378 0.4019685 -0.021072824 -0.40214527 0.170171 0.08880124 0.6195331 0.32219553 -0.39743465 -0.069211036 -0.09580527 0.16358198 -0.45988804 -0.08957227 0.07950551 0.42897466 -0.28136626 -0.22549635 -0.27903262 -0.033706356 -0.31933516 0.101287 0.48947576 -0.595677 0.41646665 0.122972906 -0.51558423 0.44102737 0.08809053 -0.612556 0.68452233 0.37577394 0.6643344 0.05084518 0.45242524 -0.27906317 -0.88989043 -0.2658992 0.61992997 0.26904312 -0.008710256 0.041290674 -0.329889 0.15692095 0.28520584 -0.05161825 -0.42894313 -0.016252976 -0.18893805 -0.23701096 -0.495657 -0.34530246 0.8023416 0.26248944 -0.4513663 -0.22417553 0.2667325 -0.561559 0.12398115 0.20833674 0.10150026 -0.19580336 0.26581877 -0.33671442 0.18637821 0.0109030185 -0.11251331 -0.6337643 0.12207974 -0.3927765 -0.6017719 0.22975834 0.254121 0.12857608 0.37384593 0.5239656 0.27253225 0.38712838 -0.038965464 -0.16709921 -0.062250793 -0.06720566 0.5883786 0.12659541 0.5188912 0.85927296 0.3866977 0.41658092 0.23972614 0.021875741 0.35627297 -0.2408317 1.1423937 -0.5011627
OBT:000350 -0.30983257 0.40282091 -0.28434306 -0.00043582244 0.30621952 0.2875893 -0.19458905 0.31030396 -0.041878935 -0.49650657 0.23892252 -0.009775504 0.31613624 0.42259786 -0.38310775 -0.019951647 0.006475228 0.08206911 -0.469773 -0.13072214 0.12980524 0.4367927 -0.30987284 -0.3612317 -0.37619257 -0.020501895 -0.38754186 0.115308434 0.34289804 -0.32080704 0.35871923 0.09986228 -0.61398333 0.63598907 0.2521154 -0.52337164 0.718783 0.2992987 0.784876 0.1181491 0.49120805 -0.3020959 -0.70108896 -0.10738368 0.72902805 0.085095786 0.12398998 -0.04286979 -0.30142707 0.18087843 0.32380056 -0.046071645 -0.4576146 0.0683223 -0.1951121 -0.09938458 -0.61881906 -0.50029707 0.8814316 0.25565413 -0.59457433 -0.28620914 0.16556668 -0.7322797 0.23971859 0.2256774 0.118664995 -0.18862529 0.36252785 -0.40148276 0.20318846 -0.10908976 -0.28574428 -0.5722117 0.14972581 -0.23033436 -0.49843827 0.3056403 0.18769772 0.269286 0.49225387 0.63408756 0.5154133 0.46371162 -0.048354194 -0.035236426 0.11283814 -0.090454146 0.71828806 0.074061155 0.6168859 0.77261 0.281612 0.31950104 0.03284561 0.16336037 0.4408981 -0.5751644 1.2439657 -0.33930162
OBT:000115 -0.29590154 0.40300924 -0.37834844 0.24208498 0.16343443 -0.07483517 0.113402344 0.25198862 0.042129297 -0.28846362 0.14588295 -0.10491816 0.6674034 0.14237626 -0.44710582 0.452114 0.06654174 0.12679099 -0.4503732 -0.12738891 0.2868616 0.15425222 -0.010429262 0.057443634 -0.20031989 -0.13442118 0.07697017 0.034283772 0.3642179 -0.3892827 0.32418248 0.42734656 -0.4534065 0.35542396 -0.05457304 -0.27684283 0.03622502 0.04307944 0.14518404 0.1290972 -0.058407877 -0.20561765 -0.5047526 0.115529954 0.425231 0.034850497 0.30152267 -0.01745514 -0.17316513 -0.1356229 -0.08461826 -0.040584665 -0.46353945 0.13349052 -0.33901244 -0.0515397 -0.2739705 -0.27967826 0.24919994 0.5765943 0.1178246 -0.048105355 0.058765605 -0.41008058 0.0019334338 0.2842693 0.042277757 0.14072792 0.18960227 0.19408074 0.2882389 -0.2499623 -0.24964483 -0.37665161 0.3030067 -0.28637218 -0.16208476 0.02297922 0.23371859 0.4927556 0.18969306 0.74233675 0.3994245 0.36618176 0.3283752 -0.18884549 -0.16134089 -0.45527235 0.4041236 0.010234816 0.2720583 0.2548142 -0.02053741 0.06071256 0.023592172 0.06832347 0.067919485 -0.053519588 1.0407236 -0.4441711
OBT:000010 -0.78075314 0.3773261 -0.036618844 0.22663443 -0.24188288 -0.1607708 0.07847038 -0.5282655 0.057591558 -0.38205066 -3.6153957e-05 -0.102092564 0.25970477 -0.25974584 -0.87652904 0.07038251 0.3706435 0.20648585 -0.05396515 0.09671331 0.4679292 0.09374783 -0.005441876 0.5319011 0.18352619 -0.4172453 0.49539575 0.2084191 0.0024675094 -0.5784034 0.026806496 0.08028654 -0.088788085 0.4474331 0.30350393 -0.6415396 0.18506758 -0.31909692 0.25691456 -0.6483975 -0.12431439 -0.022413535 -0.7615162 -0.4055632 0.104016475 -0.26811624 -0.08090842 -0.27833098 -0.29278132 0.010218818 -0.049225908 0.16655952 -0.3936867 -0.16923107 -0.49572492 -0.26120648 -0.13280566 -0.21157192 0.5728956 0.64477545 -0.07169663 0.15767924 0.53011996 -0.21779694 0.0023242792 -0.22525069 -0.12395039 0.18858156 -0.15118055 0.1504667 -0.43316278 0.036410376 0.5037731 0.017599177 0.2654495 -0.09834541 -0.512671 -0.061396405 0.29231313 0.23601937 -0.23616877 0.06784174 0.5060513 0.50768816 0.86672485 -0.21366376 0.41412544 -0.15158063 0.20594974 -0.39893824 0.0006913702 0.114689484 -0.4101125 0.07178628 0.41131976 0.13551195 0.033049636 -0.042216755 0.8417636 -0.19087346
OBT:000217 -0.23180655 0.6189584 -0.08494032 0.2077292 0.30947992 0.39405668 0.049954444 0.32351682 0.2249988 -0.62841725 -0.058109578 -0.11938787 0.2928228 0.46855405 -0.6246774 0.08473961 0.08049854 0.17403562 -0.34240308 0.044728365 0.110006765 0.18826516 -0.12662609 -0.2175331 -0.0169992 -0.10713188 0.00078964024 0.09889009 0.47811082 -0.4309787 0.39051867 0.16499698 -0.35144186 0.5970866 -0.11040594 -0.46766347 0.13793571 0.16426246 0.1940869 -0.09700244 -0.18007131 -0.13694374 -0.39737695 0.07663364 0.42247316 0.034275897 -0.20124775 -0.10817212 -0.15736827 0.11092916 -0.2509165 -0.041290194 -0.341608 0.14505431 -0.36663774 0.18680692 -0.18279624 -0.17512399 0.31662354 0.712488 0.17900719 -0.07701308 0.083122045 -0.6231513 0.32913142 0.3968347 0.06433348 0.21315712 0.16508687 0.07438093 0.21591748 -0.17004564 -0.009253517 -0.2166367 0.06993823 -0.10092853 -0.22185367 -0.0021557307 0.32246754 0.40405148 0.11659063 0.563402 0.30754426 0.13251278 0.13257374 0.09464211 -0.11256336 -0.51932645 0.31965235 0.02374837 0.21684825 0.120504454 -0.13128811 0.20929737 0.19133617 0.17938912 0.38258073 -0.06852232 0.8404018 -0.3992408
OBT:000224 -0.68811446 0.43342334 -0.4040301 0.36853606 0.3776522 0.11673808 0.16033512 -0.03704094 0.38158855 -0.19700503 -0.09894084 -0.3984475 0.13122626 0.21360803 -0.60625744 0.24028036 -0.3263387 -0.12231173 0.09576127 0.20547275 0.21966308 0.18757099 -0.35950044 -0.22131217 0.24241006 -0.07570642 -0.15510012 -0.1117839 -0.12181119 -0.11077029 0.3310246 0.050645497 -0.11402249 0.2533159 -0.19183207 -0.24947007 0.016413001 0.14489932 0.1896413 -0.16406111 0.30836034 -0.3484026 -0.4224804 0.074870385 0.53083277 0.5370808 -0.20902117 -0.05232568 -0.21027239 0.13009185 0.10628005 0.089203894 -0.5486284 -0.23060833 -0.5077254 0.11471874 0.009610969 -0.04751568 0.08557904 0.7966527 0.18490706 -0.15602823 -0.123518765 -0.8354518 0.12078417 0.10408019 -0.036911234 0.18173587 -0.33967468 0.0678069 0.2167838 -0.09002315 -0.12813316 -0.112720124 0.38248792 -0.5011483 -0.2646033 0.43696612 -0.014826456 0.3185085 0.34318328 -0.0110880695 0.06973688 0.35930127 0.3906072 -0.24515624 -0.12235384 -0.43568674 0.34692216 0.5194596 0.13937707 0.22370851 -0.13357043 -0.003583297 0.26854178 0.20526409 0.21726348 -0.042667806 0.7453822 -0.20662408
OBT:001746 -0.389634 0.40508124 -0.2608695 0.41679862 0.5742483 0.07439827 -0.43017268 -0.02242778 -0.042550474 -0.35931128 -0.0046577193 -0.27398774 0.1650925 0.36514843 -0.2534784 0.18767272 0.33438602 0.13440827 -0.56816995 -0.18397744 0.37279546 0.2537069 -0.21981013 -0.26308265 -0.17390832 -0.5825269 -0.71749777 0.27015537 0.02690063 -0.18072057 0.2509273 0.12753262 -0.19453038 0.30283266 -0.32661447 -0.31856364 -0.2817064 -0.15673329 0.6385691 -0.28256965 0.099512 -0.31664902 -0.57826895 0.008423998 0.3158738 0.014471621 -0.11382217 -0.1298611 0.012250273 0.018960213 0.018020077 -0.16541727 -0.23039395 0.016164437 -0.7705009 -0.080501586 -0.05722423 0.12917121 0.6872269 0.57390684 0.22531843 0.16330011 0.041013297 -0.5405825 -0.34660557 0.5187828 0.38217306 0.05804851 0.2503572 -0.25114194 -0.28027087 0.19345826 -0.27331063 0.1793674 0.43177876 -0.5223921 -0.4229739 0.3159142 0.047661778 0.7339283 -0.07841009 0.45915046 0.41212374 0.30716634 0.5825211 0.014115786 -0.11830995 -0.2286764 0.320176 0.19491366 0.42270395 0.5617498 0.24321924 0.3795303 0.0665121 0.047860693 0.41112554 -0.08098628 0.57749313 0.31371194
OBT:000240 -0.18370424 0.74199486 -0.4812786 0.5481805 0.15046407 0.15675639 0.051466573 -0.024620024 0.13124773 -0.2041667 -0.036593195 0.077448145 0.33226156 0.36680657 -0.4466392 0.48124254 0.04827412 0.172413 -0.66776514 -0.06552871 -0.0156745 0.009714244 -0.074849755 -0.15403247 0.23586173 -0.26879618 -0.13675143 0.05188659 -0.2823336 -0.6352107 0.31977975 0.36998954 -0.4283565 0.26284033 0.044826165 -0.21581599 -0.42255393 -0.0010652557 0.09482077 -0.05111942 -0.07051456 -0.030532664 -0.09288023 0.0702298 0.55597 -0.03495212 -0.15538049 0.13118647 0.047957398 -0.3999787 -0.18063684 -0.42039037 0.045673076 -0.17311902 -0.057908222 0.17390539 -0.4820158 -0.124136224 0.13544928 0.65317434 0.06594356 -0.2949088 -0.03889113 -0.3451967 0.032174695 0.08544613 0.2654761 0.08931881 0.20082267 0.3286541 0.01558376 -0.16956748 -0.24093105 -0.09293782 -0.13390103 0.04604263 -0.13894713 0.0019448391 0.05430954 0.20659022 0.14200096 0.21515039 -0.088849545 0.22800617 0.032868646 -0.16470973 0.113097765 -0.33896175 0.5632613 -0.063148476 0.68699235 0.22060281 -0.028618677 -0.25789657 0.40571538 -0.35747847 0.1878376 -0.29559073 0.8819543 -0.64827514
OBT:000099 -0.30134612 -0.037172653 -0.2628184 0.108951025 -0.06965374 0.019095553 -0.36675337 -0.035394184 0.1760732 -0.12799212 -0.24492842 -0.052339207 0.5805191 0.06759103 -0.43578982 0.24896027 -0.13714223 -0.008964744 -0.624212 0.2272783 0.38893896 0.34528518 -0.23834313 -0.31690714 -0.012521654 -0.16589502 0.29711428 0.15014549 0.09680797 0.06769191 0.47799993 -0.14846106 -0.6262686 0.21838386 -0.27534923 -0.17445484 -0.12974143 0.11758822 0.36837712 0.07512598 -0.012463871 -0.019146964 -0.4150122 0.2817737 0.14913857 0.13579936 -0.20888579 0.06108121 0.0071887034 -0.2473466 -0.152702 0.1915517 -0.5222877 0.08843294 -0.28566733 -0.26829994 -0.09451845 -0.2273759 0.15155657 0.88780314 0.35588336 -0.09369867 -0.07148894 -0.26040438 -0.33836573 0.2772904 0.05435173 -0.05716777 0.32974473 0.122497275 0.6498816 -0.3526676 0.29592186 -0.6156524 0.20730868 -0.42942324 -0.5674555 0.56922454 0.45306548 0.14988473 0.44697136 0.15560606 0.044494383 0.05579165 0.21815029 0.34922498 0.28821272 -0.5005954 0.15983106 -0.09686476 0.17537315 -0.053295095 0.11035459 0.12631129 -0.2237669 0.019620214 -0.036787156 0.006031328 0.40299317 -0.34330717
OBT:000219 -0.08294606 0.3348401 -0.28785354 0.32684365 -0.33703598 -0.022582537 0.21733072 0.12475786 0.37778127 -0.31082872 0.054123838 -0.114334725 0.12927361 0.07095419 -0.3926599 -0.38835496 0.13855866 -0.22701049 -0.100822896 0.2556304 0.5718169 -0.13400379 -0.2502972 -0.26297224 -0.2683647 -0.1628725 -0.12638564 -0.24034998 0.09553486 -0.48988456 0.7076289 -0.19635987 -0.17808285 0.5905981 0.3971624 -0.18133186 0.05735613 -0.06900512 -0.048667986 -0.30357438 -0.24061804 -0.2490393 -0.50038576 0.060617946 0.3411025 0.40980336 -0.33386037 -0.20838702 0.013344004 -0.07101916 -0.5733382 -0.18100455 -0.49657407 -0.04051696 -0.04969033 0.5782198 0.10756724 -0.08286816 0.7156698 0.10120826 0.13642895 -0.419009 -0.11820536 -0.3150207 -0.14329933 0.42479324 -0.22349797 -0.045384083 0.2820434 -0.12736984 0.21200483 -0.18963102 -0.25628242 -0.04729962 -0.43983206 -0.036014806 -0.07247792 0.3035368 0.11004466 0.32078987 -0.09288594 0.2609457 -0.18911941 0.27598843 0.21901025 0.054958083 0.12276342 -0.45788735 0.1730704 -0.13482806 0.16738491 0.22602011 -0.5728667 0.023759814 0.56878483 0.025552837 -0.26518196 0.12232732 0.410978 -0.41129386
OBT:000162 -0.122669004 0.3414776 -0.037332434 0.32763785 -0.10498004 -0.058383334 -0.19406405 -0.23934321 -0.19663236 -0.8711671 -0.009556996 0.16896762 -0.008317622 0.1474701 -0.16391276 0.10655159 0.019028803 -0.17385566 -0.52203846 0.07227863 0.122172855 -0.023360746 -0.018140508 -0.28278697 -0.20013729 -0.30723453 -0.06263407 -0.046008497 0.28720915 -0.59444237 0.445339 0.08968947 -0.380731 0.47810334 -0.093954384 -0.008874268 -0.19638953 -0.18131958 -0.07320681 -0.038567428 -0.12477938 -0.47874197 -0.39595696 -0.2493083 0.4142203 0.29106507 -0.3933827 -0.3634767 0.034955952 -0.1794537 -0.08642305 -0.17034338 -0.1293904 -0.40229583 0.015212395 0.5869787 -0.2560526 -0.35724047 0.3399644 0.40526477 -0.10566843 -0.3398637 -0.12131811 -0.2563163 -0.34311324 0.1874846 -0.10142878 0.38308242 0.062276904 -0.09627521 -0.2748355 0.067502774 -0.037676588 -0.28366783 0.11910778 0.0790442 0.06601545 -0.09587678 0.36112526 0.443431 -0.19681041 0.1239461 -0.39122728 -0.23564543 0.19688581 -0.17495127 0.031060856 -0.23729907 0.35320395 -0.17655241 0.66256064 0.038694497 -0.40313062 -0.25599563 0.45265806 0.37900043 0.051535536 -0.08197149 0.57546264 -0.3055476
OBT:000218 -0.5179018 0.3458082 -0.39792717 0.24102357 0.022412734 0.30997357 -0.18365224 -0.045533225 -0.20619702 -0.096587114 0.19805683 0.04490143 0.0032011766 -0.26935568 -0.7179979 0.020553043 -0.3113273 -0.4261045 -0.20729499 0.01093548 0.3309748 0.109885 -0.52175903 -0.35264063 -0.27526817 -0.11676482 -0.027376097 -0.06959481 0.4268618 -0.048721824 0.58089113 -0.1450271 -0.16794388 0.5623813 0.07784108 -0.27405208 -0.12152083 -0.11296505 -0.03708694 -0.17158157 -0.28644693 -0.22738531 -0.4925035 -0.05307064 0.20619525 0.40576866 -0.45398062 -0.05324514 -0.11881235 -0.1193237 0.1828423 -0.015479859 -0.3277472 -0.055466816 -0.008269108 0.4137192 0.19396366 -0.22599572 0.23084998 0.22912027 0.14757542 -0.004139753 0.24361195 -0.00524989 -0.34589383 0.2947787 -0.0587564 -0.097076625 0.13478501 -0.44590425 0.421148 -0.2294406 -0.17452444 -0.08706175 -0.062027097 -0.30651882 -0.30253676 0.1563582 0.54642886 0.26277885 0.265465 -0.18876469 -0.27498212 0.12867635 0.17765628 -0.010796662 0.49323905 -0.46662158 0.07068685 0.32398966 0.351926 0.29414985 -0.5768968 -0.15257609 0.21055542 -0.09493873 -0.2689791 -0.17325279 0.47296035 -0.17066191
OBT:000029 -0.4009365 0.6473963 -0.34980375 0.14375125 0.07911397 0.39954433 0.18538514 0.10686234 0.09906811 -0.05446773 0.107390136 -0.28239152 0.22001402 0.3563635 -0.37491935 0.3374449 -0.046358578 0.19487219 -0.51000565 -0.23109315 0.10594822 0.15192278 -0.01111826 -0.111363366 0.24735363 0.08850543 -0.2527512 0.0028018523 -0.17926201 -0.048672076 0.21829408 0.26506463 -0.38664055 0.33062646 0.51222444 -0.019231025 -0.49125355 -0.22439764 -0.057884596 -0.015655542 0.30023524 0.0912616 -0.48430383 0.17594932 0.5077553 -0.08444858 -0.17073166 0.029895484 0.20335583 -0.35932305 0.15949433 -0.11047203 0.25191525 -0.17149444 -0.3171035 0.13989793 -0.4397575 0.08667499 0.3073621 0.547702 0.35454205 -0.21974218 0.056432415 -0.38611105 0.15415102 0.061124977 0.12216811 0.24648954 0.18950383 0.20609729 -0.22814733 -0.14205693 -0.26025453 -0.3564317 -0.19363272 0.023979545 -0.2158145 -0.043759003 -0.03506426 0.31781915 0.28714737 0.13261417 -0.1361018 0.42051104 0.21987541 -0.0093561215 -0.010478254 -0.40010414 0.22335398 0.011770603 0.6506429 0.24836011 -0.028093053 -0.026211781 0.3024019 -0.26248482 0.18453845 -0.15780641 0.79729366 -0.46718317
OBT:002257 -0.37223256 0.64484316 -0.5940758 0.8014148 0.15609235 0.12725788 -0.12303492 0.05106685 0.10974122 -0.24711801 0.057136532 -0.10048671 0.18052739 0.13520986 -0.40544906 0.39105228 -0.10327109 0.20020117 -0.6520022 -0.018480202 0.21185072 0.08486911 -0.3755618 -0.4396729 0.19247822 -0.2865672 -0.27665263 0.010668625 -0.0024976581 -0.43466818 0.4077148 0.27613148 -0.19908606 0.2942958 0.15725483 -0.042589325 -0.4253895 0.04836142 -0.28705582 0.1551828 -0.07534063 0.0076517714 -0.41889137 -0.01967052 0.6252745 -0.47243536 -0.11610779 0.08735244 -0.01400432 -0.4795804 -0.08290294 -0.70175105 -0.13790758 -0.085442334 -0.117208175 0.15951896 -0.38295737 -0.19811758 0.16684316 0.58991575 0.008943997 -0.41038257 0.041956946 -0.28470945 0.15167615 0.107288025 0.32834148 -0.080016874 0.09748789 0.44967774 -0.0064839968 -0.23926145 -0.071099125 0.012820862 0.046840068 -0.051122427 -0.34984183 0.25339285 0.0053567477 0.15143579 -0.18091357 0.19816975 -0.25919816 0.34544814 0.0036906628 -0.14645168 0.16518342 -0.39426824 0.451741 0.074390806 0.56535274 0.39018902 0.2685008 -0.37245438 0.32961094 -0.41680244 0.1973652 -0.31017512 0.66360694 -0.60296625
OBT:002020 -0.2987888 0.8081168 -0.27844986 0.43828693 0.27866355 0.122433744 -0.12875068 -0.17585947 0.24125001 -0.051567588 -0.13067767 -0.0094067585 0.30869758 0.3139937 -0.51806086 0.26422867 -0.011111999 0.053413697 -0.4257101 0.11104532 0.037717596 0.024717296 -0.093376674 -0.23000814 0.20543197 -0.21201085 -0.02953331 -0.055552132 -0.06020151 -0.5166332 0.2230098 0.54540217 -0.5555648 0.33266315 -0.105155274 -0.4023225 -0.63492 -0.03999802 -0.07824956 0.11804507 -0.12860908 0.012696155 -0.039051697 0.020343095 0.60084945 0.09735544 -0.024493039 -0.16138254 -0.040607207 -0.33872664 -0.2950307 -0.41685897 -0.046729185 -0.41754797 -0.09677219 0.11474318 -0.48762766 0.085715316 0.16204806 0.56743664 0.15796216 -0.2248002 0.12441809 -0.38966057 0.09894786 0.0029368845 0.2534017 0.16730924 0.17066666 0.1654011 -0.20149101 -0.22046678 -0.14195348 -0.06742635 -0.15790941 -0.0064687645 -0.3310312 0.29741865 0.03591992 0.2831133 0.23898922 0.45968613 -0.07120533 0.061776392 -0.218826 -0.24617687 0.26159036 -0.15757479 0.42878038 -0.009555364 0.81236416 0.4291964 0.0007441446 -0.15656942 0.124721766 -0.31510434 0.009398524 -0.31709287 0.8241696 -0.5768625
OBT:001289 -0.46922958 0.60986793 -0.38408673 0.3058497 0.32807916 -0.05261538 -0.21399528 -0.16281915 -0.010086463 -0.10618064 -0.1866511 -0.25151223 0.12977736 0.42110875 -0.5452604 0.08581189 -0.06516481 0.1512881 -0.57167804 -0.15081832 -0.056677733 -0.24287687 -0.1201543 -0.15718514 0.16728157 -0.19301942 -0.050786708 0.028379401 -0.14255768 -0.3882471 0.30663675 0.34735873 -0.27583852 0.20290141 0.06317706 -0.28968766 -0.5245749 -0.24562119 -0.13102853 0.06383526 -0.0074076913 -0.111836985 -0.25004458 -0.18906216 0.5943282 -0.17474826 -0.39478958 -0.020945549 -0.17357562 -0.47029057 -0.06824211 -0.36201295 -0.117965646 -0.3141874 -0.12654799 0.445864 -0.29848406 -0.10090593 0.09922548 0.86471075 0.17299482 -0.3304282 0.12288061 -0.51953614 -0.022220824 -0.035682593 0.3025515 0.13776805 -0.060341343 0.079237856 -0.09937323 -0.0765222 -0.11217562 -0.31008658 -0.15047048 -0.008351819 -0.18528605 0.058891594 0.17495131 0.2808974 0.33501503 0.13493319 -0.052372076 0.3671226 -0.058357235 -0.4003136 -0.049726885 -0.21388943 0.37120998 -0.013784248 0.52066416 0.42722848 0.0049060713 -0.03937435 0.43924358 -0.28421125 0.16024294 -0.32808065 0.75355154 -0.49922407
OBT:001893 -0.15659565 0.44859874 -0.10310673 0.5956503 0.18776277 -0.31703305 -0.1853921 -0.17879738 0.26397997 -0.53165776 -0.2845465 -0.049040627 0.34425253 0.2705715 -0.3298929 0.1115218 -0.0014219879 0.097918674 -0.55789495 0.012896663 -0.019429145 -0.15408373 -0.07911042 -0.142135 0.120946795 -0.13750274 -0.042334642 -0.05246136 -0.00087036344 -0.32350382 0.4863681 0.61603343 -0.385921 0.15006025 0.13888146 -0.12815349 -0.375091 -0.10258814 0.12830073 0.30448255 -0.019723738 0.010649556 -0.11794742 -0.057672966 0.47890297 0.19063854 -0.46633205 0.17891124 0.027593045 -0.39818197 -0.10159822 -0.19856916 0.017383268 -0.5423128 0.005952494 0.3776255 -0.25579745 0.107867084 0.24212545 0.49782327 0.27266788 -0.18387516 -0.16034126 -0.15424776 -0.054495424 0.15059799 0.0049795825 0.17918758 -0.042481307 -0.023067744 -0.2866714 0.075565614 -0.39129344 -0.011123442 -0.101338945 -0.024633164 -0.057854265 0.12989032 0.11530783 0.033561632 -0.1220175 0.2300488 0.10915209 0.010242281 0.16955562 -0.26520616 0.19893965 -0.04955746 0.42403018 -0.14328162 0.46064273 0.14779393 -0.16785783 -0.29725125 0.31191948 -0.018813413 0.16860583 -0.400163 0.8759684 -0.5109583
OBT:002194 0.040291183 0.55977553 -0.4085227 0.4283819 0.093590416 -0.32813323 -0.30288658 -0.16471885 0.017612536 -0.3407806 -0.13126598 -0.13099058 0.2572254 0.20451452 -0.1349802 0.25183383 0.15044022 0.01205542 -0.579994 0.13861 0.0451459 -0.22314751 -0.10929969 0.1323016 0.2102514 -0.16596408 -0.06352721 -0.17887454 0.10744556 -0.38760078 0.4610311 0.42250302 -0.35066545 0.4282713 0.31654844 -0.3961441 -0.2994442 0.029640092 -0.16069965 -0.19348839 -0.14066413 0.0025763118 -0.2240722 0.035671975 0.47326863 -0.11496325 -0.2002381 -0.23472588 -0.04090077 -0.30355874 0.076659225 -0.37721375 -0.08354489 -0.41091323 0.07360517 0.42086473 -0.52259153 0.0091206515 0.1492217 0.64436346 0.011359417 0.003593395 -0.11761851 -0.28406724 -0.18654865 -0.018361228 0.16218923 0.45609137 0.088562824 0.2588403 -0.10732833 -0.011555475 -0.074014984 -0.031921655 -0.10350874 -0.21324243 -0.19360523 0.12683266 0.09400334 0.15888357 -0.22419505 0.26674625 -0.20184861 0.30378577 0.23302521 -0.26798776 0.21101983 -0.11554189 0.4078958 -0.012984762 0.45293853 -0.0014790738 -0.08300001 -0.20292483 0.33683565 -0.25045937 0.08547043 -0.36031336 0.75258684 -0.57827985
OBT:001804 -0.09838792 0.2733419 -0.17959557 0.23950596 -0.14810458 0.21443723 -0.11212484 0.1166257 0.105970845 -0.19118033 0.2470808 -0.39336947 0.24164875 -0.07914959 -0.13532555 -0.018271618 -0.029283565 -0.025614697 0.047863077 -0.04183471 0.32186413 0.14216252 -0.3584325 -0.13003193 -0.25313967 0.32198867 -0.039085355 0.15416947 -0.09700781 0.0050499127 0.5021328 0.03281314 -0.5094577 0.5230949 0.4192741 -0.12076203 -0.21981777 -0.29490474 0.23654078 -0.10608367 0.2649297 -0.3256668 -0.15819065 0.33157238 0.56549305 0.19536172 -0.21155803 0.025462493 -0.08495975 -0.32707533 -0.11598192 0.13490368 -0.08121551 -0.043262694 -0.08130304 0.28702855 0.14860567 0.027656201 -0.15335655 0.44947255 0.51905054 -0.07834305 0.30477363 -0.10643283 0.34952933 0.16115947 0.2832706 0.12428858 0.2616333 0.07776187 0.30943114 0.072949484 -0.084561855 -0.30003363 -0.13629235 -0.6203339 -0.19077483 0.086914346 -0.0025601934 0.471267 0.17867887 -0.094742365 0.035940755 0.41157314 0.45148647 -0.117334224 0.18322526 -0.018239675 -0.14968361 0.18160473 0.4377292 0.10673547 -0.39726233 0.5579017 -0.022299008 -0.08453797 0.08603159 -0.18303764 0.17093883 -0.5171478
OBT:000268 -0.27280632 0.5676068 0.09969407 0.14817394 0.037389155 0.10702754 0.06751356 0.18612248 0.012754506 -0.13241695 -0.16694267 -0.1865865 0.12539689 0.43078277 -0.3507995 0.21847814 0.043154214 0.32050407 -0.5176117 -0.06684015 0.19625413 0.43401507 -0.03321541 -0.23776725 -0.21456084 0.08899105 0.05686504 0.0607296 -0.3661206 0.03821251 0.25980818 -0.068008594 -0.3477135 0.34315515 0.5460553 -0.22964154 -0.12113793 0.10467113 -0.29671606 0.14313449 0.36205387 0.22632302 -0.50608957 0.11611276 0.6791086 -0.07475156 -0.49470794 0.21754675 0.10570788 -0.33000132 0.034325268 0.14239942 0.23287863 0.22392665 -0.36814892 -0.0867296 -0.35424596 -0.038744736 0.19896998 0.34899896 0.6028163 0.17783332 0.05986046 -0.48435137 0.03688593 0.27336705 0.31023228 0.2321433 0.24821247 0.014610773 -0.080455765 0.06642803 -0.29060468 -0.24035172 0.008761955 -0.4538779 -0.094352484 0.1016887 0.04728027 0.42651865 0.107556194 0.156655 -0.12978381 0.39281 0.04237208 0.01253452 -0.024731223 -0.41015166 -0.04074002 -0.027308706 0.38710585 0.14542933 -0.12989531 0.31388688 0.03869631 0.14645365 0.32031456 -0.09165581 0.7927361 -0.28640586
OBT:000037 -0.48258767 0.45582792 0.0766986 0.41246676 0.10467092 0.29620782 -0.026655983 -0.14274225 -0.067084946 -0.30365026 0.13942523 0.2359248 -0.16971911 0.37330103 -0.47392404 0.08178593 0.2384159 0.3319581 -0.03642312 -0.05004115 0.010978054 0.21294251 0.2008208 -0.08618335 -0.21843836 -0.021368539 -0.08658746 0.0054619997 -0.40718415 0.113597564 0.45251435 -0.1075291 -0.18630052 0.5815254 0.20518555 -0.32948384 0.08082363 0.037378997 0.050732058 -0.08000441 0.005424858 0.33585754 -0.4136037 0.12545073 0.8357881 -0.098356426 -0.42227873 0.11813881 0.07887208 -0.14418915 0.38991076 0.4419257 -0.10533312 0.3300161 -0.24794018 0.16359037 -0.281622 -0.20915511 0.43249804 0.4049694 0.5898746 -0.2366532 0.030863238 -0.1121625 0.11005561 0.11797747 0.2786834 0.50206137 0.11732084 0.535825 -0.19975366 -0.41728678 0.013241101 -0.34401724 -0.10921859 -0.24605517 -0.4671466 0.12528788 0.15870747 0.43402866 -0.016783103 0.1481996 0.19811901 0.4360292 0.48078176 -0.19918571 -0.038592402 -0.3808273 -0.043312687 -0.17342143 0.33995712 0.4793611 -0.08228898 0.44392064 -0.1642243 -0.37274414 0.52025235 0.00888073 0.5724361 -0.5469856
OBT:000564 -0.58452743 0.33041292 -0.035014004 0.30387002 -0.083616346 0.3097511 -0.06947572 -0.09131943 0.1193942 -0.14606175 -0.043122377 -0.12567215 0.10211048 0.28383213 -0.7734192 0.18602979 -0.06883698 0.11782549 -0.042293366 -0.07371544 0.31633702 0.37238434 -0.17492959 0.21149245 -0.10363182 0.25016728 -0.15083608 0.47577706 -0.18111438 -0.20192488 0.13046874 0.08266498 -0.355785 0.72267616 0.40963018 -0.34961763 -0.14984095 -0.1313077 0.006172133 -0.022639625 0.16045119 0.3001224 -0.30841285 0.14289328 0.57698697 -0.08791516 -0.3856583 -0.08503934 0.09603884 -0.16748552 -0.030493913 0.37866426 0.1565666 0.14714836 -0.22691365 0.2047661 -0.101854846 0.01727732 0.3395793 0.5765121 0.4246582 0.17236511 0.33373454 -0.34188908 -0.13605078 0.045289118 0.3650355 0.3943874 0.4858942 0.2820739 -0.10851866 -0.23422942 -0.4241383 -0.19668138 0.03660611 -0.46215996 -0.017336164 0.15782027 0.106503844 0.4060236 -0.034945354 0.0797697 0.13413776 0.28752074 0.023065075 -0.08513113 -0.012833957 -0.40702775 0.1265673 -0.20562576 0.4474317 0.220795 -0.09563217 0.24216196 0.049123753 -0.29483253 0.4875733 0.0136365015 0.5470489 -0.50451905
OBT:000659 -0.64119273 0.7902248 0.07618404 0.016496647 -0.16142014 -0.027666386 0.0967299 0.060430866 -0.03302945 -0.2786672 -0.11960669 0.014255116 0.16133688 0.3776574 -0.3895974 0.17098309 0.23341215 0.096519746 -0.02129811 -0.14121568 0.040754996 0.45156267 -0.13680021 -0.08621401 -0.11546404 -0.009993491 -0.24827057 0.11533874 -0.38459545 -0.0023060744 0.15983 0.08068592 -0.47877586 0.45742223 0.07889461 -0.38989037 -0.25910446 0.20602344 -0.08537467 0.060353614 0.45261797 0.19966389 -0.43741235 0.3643427 0.7811873 -0.10009425 -0.24839756 -0.050529674 0.29921386 -0.3008397 -1.0927739e-05 0.070215516 0.094312504 0.12351808 -0.3982248 0.18709081 -0.40196273 0.009671946 0.32746792 0.31795636 0.5090147 0.2271908 0.11086516 -0.37057588 0.26325044 0.19136761 0.3077625 0.20398766 0.62678957 0.15609029 -0.055898707 -0.38624445 -0.32781973 -0.34157577 0.07997841 -0.2753137 -0.5322736 0.21932015 0.14281894 0.42627123 0.20995386 0.14500771 -0.033283807 0.52522105 0.14261334 -0.046438213 -0.23246947 -0.30364868 -0.046997007 -0.19573633 0.42263207 0.06225945 -0.049277198 0.258364 -0.11776229 -0.31984827 0.3608079 -0.05165437 0.5027702 -0.5418866
OBT:001768 -0.49258983 0.09733804 -0.43121687 0.25453603 -0.17299144 0.5003428 0.21791106 0.4825447 0.31815317 -0.5381715 0.29326305 -0.35604534 0.36528662 0.15989819 -0.4196373 0.0801501 -0.08398967 -0.14991039 -0.3723834 -0.10972394 0.09030249 0.3820417 -0.21196969 0.26729792 0.5296124 0.13947478 -0.46322468 0.07460789 -0.037785623 -0.29451352 0.49338257 0.34032863 -0.456084 0.23411298 0.2580608 0.2875935 -0.37950093 -0.25762677 0.2993341 0.00094958046 0.47171512 -0.06425887 -0.4598015 0.28166315 0.38595092 0.19607063 -0.28052846 0.16562778 0.016470559 -0.21404944 0.00432059 0.10862461 -0.098358616 0.04810776 -0.43780774 0.39009118 -0.21392228 0.1582853 0.34957445 0.7534926 0.11181447 -0.122195385 0.15137215 -0.6747666 -0.20345941 -0.040087033 0.31250507 0.26973438 0.12418609 0.113601275 0.032195207 -0.44134453 -0.12757458 -0.40037087 0.23776649 0.07359336 0.034271244 0.31657696 0.42477766 0.47642186 0.13263625 0.17211808 -0.08206003 0.44340298 0.26835552 0.05492065 0.41145298 -0.13409622 -0.078730606 0.073476985 0.5096723 0.43661895 0.14125869 0.31247404 -0.14040892 -0.0091809705 -0.28141823 -0.26566657 0.68017036 -0.33985528
OBT:002022 -0.5171885 0.47070533 -0.51093817 -0.011262139 0.21472596 0.08200734 0.115127884 0.46422052 0.24912126 -0.27139822 0.17117444 -0.057416942 0.25368482 0.41986102 -0.42072448 0.082477465 -0.401823 -0.07745185 -0.0881344 0.1222279 0.1357828 0.3366485 -0.35488042 0.11116811 0.24709113 0.13335097 -0.4844176 -0.037714742 -0.2608003 -0.25230232 0.34239927 0.2837521 -0.44943768 0.5011541 0.13189815 0.15212126 -0.12565552 -0.18688418 0.22868201 -0.056641694 0.32707408 0.18151098 -0.30434358 0.24326256 0.7628961 0.22547013 -0.1073059 -0.10991135 -0.16983953 -0.27362105 0.30531526 0.0269391 0.008241809 0.015566278 -0.24238975 0.2602532 -0.008214194 0.12607352 0.2554347 0.9289164 0.36695847 -0.32586733 0.09674147 -0.73218274 0.113545984 0.08480805 0.22939537 0.18013059 0.07214149 0.03463935 -0.107317165 -0.27319565 -0.17575818 -0.47224075 0.034843694 -0.30400127 -0.014050502 0.25096437 0.0036415348 0.48978397 0.50725514 0.13228244 0.09427536 0.5230672 0.36009547 -0.08674887 0.25483915 -0.36394268 0.009933073 0.09800411 0.4263423 0.22552407 0.008732584 0.12913157 0.16312005 -0.0287444 -0.15594931 -0.22214746 0.524747 -0.46910927
OBT:000549 -0.4069979 0.39790484 -0.5742627 0.45335722 0.3513003 0.037257545 -0.112485796 -0.12020674 0.41359082 -0.23449276 -0.10142352 0.041524798 0.14700551 0.20508406 -0.53194714 0.14381507 -0.3332488 -0.09964647 0.04343674 0.19296105 0.079063624 -0.05752799 -0.8041647 -0.05545917 0.413309 0.18704638 -0.21213332 -0.16967432 0.24473606 -0.24684414 0.2920822 0.13812675 -0.1659785 0.3632433 -0.1438094 -0.040790115 -0.01306905 0.075338565 0.24373394 -0.20444879 0.3826952 -0.08079753 -0.5591336 0.042180322 0.6195309 0.36445144 -0.30079174 -0.12581243 -0.15652256 -0.0977052 0.16381949 0.19642715 -0.21834138 -0.00833493 -0.45953026 0.15214987 0.23655167 -0.2128192 0.07614707 0.78029287 0.6890942 -0.1813094 -0.223114 -0.75631815 0.29026276 0.23235002 -0.113985755 0.08542798 -0.054211788 0.095466346 0.10798339 0.028650913 0.14207178 -0.17171942 0.35849866 -0.26419783 -0.28129134 0.44406614 0.04608938 0.4275883 0.5075086 0.020127757 0.006831057 0.6894642 0.44892064 -0.15799448 0.20848131 -0.4800521 0.07918989 0.47003505 0.16898587 0.13680674 0.16442426 -0.05527712 0.05772398 0.038360868 0.102761984 -0.32467103 0.53369415 -0.4003547
OBT:000906 -0.626505 0.5030704 -0.27600905 0.4545334 0.39592323 -0.0010121838 -0.12867172 -0.0005243993 0.30164126 -0.2033432 -0.3531544 -0.56705844 0.050452355 0.4400384 -0.8219241 0.008139714 -0.33743098 -0.0539926 0.011055034 0.07313122 -0.0019990935 -0.36900398 -0.4005546 -0.03895398 0.26464933 -0.03215286 -0.07859074 0.024157487 -0.16320623 0.10350284 0.37499124 0.14611633 -0.40187815 0.43678033 -0.36706573 -0.41921854 -0.35925317 0.05381534 0.20040794 0.25762162 0.14249283 -0.28862417 -0.1010699 -0.18482062 0.42287123 0.2025741 -0.23437686 0.18529277 -0.4227524 -0.12649038 0.20648932 -0.11843217 -0.44663244 -0.2913544 -0.44494534 0.5172059 -0.20379505 -0.17744882 0.12935047 0.692497 0.43958408 -0.32666528 -0.24533898 -0.60475856 0.12371383 -0.0056437417 -0.0959006 0.046758816 -0.3324668 0.0058005075 0.07017053 -0.079717994 -0.16953838 -0.23164509 0.39510366 -0.17666698 -0.40081608 0.112167835 0.36108905 0.2257173 0.20050469 0.056605615 0.17758077 0.34679115 0.2136495 -0.231523 -0.16705261 -0.3345971 0.4548804 0.32325748 0.13957033 0.22042328 -0.15970193 0.12582743 0.41025928 -0.18346661 0.30472848 -0.39415973 0.6045156 -0.36230707
OBT:000194 -0.611302 0.47016338 -0.25511476 0.26564303 0.20878391 0.26525033 -0.12805733 -0.20983143 0.50585467 0.010949777 0.15272942 -0.45854992 -0.0084961075 0.4353649 -0.7694326 0.12158309 -0.27768546 0.061715465 0.059902877 0.13797435 0.032074586 0.08878147 -0.57613766 -0.18252178 0.07940879 0.24389806 -0.25687864 0.034521867 0.07472323 -0.1866959 0.0749941 0.21385765 0.04987782 0.5772556 -0.2122213 -0.35584483 -0.006970942 0.34503058 0.43636766 -0.29568464 0.27846143 -0.042329267 -0.35454443 -0.12502538 0.5332306 0.60396314 -0.34906343 0.18453203 -0.42522407 0.26958185 0.1540839 0.120407835 -0.15742932 -0.27936566 -0.3930648 0.013635675 -0.06509265 -0.14202102 0.34532914 0.8162291 0.32669678 -0.18187283 -0.0027695668 -0.6824599 -0.08758304 0.21097127 -0.26167828 0.20236006 -0.17645344 0.10074689 0.10466358 0.11513972 -0.15259002 -0.27400374 0.36246884 -0.43804055 -0.07135402 0.15125397 0.08465848 0.10000791 0.31274042 0.04485736 0.3703073 0.30787784 0.44236672 -0.21150266 0.023820335 -0.57266396 0.27244592 0.17306767 0.12137721 0.21420784 0.0037552784 -0.14364529 0.11869765 -0.08357256 0.13372868 -0.22972055 0.65164953 0.030386286
OBT:000548 -0.5103037 0.4219409 -0.36425313 0.26668847 0.34846115 -0.032156043 -0.04265463 -0.0015338248 0.4523259 0.057001762 -0.2166774 -0.24908996 0.15252514 0.2988012 -0.68226063 0.11093736 -0.27161217 -0.020759346 0.07967556 0.09497685 0.36282623 0.09312181 -0.4649594 -0.28758666 0.24691708 0.14912741 -0.20360853 -0.16392928 0.037820324 -0.12740201 0.29277387 0.19880079 -0.119954444 0.6706462 -0.1787648 -0.29286382 0.07276618 0.23513608 0.26803622 0.028778594 0.36076093 -0.13135432 -0.3611455 -0.2106908 0.5068823 0.44711122 -0.21878672 0.019858824 -0.3720124 -0.029755032 0.21896447 -0.059129484 -0.25158754 -0.19437265 -0.52853554 0.3383101 0.113371365 -0.25572476 0.10882072 0.8612299 0.31636637 -0.18689936 -0.039350253 -0.63291407 -0.07343658 0.0051727556 -0.013613026 0.09755549 -0.043719165 0.08814558 0.2674068 -0.19535828 0.004327202 -0.24325226 0.3278656 -0.3972092 -0.25832504 0.2257167 0.05488833 0.3485453 0.516966 0.14764585 0.27833313 0.29687726 0.34585324 -0.21937133 0.021489602 -0.2909359 0.2783927 0.44186845 0.1447078 0.21795541 -0.03069182 0.11497349 0.3999875 0.07770694 0.22515452 -0.282742 0.8115488 -0.13600641
OBT:000560 -0.33559895 0.120385535 -0.08685947 0.19742295 0.43833867 -0.10078009 0.22252494 0.053081002 0.52329344 -0.122337945 -0.09994951 -0.34315607 -0.051788535 0.16521452 -0.7013031 0.24750592 -0.15758675 0.37250906 -0.038609575 0.24478483 0.15096587 0.29477313 -0.5881083 -0.53911227 0.11857285 -0.14530076 0.042707536 -0.15589985 -0.020845795 -0.15480661 0.56960607 0.18769467 -0.11241135 0.23852764 -0.13773552 -0.31073996 -0.14665726 0.08890343 0.33344007 0.07250779 0.4583708 -0.21036066 -0.3224778 0.08273182 0.35906443 0.49907854 -0.48534963 0.024680115 -0.2900369 0.0058061606 -0.041420564 -0.043043308 -0.11329337 -0.051905923 -0.47062498 0.2000201 0.03595952 -0.18465461 -0.017490683 0.6956682 0.3912062 -0.24896768 -0.26586196 -0.5301973 -0.013108687 0.24884188 -0.07950179 0.23419583 -0.09978577 -0.16743934 0.16086277 -0.13902068 0.08440247 -0.28031164 0.47923735 -0.41806886 -0.20169526 0.26989543 0.10134014 0.09521295 0.41404736 -0.008042159 0.25196826 0.31319028 0.23551929 -0.04682058 0.09226194 -0.468225 0.28560105 0.4392741 0.108482525 0.080602355 -0.0059637497 0.10761528 0.26677355 -0.06643483 0.06521124 0.0010881707 0.797569 -0.12775107
OBT:001342 -0.4846433 0.32232025 -0.20365457 0.38071957 0.3992275 0.2616466 -0.041974343 -0.16692673 0.2857173 0.13968827 0.18987541 -0.31353986 0.2884426 0.2326701 -0.41875467 0.21499199 -0.51347905 -0.25059876 -0.016554842 0.07183901 0.24852893 -0.12878655 -0.39311603 -0.27694997 0.0062910565 -0.019622138 -0.15186831 -0.23921421 0.16695447 -0.084817894 0.3770771 -0.04160428 -0.07052387 0.62126386 -0.21034555 -0.33539012 0.122387715 -0.06868902 0.2846882 -0.25827467 0.1914722 -0.063700415 -0.27567106 0.2679715 0.47060463 0.5828935 -0.100596815 -0.0063559245 -0.5748105 0.07363146 0.2007828 -0.018843414 -0.14557576 -0.15441276 -0.44663054 0.20934811 0.067049615 -0.13726392 0.21165152 0.86642975 0.36668357 0.04350827 0.16409837 -0.5067756 0.021387585 0.006672829 0.021936988 0.19354406 -0.32996887 -0.092854746 0.090583414 -0.11380694 -0.018960316 -0.026474295 0.04207145 -0.28722104 -0.17130318 0.25265908 0.050959308 0.3934036 0.3170133 -0.027381131 -0.10766363 0.32793227 0.18378945 0.061128538 0.20183912 -0.48798242 0.05329471 0.46088 0.23257746 0.093499914 -0.3566316 -0.13349819 0.10858115 -0.058028523 -0.24642955 -0.18510365 0.8302538 -0.28558767
OBT:000471 -0.5333061 0.29645392 -0.28173098 0.16733225 0.49151835 -0.04739522 0.21848682 -0.18757944 0.34342635 -0.1775283 -0.07359976 -0.3398345 0.23798898 0.13270338 -0.2778724 0.09945546 -0.28058267 -0.078572854 -0.11115897 0.25698167 0.34220412 -0.104957804 -0.4971119 0.15089825 0.06201909 0.21103834 0.06529565 -0.13440657 0.14645657 -0.007475834 0.3541979 0.05634263 -0.12339709 0.4415053 -0.42272615 -0.24817078 0.08940156 0.13832079 0.055025067 -0.3452725 0.36541143 -0.12146544 -0.22751574 -0.062012125 0.5797838 0.53087014 -0.18359096 0.014428844 -0.14569104 -0.008785221 0.4302506 0.1461812 -0.09531187 -0.019010993 -0.14725119 0.07403374 -0.004163008 -0.14573771 0.15244904 0.7431254 0.19346607 -0.274771 -0.114266925 -0.7462674 0.09158994 0.34089753 -0.1673369 0.12146065 -0.1844481 0.18155141 0.33486485 0.002059163 0.07291788 -0.4325243 0.18173274 -0.39540124 -0.21969289 0.36885807 0.007779388 0.078410245 0.4490109 0.19113983 -0.06155525 0.60433936 0.36774036 0.0468772 0.17608367 -0.2266526 0.2956949 0.41779208 0.062427387 0.25087744 -0.044081826 0.09208761 0.077930845 -0.080234185 0.16072504 -0.22820418 0.5020288 -0.37489048
OBT:002229 -0.1911432 0.21457763 -0.37251094 0.06093277 0.037967816 0.02776581 -0.1171453 0.0995288 0.1406202 -0.29962152 0.10033623 -0.4371012 0.29185522 0.17564598 0.12799968 0.18490368 0.059887774 0.1019898 0.026142951 0.0119205415 -0.29640883 0.012079514 -0.3229588 -0.16229783 -0.38106832 -0.28221387 0.014148631 -0.15155412 0.0026718816 -0.36702102 0.50839466 0.19027463 -0.69903326 0.18735337 0.14709267 -0.68240434 -0.5035619 -0.2258627 0.13012291 0.50570005 -0.0641039 -0.26118934 -0.5111862 -0.15125418 0.0787483 0.33003974 -0.38283065 0.0007231013 -0.20869571 -0.22760418 -0.20880635 0.20527045 -0.010154271 0.06291601 -0.36065727 0.15814555 -0.33226624 -0.13924676 -0.08599944 0.28324792 0.19807972 -0.27456385 0.034254927 -0.25661877 0.35707656 0.49960485 0.20974235 0.2573346 0.28421882 -0.059820414 0.45813054 -0.06742092 -0.3539657 -0.014339377 0.047887094 -0.43203807 -0.2815589 -0.31291842 0.09750088 0.6432443 0.24171644 0.10710027 0.14609516 0.31651154 0.24314576 0.3379545 -0.07326544 -0.1823541 0.2291619 -0.16531692 0.32143724 0.0016554605 0.25587288 -0.10295762 0.08595222 0.30043057 0.22089566 -0.49756297 0.43016687 -0.042804454
OBT:000703 -0.42698202 0.27946043 -0.32556668 0.2133321 0.14036387 0.15628879 0.14029346 0.23378487 -0.08733123 -0.10721737 -0.49053478 -0.25855166 0.21867295 0.050720945 -0.20891921 0.29033113 0.068913825 0.27831525 -0.1340667 0.26297918 0.1109569 0.2942979 -0.13914071 0.09093965 -0.41838795 -0.09001113 0.030703062 0.20458579 0.059353694 -0.073291786 0.15434596 -0.12507926 -0.56010956 -0.058202103 -0.17027663 -0.57749367 -0.115084775 -0.24859513 0.30331227 0.3905376 -0.06296446 -0.37438038 -0.26211223 -0.12700745 0.31429484 0.22574693 -0.40662244 0.1447878 -0.3056904 -0.24154916 -0.14290701 0.13344367 0.10712432 0.082807355 -0.36990055 -0.039690048 -0.51566124 0.084246136 -0.07876777 0.38340467 0.24040903 -0.20700583 -0.2148668 -0.23566812 -0.07367894 0.38847095 -0.048822418 0.095092475 0.07937108 -0.21242501 0.34237117 -0.18111812 -0.30275846 -0.16520783 0.15115742 0.028471814 0.16759786 -0.5364078 -0.008943174 0.3659201 0.37973374 0.32660404 0.064254284 0.3019565 0.5932337 0.38586614 -0.08478007 -0.16586037 0.018642815 -0.101803295 0.35223565 0.12835379 0.08531765 0.15482797 0.22532915 0.08481869 -0.09886408 -0.5324488 0.58288336 -0.41660517
OBT:001344 -0.32940823 0.17224357 -0.09961791 0.23694515 0.44892707 0.046769425 0.026643146 0.10033229 0.18259835 -0.4204399 -0.39124578 -0.4234923 0.37818566 0.19592205 -0.22452708 0.1986163 0.16558942 0.03574759 -0.14472081 0.42233083 0.056788605 0.08789586 -0.12683488 -0.09147053 -0.31539035 -0.13487075 0.34997693 0.11756931 0.17274772 -0.3870707 0.31936124 -0.10257983 -0.67399776 0.08067309 -0.1490742 -0.51381606 -0.24756525 0.009984555 0.37243924 0.38690272 -0.1625283 -0.18835582 -0.6255096 -0.10311627 0.18388586 0.20615545 -0.461939 0.18896317 -0.21227771 -0.21357979 -0.13628922 0.12764381 -0.12880094 0.0637516 -0.30802387 0.2020094 -0.35489532 -0.13782638 0.15932164 0.3812994 0.26698798 -0.1458045 0.023067048 -0.1796254 0.21407348 0.49127924 0.06336391 0.026757112 0.04818364 -0.06301414 0.3226535 -0.072035134 -0.44961387 -0.0081087155 0.22703803 -0.28470877 -0.02356161 -0.16098219 0.011082143 0.51872057 0.34502476 0.2728448 0.18788989 0.38577762 0.38630718 0.3694759 -0.10598898 -0.02685848 0.23321804 -0.08944975 0.38447702 0.4133777 0.20175436 0.17941447 0.05327654 0.13537692 0.11711239 -0.39323825 0.64452803 -0.28991473
OBT:000323 -0.3396697 -0.014583888 -0.102435425 0.052851234 0.12237018 0.16014148 -0.17319153 -0.006651909 0.042005412 -0.31822425 -0.018206598 -0.17721145 0.54030985 0.24452893 -0.023135707 0.34419668 -0.10183248 -0.13055079 -0.3124202 0.3329362 0.09759448 -0.04573128 -0.23483086 -0.31429434 -0.13307859 0.002231046 0.29853886 0.08327065 0.37848812 0.08916357 0.25961134 -0.04540107 -0.8099665 -0.025398694 -0.090043254 -0.36985126 -0.22409272 0.09124747 0.3901492 0.23121448 -0.09841651 -0.064029634 -0.61775774 0.14299913 0.026134098 0.4189407 -0.3325796 0.25235647 -0.043292813 -0.22493859 0.005235668 -0.04402817 -0.39982098 0.07343398 -0.34389177 0.051859483 -0.14797826 0.026499748 0.08945606 0.4540472 0.5284879 0.10488119 -0.109797746 -0.40304527 -0.069693744 0.49458998 -0.07887893 -0.15182091 0.13777554 0.054464396 0.33994913 -0.35160446 -0.3231289 -0.24140184 0.49795914 -0.18331875 -0.14833792 0.064965606 0.31196308 0.3685797 0.20008355 -0.008434615 -0.07231984 0.22679307 0.503189 0.4288007 0.09173376 -0.29270887 0.028665299 0.15564126 0.42843854 0.22712016 -0.05011539 0.36824286 0.09145912 -0.0018377784 -0.26218334 -0.41381225 0.7188047 -0.29136002
OBT:000096 -0.3584196 0.103695504 0.108542174 0.46897134 0.39215097 0.119104855 0.09370352 -0.08485036 0.21278086 -0.3365572 -0.43310082 -0.5453075 0.14485116 0.2558162 -0.24938624 0.3295631 -0.038312055 0.44853607 -0.07628999 0.19694982 0.20548432 -0.121527664 -0.24519475 -0.18169987 -0.24994175 0.06682314 0.16026789 0.20626058 -0.07247406 -0.4283556 0.55099374 -0.1336443 -0.21815841 0.103728935 0.04572399 -0.23228773 -0.43467125 -0.06909711 0.3079888 0.093796626 0.4872349 0.049077787 -0.18945202 0.04568492 0.13347137 0.38717028 -0.7148826 0.11285268 -0.3712932 -0.3631158 -0.15814146 -0.12471674 0.011343617 0.056086782 -0.15747115 0.09701199 -0.26767403 0.009675016 0.4401819 0.52732563 0.41260123 -0.112853475 -0.12927152 -0.11956574 0.027409932 0.5416369 0.17320466 -0.07073316 0.06169077 -0.01647424 0.10035438 -0.058632873 -0.53798854 0.025755458 -0.04030141 -0.32220933 -0.34091446 -0.044202983 -0.17001376 0.2026183 0.25894678 0.10071736 0.5349464 0.30509457 0.2604126 0.45318484 0.15694676 -0.3525401 0.03568501 -0.27398834 0.16634065 0.4165807 -0.13825302 0.3930941 0.22384295 0.110889584 0.06374184 -0.36348563 0.8053394 0.12985127
OBT:001260 -0.49383706 0.27419448 -0.10043529 0.17438313 0.47270086 0.028408248 -0.08807883 0.00429405 0.055709995 -0.2853234 -0.33966124 -0.27017033 0.3110515 0.23787242 -0.36762953 0.07150495 -0.070427075 0.09151537 -0.013409743 0.23078018 0.028411608 -0.086170636 -0.16183873 -0.10641705 -0.18091285 -0.18341504 0.13780686 0.26088074 0.00693047 -0.34815335 0.36270538 0.019049386 -0.48104998 0.10001178 -0.2446146 -0.58917207 -0.29564098 -0.20165129 0.48426455 0.4587721 -0.032291688 -0.10132837 -0.2773732 -0.3474698 0.1968678 0.39052483 -0.47859845 0.35935485 -0.49856725 -0.29096934 -0.012141203 -0.02788614 -0.38558185 0.040883046 -0.41838622 0.31506708 -0.23471296 -0.06572031 0.035724968 0.5116128 0.3946559 -0.16315317 -0.082508326 -0.18568985 0.14879812 0.26662225 0.2525917 -0.018735958 -0.08821096 0.14670584 0.2583687 -0.1579961 -0.44978014 -0.20031427 0.3156377 -0.20564446 0.02771559 -0.12641299 0.09641089 0.30653402 0.3429575 0.24737452 0.23221618 0.29721627 0.51635194 0.08999552 -0.10251899 -0.31189406 0.32289013 0.092304006 0.31886733 0.26163417 0.111943334 0.2603605 0.32987967 0.13979179 0.2273516 -0.6254994 0.68120056 -0.3980625
OBT:000905 -0.35661852 0.21802048 0.01789923 0.3988175 0.4443453 0.17209063 0.025407977 0.19349656 0.11080435 -0.5948306 -0.70888966 -0.29275915 0.44605514 0.1952274 -0.3189204 0.3116447 0.2088538 0.31456065 -0.17408067 0.33245456 0.08546127 -0.03907619 -0.19812809 -0.20866898 -0.39206797 -0.23927927 0.15929464 0.13548382 0.06342205 -0.15965182 0.16720244 -0.03726154 -0.5701733 0.12548506 -0.0574601 -0.6681713 -0.4118018 0.18364 0.562174 0.3226467 -0.16236374 -0.13117376 -0.5682174 -0.102732845 0.4425175 0.29021248 -0.24489062 0.10104355 -0.3246071 -0.2388529 -0.22833362 -0.06090754 -0.40459874 0.034197118 -0.59862286 0.24990064 -0.18685006 -0.1576765 0.04973751 0.39157182 0.2877846 0.06287343 0.014723222 -0.22291917 0.34513324 0.39801115 0.03130561 0.14975458 -0.03428932 -0.26207677 0.30543336 -0.37158325 -0.4383427 -0.1607986 0.045845073 -0.24804118 -0.13953175 -0.051635265 0.09253481 0.3587029 0.2567371 0.2009129 0.2419113 0.39465544 0.21079424 0.31773156 0.29986393 0.07310491 0.16050322 -0.16320662 0.38526863 0.23544344 0.34122512 0.14571999 -0.16620885 0.10426334 -0.0872832 -0.64030135 0.4157365 -0.348149
OBT:002177 -0.17673448 0.31151116 -0.23255152 0.20952076 0.39131057 0.031623803 0.1898417 0.053937495 0.051371884 -0.36063606 -0.1990305 -0.32934704 0.32166457 0.073685914 -0.30515584 0.016065175 0.20656832 0.0666999 -0.13057032 0.39073753 0.21415417 -0.13988234 -0.12889609 0.050550528 -0.41214144 -0.085339226 0.41665784 0.17927855 -0.050369017 -0.025021145 0.35387537 -0.05346214 -0.26449805 0.44675332 -0.07156628 -0.504981 -0.19379716 -0.2815206 0.26166078 0.25975117 0.056936946 -0.0831528 -0.55616546 -0.11258569 0.16706088 0.5026594 -0.2557374 0.28568572 -0.08394677 -0.21284387 -0.07370696 0.05083749 -0.24992856 0.04721993 -0.24063808 0.26500615 -0.39390144 -0.13514812 -0.090536416 0.30720368 0.10837523 0.12788372 -0.03342294 -0.24007559 0.06408961 0.8212343 0.1622593 -0.12287251 -0.09339751 0.25873473 0.14804773 0.1313214 -0.3776308 -0.14266737 0.14798655 -0.21141829 -0.14388196 -0.11890043 0.013716718 0.38243115 0.29274175 0.12953459 -0.087908216 0.23254664 0.4924365 0.15877464 0.17635772 -0.14616884 0.16878526 0.07908359 0.40211758 0.22019677 0.077667005 0.16123672 -0.19450967 0.03525772 0.17926064 -0.6287884 0.33961824 -0.1543308
OBT:001340 -0.40011173 0.18194641 -0.25837177 0.27495772 0.22298683 0.0132647045 -0.09424489 0.13227616 0.13573986 -0.4059238 -0.42841476 -0.33427563 0.22179532 0.21591292 -0.20630053 0.2059106 0.08309422 0.15011938 -0.27940872 0.40070954 0.1934255 -0.013148668 -0.12954557 0.05586096 -0.32771692 -0.063024916 0.29896167 0.019571174 0.16721244 -0.26291326 0.23526755 0.08131169 -0.66328156 0.08858163 -0.10927849 -0.58440846 -0.28609407 -0.0340793 0.3104552 0.45459515 -0.0062564025 -0.06629923 -0.75163126 -0.08496755 0.17480074 0.23993498 -0.31911576 0.18130611 -0.23050591 -0.26219222 -0.059861284 0.07140958 -0.23934686 0.13113555 -0.4215377 0.09397805 -0.19755584 -0.2944803 -0.0608853 0.49279925 0.13667832 -0.022368701 0.11604675 -0.3123061 0.17717402 0.66151834 0.1635949 -0.018200679 0.11302522 -0.049333785 0.4397355 -0.20754845 -0.2544302 -0.04424145 0.17183954 -0.15935826 0.048660394 -0.08150853 0.047764875 0.47140038 0.36131284 0.23739897 0.27322486 0.2752602 0.48439217 0.37403628 -0.07225442 -0.14603548 0.2020199 0.081418164 0.5005144 0.34328672 0.074544124 0.24647196 0.046630833 0.21825503 0.04520872 -0.5732444 0.51830757 -0.30731028
OBT:001925 -0.5932134 0.40093786 -0.51519465 0.42421484 0.13304694 0.08960626 0.09406364 0.12599885 0.41839868 -0.048829257 0.08562511 -0.21939775 0.29525498 0.32538688 -0.19471611 0.12182321 -0.35009402 -0.11015445 0.20393056 0.047924917 0.12749366 0.18033883 -0.44557238 -0.14118855 0.23427081 0.16814557 -0.14311366 -0.15346862 -0.037546877 -0.026705716 0.46881884 0.18041988 -0.05141328 0.38507158 -0.2148984 -0.06900929 -0.05625973 -0.028357767 0.3473573 0.026664844 0.040063553 -0.07338995 -0.46317092 -0.06174745 0.34821945 0.36329237 -0.11363765 -0.038281262 -0.12651978 0.025160639 0.07091738 0.20017692 -0.5052915 -0.09430209 -0.44133407 0.15519641 -0.06629109 0.066215515 0.1775332 0.866242 0.3706377 -0.237664 -0.023469195 -0.617507 0.100490384 -0.038912468 0.34538552 0.050534394 -0.16985238 0.13042526 0.021747954 0.057258364 -0.043763682 0.022281084 0.18368565 -0.53235465 -0.17139885 0.54291594 0.123988785 0.51990914 0.606754 0.07655256 0.010068613 0.54792345 0.45885554 -0.10677461 0.18280587 -0.3998864 0.17167641 0.3810202 0.050045058 0.13814461 -0.14419307 0.097433016 0.19888997 0.2982428 0.048095632 -0.2691986 0.5677969 -0.29171845
OBT:002153 -0.46605182 0.07454343 -0.5376531 0.23690265 -0.17283145 0.16665187 -0.17753397 0.2789983 0.27950388 -0.15579617 0.081612945 -0.3082364 0.25332004 0.3444348 -0.026978394 0.10740447 -0.26417246 -0.073458284 0.047361586 0.2731419 -0.067013286 0.2923097 -0.20994581 -0.03900013 0.34239227 0.33878124 -0.07065373 -0.20768473 0.080625 -0.1216158 0.323497 0.27022716 -0.20512825 0.49931026 -0.14528382 -0.12562996 -0.19075248 -0.09170773 0.32180008 0.10069564 -0.1560043 -0.05373227 -0.38869402 0.1677979 0.38253078 0.33706963 -0.12914307 0.029857544 -0.15140972 0.089436695 0.25511277 0.18355899 -0.41478226 0.106240764 -0.41032776 0.16391046 -0.21319701 0.13473938 0.35237503 0.8669421 0.26509073 0.07735231 -0.10208289 -0.6941913 -0.019977245 0.15461113 0.6295233 0.10508096 -0.21827346 0.02842881 0.0932091 -0.16668473 -0.13045883 -0.24894659 0.25388747 -0.41351223 -0.09170013 0.24254858 0.27337235 0.71513873 0.5729204 0.08506453 0.007278314 0.45797253 0.512605 0.13254914 0.28308582 -0.29603094 -0.07905248 0.28112605 0.18824048 0.2600303 -0.22599478 0.09830441 0.00017751614 0.2589777 -0.2850744 -0.26892948 0.75361216 -0.37376574
OBT:000316 -0.49864748 0.04945014 -0.25907496 0.10209589 -0.06665313 0.026272492 0.28602353 -0.171088 0.23552398 -0.24379538 -0.12558201 -0.4519136 0.071162574 0.044483457 -0.037541818 0.22497667 -0.21897602 0.16372202 -0.124441616 0.324903 0.12004311 0.4310447 -0.48861694 -0.22135629 0.057267405 0.2343321 0.13715713 0.06316409 0.094607815 0.1619949 0.4275976 -0.16660452 -0.26325876 0.26372898 -0.31216982 -0.40671343 0.0115872575 0.039072245 0.280512 -0.07029114 0.20958617 -0.19627286 -0.035873294 -0.01243984 0.21941076 0.23067553 -0.26705608 0.10847748 -0.078748986 -0.05066494 -0.0766944 -0.04020525 -0.05793771 -0.097472966 -0.20425664 -0.03172669 -0.25561547 0.14055891 0.0671649 0.593035 0.38913628 -0.35431716 -0.3558094 -0.185152 -0.3722567 0.033520736 0.16515057 -0.23598072 -0.014331492 0.02764106 0.17453554 -0.0046660593 0.14212704 -0.41018876 0.17418379 -0.27117816 -0.30893487 0.20148568 -0.039145004 0.3841877 0.70327747 -0.049547598 -0.27494976 0.5069732 0.37508672 0.401049 -0.105928935 -0.39654234 0.068079785 0.2935664 0.10408055 -0.030651344 -0.13764015 0.08826554 -0.11020891 -0.16454832 -0.14223619 0.11002541 0.7255431 -0.29419234
OBT:002023 -0.32565594 0.37050638 -0.38488925 0.12716237 0.16006523 0.1092166 0.14053439 0.099873826 0.40628156 -0.17839733 0.110592335 -0.24710289 0.2338749 0.19045636 -0.22660702 0.2528381 -0.34191975 -0.12988673 0.13695234 0.036390286 0.06744511 0.16351455 -0.36781114 -0.14947341 0.22958408 0.20989844 -0.13928428 -0.21026072 -0.041493252 -0.07945722 0.3559204 0.10657223 -0.31155273 0.7786342 -0.10336081 0.010542537 0.0030905295 -0.16990764 0.3358464 -0.030634284 0.12393464 -0.020641273 -0.38413647 0.15106295 0.45325902 0.35533836 0.057064254 -0.15680166 -0.04410862 -0.12050502 0.08873495 0.14605018 -0.40846235 0.01905996 -0.33602172 0.21814303 0.045720626 -0.12094593 0.23931766 0.8204359 0.3593734 -0.12982908 -0.020979801 -0.74888164 0.037957948 0.05116301 0.32894683 0.17169333 -0.064445056 0.15411465 -0.03802013 -0.19387841 -0.057252336 -0.22177063 0.22272483 -0.457223 -0.15475209 0.50752616 0.11942821 0.740846 0.68661344 0.15768723 0.044090673 0.48327827 0.57440084 0.031220004 0.1277878 -0.34508023 0.13414116 0.3672207 0.18510403 0.18379016 -0.17457673 -0.06214452 0.18918525 0.1581454 -0.106534496 -0.33569044 0.660586 -0.23150982
OBT:002133 -0.5011845 0.29193723 0.06131225 0.17631392 -0.045596782 -0.034063555 0.051985744 -0.20176993 0.02852397 -0.09074546 0.019913124 -0.45183906 0.28690153 0.03641653 -0.23130889 0.17605461 -0.3082258 0.09146654 -0.1854391 0.00547532 0.17012084 0.10558351 -0.45244655 0.11215553 -0.42603618 0.1298687 0.11045872 -0.06060554 0.0041395193 0.1404027 0.16630214 0.08841102 -0.46012524 0.3128791 0.15768316 -0.31296298 -0.1720075 -0.15889029 0.03510734 0.20890975 0.06617639 -0.30826312 -0.19073838 -0.069728 0.3220531 0.11460447 0.08794654 -0.14831465 -0.1904387 -0.26935354 -0.061518457 0.05460406 0.33122125 0.037646633 -0.16998628 -0.41179597 -0.32296446 0.4396314 -0.080153964 0.1650456 0.14739794 -0.20312396 -0.027135625 -0.04656332 -0.22241586 0.41762972 0.0043810355 0.4550396 0.27379465 -0.0184528 0.2502635 0.10819258 -0.16182898 -0.34498146 -0.25323725 -0.5870888 -0.31664902 -0.03702648 -0.07134171 0.3292122 0.15849887 0.45684484 0.07465116 0.45306328 0.5292056 0.47231898 -0.021669177 -0.39875728 0.0047153137 0.070263304 0.62288356 0.16105288 0.050522406 0.25168318 0.16751619 -0.10627613 0.17997918 -0.2805698 0.4019536 -0.15621252
OBT:002205 -0.38574487 0.41471815 0.33028203 0.010456374 0.115824915 0.18721856 0.0914757 -0.16681686 0.029515283 -0.10737869 0.3138944 -0.1954955 0.3452621 0.3919528 -0.42634514 0.39058238 -0.25955245 0.15538523 -0.7518877 0.063238546 0.37103352 0.16378662 -0.18476655 0.04988473 -0.043910723 -0.016699437 -0.18932308 -0.041518617 -0.1987617 0.11059152 0.26271886 0.12394611 -0.40713862 0.5454347 0.44685003 -0.08739235 0.13726966 0.24284664 -0.15125021 0.0252567 0.4937046 0.03830315 -0.5035484 0.05120793 0.4248095 -0.016859705 -0.09251208 0.08539633 0.0055885706 -0.3125794 -0.10857674 -0.1193427 -0.0068596946 0.08139 -0.57871777 -0.27297112 -0.2713716 0.07552086 0.2906701 0.548503 0.50071734 -0.055399124 0.07078434 -0.26577994 0.09923883 0.1661946 0.11980613 0.44461578 0.061395526 0.04407996 0.09238403 0.53970385 -0.2121527 -0.2053364 -0.52394354 -0.28275394 -0.118509516 -0.10336121 -0.057472643 0.50138485 0.025662499 0.3060475 -0.19069621 0.10095195 0.27905044 0.09876774 -0.056767832 -0.16564877 0.12317236 -0.17299001 0.37283918 0.20703743 0.056520782 0.4327605 -0.015450244 0.030010812 0.16347787 -0.24837877 0.98576486 -0.2925163
OBT:000381 -0.57468385 0.55888605 0.0013606275 0.15517859 -0.089739874 -0.05060742 0.15016732 -0.40734372 0.052133687 -0.13151443 -0.023005612 -0.3313988 0.3076251 0.102954775 -0.35639164 0.31681296 -0.05563894 0.14581376 -0.69922334 0.14206691 0.29251176 0.21668285 -0.3690807 0.00576318 -0.14688227 0.06273833 -0.29213682 0.057099085 0.22878343 -0.13897453 0.03654085 0.076512024 -0.35173652 0.50186014 0.28922817 -0.13429798 0.07735571 0.1899158 -0.17554398 -0.030711932 0.11722032 0.009768519 -0.5350892 0.1083047 0.32555652 -0.024085866 -0.09141912 0.31340504 0.043991383 -0.13732304 0.103687294 0.036062222 0.10519253 -0.120102495 -0.129734 -0.16947035 -0.42849123 0.1648348 0.39677948 0.4048699 0.36402696 0.120864734 -0.21032238 -0.49443874 -0.06338058 0.37499678 0.18883416 0.4767701 0.10218482 0.08492207 0.1017901 0.26269677 -0.07011643 -0.2641541 -0.3440446 -0.3469449 -0.41157362 0.00050398236 -0.012800098 0.334929 -0.028864512 0.04000996 0.13079047 0.23446828 0.19742602 -0.10118712 0.14638902 -0.41639596 -0.0061457157 -0.18010767 0.26363617 0.16958514 0.15440005 0.109986365 0.011517219 -0.012689007 0.093830995 -0.45890403 0.76323783 -0.0866408
OBT:000935 -0.35411483 0.7806285 0.11891022 0.2265764 0.16539626 -0.11898633 -0.0007224165 0.05388672 0.16492133 -0.16468424 -0.4972907 0.2907434 0.57019645 0.29974338 -0.36725888 0.26470104 0.1565072 0.097038805 -0.923218 0.13007481 0.1380163 0.08775435 -0.29482487 -0.24273953 0.16805595 0.0035009936 -0.25684965 -0.0217351 0.26374334 0.037128877 0.17762817 0.09478701 -0.3331173 0.885338 0.27210727 -0.5224722 0.1996883 0.4062092 0.42537472 0.05638696 0.18318449 -0.11831213 -0.081409834 -0.3610141 0.2613783 -0.29557118 -0.016066013 0.17258213 -0.44620392 0.3514927 -0.05238317 -0.173495 -0.12394012 -0.37101018 -0.42201546 0.140434 -0.49289432 -0.0033764134 0.2653762 0.338733 0.20915021 0.30125713 0.07327821 -0.6410993 0.21926601 0.31027997 -0.21487318 0.043308087 0.16328877 -0.12029889 0.020903846 -0.29380322 -0.4309728 -0.36755022 0.09232433 -0.09513421 -0.556547 -0.24487604 0.27636388 0.44466764 0.17684872 0.7728432 -0.019763872 0.17748792 0.2706722 0.17014903 0.27658528 -0.3391539 0.45186308 0.4196842 0.27758226 -0.27543998 -0.21145195 -0.25568435 -0.30274966 -0.04674227 0.00020640047 -0.31513727 0.95186 -0.37290722
OBT:001293 -0.14345945 0.7517062 -0.24781072 0.50638586 0.14321356 -0.093275 -0.005737677 -0.13223617 -0.1287589 -0.32999122 -0.16773209 -0.23861474 0.38859588 0.23412448 -0.40018773 0.047539223 0.1048671 0.16252148 -0.7993975 0.19050884 0.06316257 0.06804945 -0.41966367 -0.12000326 0.4728171 -0.30934203 -0.40321857 0.007851637 0.4092055 0.11549268 -0.10842092 0.030214367 -0.21001208 0.7460238 0.016765567 -0.58655006 0.09072249 0.35424533 0.1449776 -0.083294116 0.120921336 -0.23660944 -0.023759598 -0.33882242 0.3579563 -0.10641532 0.14928183 0.034314595 -0.37688398 0.2702404 -0.17865045 -0.24633893 0.2030611 -0.2552181 -0.13596682 0.4874041 -0.50747883 -0.10442965 0.40061957 0.59814364 0.33260465 0.011979349 -0.045364738 -0.44314152 0.15422958 0.34096086 0.16339415 0.081127115 0.17626378 -0.12300095 0.052790496 -0.48434064 -0.20590188 -0.32775328 -0.04108564 0.059244644 -0.50219333 0.06889741 0.274915 0.54756284 0.12220881 0.7248851 -0.076303065 0.37782508 0.27712274 0.1429738 0.18621916 0.04147129 0.3913193 0.06451626 0.24558133 -0.19462717 -0.22812515 0.09791442 -0.2302328 -0.043160968 -0.034666482 0.028456075 1.054953 -0.3760574
OBT:000492 -0.5440159 0.7832163 -0.08485927 0.29654446 -0.040232237 -0.037705224 0.05696011 -0.27040142 -0.02524985 0.041492786 -0.47569305 -0.25632015 0.32301193 0.06512459 -0.25127286 -0.081071265 0.13149004 0.18465102 -0.7936265 0.10714558 0.18149348 0.17915541 -0.5053184 0.007739345 -0.26728007 0.009087315 -0.33201385 -0.019991778 0.3811738 0.21154569 -0.13167787 0.06493931 -0.18560678 0.3672999 0.16280077 -0.4346168 0.13301565 0.21047577 0.009165778 0.32337838 0.1601401 0.080744 -0.080212496 -0.2056851 0.19335648 -0.19497164 0.11834572 0.16532326 -0.18097827 0.17364945 -0.2963974 0.09349536 -0.12450477 -0.17490695 0.08652101 -0.12953287 -0.40988263 0.07774317 0.29440838 0.6851005 0.16299503 0.055499893 -0.43074095 -0.680163 0.16127403 0.2915552 0.19069071 0.36866704 0.40037802 -0.075731516 0.15659162 -0.12714666 -0.3341912 -0.32118064 -0.056889646 -0.11474757 -0.36946762 -0.07506286 0.129204 0.23449068 0.14375234 0.448559 0.05703747 0.1694933 0.5819792 0.3455136 0.105881274 -0.21907532 0.11039976 0.19534442 0.19836776 -0.21519974 0.106486 0.14333555 -0.043175064 -0.15037318 -0.12043085 -0.25850582 0.6686738 -0.053759687
OBT:000543 -0.47463816 0.9024592 -0.034350913 0.44814375 0.23379871 -0.31625846 -0.025567137 0.024390623 0.0712536 -0.2792208 -0.67972785 -0.049203485 0.53382576 0.20455357 -0.37873113 -0.17563593 0.1716709 0.39516607 -0.3632475 0.26469767 0.04792255 -0.18502095 -0.35948566 -0.42123085 0.22411056 0.19510883 -0.19522235 0.33308554 -0.09213505 0.093234375 0.10659033 0.38287884 -0.23010178 0.5364606 -0.18405867 -0.80223507 -0.32778162 0.16558176 0.41409665 -0.11960868 -0.07658922 -0.30455562 -0.39567858 -0.21771833 0.2899473 0.1422352 -0.16581243 0.057172377 -0.3192636 -0.1099041 -0.37317523 -0.26537168 0.04900189 -0.52164054 -0.15524425 0.2500376 -0.38980794 0.023729024 0.053772543 0.47594598 0.38242432 0.17792267 0.11897551 -0.4116682 0.34742528 0.32923692 0.1036366 0.093105204 0.06696277 0.18064485 -0.29165703 -0.63756853 -0.16569363 -0.19915766 -0.09211862 -0.012659109 -0.5602225 0.16017854 0.33186835 0.50646704 0.27549553 0.47095662 0.08360764 0.22053431 0.015158199 0.067687005 0.33927822 -0.053139307 0.30886412 0.06504218 0.3331567 0.14498568 0.06017819 -0.033435218 -0.17757556 -0.25314456 0.007738251 -0.44243172 0.5806203 -0.43293756
OBT:002242 -0.18211308 0.787826 0.07292693 0.35224387 0.08450873 -0.21295333 -0.011985612 0.17926306 0.07215642 -0.17425634 -0.10426529 -0.016856138 0.4837419 -0.06445922 -0.3528441 -0.09742614 -0.16762413 0.37889752 -0.8910543 0.14282326 0.3309386 0.17658141 -0.4042424 -0.32913333 0.27765656 -0.245482 -0.34165165 0.08765461 0.16116014 0.05117129 -0.004339494 0.20767705 -0.515946 0.55016065 0.23419945 -0.48578715 -0.09466711 0.38455236 0.34806266 -0.33004984 0.36869904 -0.20212565 -0.2047148 -0.44399327 0.3415826 -0.24264657 0.22575945 0.10085324 -0.39335883 0.29761466 -0.3889668 -0.12201539 -0.10347447 -0.38675466 -0.52021134 0.36529824 -0.4272386 -0.03625101 0.31717318 0.37743273 0.39087164 -0.011888661 0.059462827 -0.72442293 0.22180857 0.33430874 -0.29415363 0.18610163 0.18987739 -0.13363907 0.17032416 0.010632651 -0.44916725 -0.16370681 0.054586343 -0.25161487 -0.4653668 -0.004852216 0.054164056 0.6340742 0.26113182 0.7300679 0.09260268 0.11753249 0.21295425 0.11697462 0.16342983 -0.18844076 0.3706871 0.23324656 0.31990942 -0.3680414 -0.023367772 -0.2181595 -0.42600003 -0.02277899 0.059015 -0.24657182 0.91111946 -0.46936202
OBT:000729 -0.12262222 0.83715105 -0.10013685 0.38567752 0.116094485 -0.15872046 -0.021660812 0.0054781577 -0.029614817 -0.30472037 -0.2863412 -0.11563863 0.5295123 0.16127881 -0.39750817 0.12126273 0.096823536 0.23894736 -0.5349141 0.091571175 0.20101076 0.20067084 -0.31889835 -0.36537948 0.13915938 -0.089525275 -0.3238925 0.10604094 0.33231932 0.16255388 0.007291152 0.104235955 -0.33677426 0.41576734 0.0725492 -0.4675301 -0.01517789 0.41783044 0.17747463 0.00270235 0.021813473 -0.2504553 -0.0213139 -0.090630144 0.2848906 -0.20682544 0.21777461 -0.029983044 -0.3509529 0.2954681 -0.29833657 -0.19854058 -0.1623368 -0.4050444 -0.21162243 0.35120976 -0.5072742 -0.03347164 0.37908334 0.6407371 0.26500705 -0.122140065 0.0439818 -0.69276494 0.31549364 0.17471987 -0.038159564 0.29009277 0.19120485 -0.14275739 0.12190237 -0.37350637 -0.4366219 -0.46893662 -0.06538477 0.071099795 -0.42342836 0.0001412846 0.32793105 0.5651687 0.16517973 0.79131645 0.03152589 0.36619654 0.419557 0.1564481 0.016577683 -0.1741933 0.22475761 0.2551078 0.3981208 0.1129047 -0.09825727 -0.19554454 -0.25457639 0.0118910065 0.05477217 -0.1791269 0.8128779 -0.27881542
OBT:000076 -0.7033778 -0.17013983 -0.71147 1.0323328 0.40024745 0.0018835753 0.17250513 -0.53667915 0.29441318 -0.44942126 -0.12877773 -0.20348424 0.3602088 0.5093351 0.20446989 -0.8152885 -0.038901094 0.45103082 0.42647734 0.18486439 0.6507853 0.055028114 -0.15384844 -0.19675805 0.21182731 -0.017537616 0.8284848 0.6369126 -0.2629836 -0.2365845 0.29562202 -0.2672238 0.046324432 0.13440041 0.06303606 -0.02491977 0.21421291 -0.018201832 0.392301 0.4120883 -0.058015753 -0.10757137 -0.45068118 0.32527834 -0.28314447 -0.56415623 -0.31168652 -0.34650844 -0.31370753 -0.73870295 0.2892003 0.49683544 0.045802586 0.09073126 -0.16732143 -0.22523348 -0.19580875 -0.39281145 1.0546727 -0.05654446 0.010532702 -0.084323056 -0.121083595 -0.25531614 -0.2858924 -0.3782111 0.42411456 0.08325 0.09115929 -0.30524465 0.13841176 0.2008335 0.03852217 -0.36416507 0.26662165 0.25142843 0.3632414 -0.39862433 0.49710867 0.31828845 0.11913002 -0.21629941 0.5497513 -0.30961597 0.23068991 0.05279231 0.4405018 0.0044977674 0.1184008 -0.15171796 0.6644072 -0.3492657 -0.6642804 0.22940284 -0.7562205 -0.7873141 -0.11896223 0.28077412 0.85698265 -0.28938645
OBT:000038 -0.8316597 -0.03809756 -0.67115957 1.0717784 0.42775768 0.098527454 0.4303493 -0.5305208 0.2870304 -0.3880414 -0.24363524 -0.28474274 0.30484438 0.3464036 0.131539 -0.9036502 -0.08139733 0.434873 0.41835362 0.27762222 0.87405694 -0.032187168 -0.092615224 -0.1694772 0.28118974 -0.10291064 0.80248743 0.34733412 -0.12496367 -0.13056025 0.086956955 -0.18563145 0.18109255 0.13649803 0.280925 0.22967297 0.21544212 0.11429234 0.3446771 0.4238662 -0.14566065 -0.10482545 -0.28812975 0.27107936 -0.08107593 -0.304863 0.013328299 -0.46552908 -0.29961103 -0.571809 0.18156749 0.75525224 0.015608855 0.15817685 -0.20754774 -0.12791795 -0.18400294 -0.5028372 1.0785731 -0.24825342 0.17147584 -0.19353071 -0.29557458 -0.30071378 -0.40542158 -0.25591823 0.6432146 -0.0176369 0.038006082 -0.4069076 -0.042650726 0.19876583 0.101299234 -0.53274465 0.14948677 0.33653578 0.43178803 -0.39091268 0.5384258 0.2462826 0.24438064 -0.13552721 0.3187604 -0.42475203 0.13277178 0.08315276 0.2729605 -0.033338092 -0.0030420527 0.059011273 0.79475397 -0.42193428 -0.49330387 0.26432148 -0.7362229 -0.49350142 -0.09685247 0.29275426 0.811272 -0.09805717
OBT:000094 -0.60697186 -0.06490931 -0.39097747 1.0162829 0.6399229 0.06269363 0.23245123 -0.3966982 0.2450426 -0.20372678 -0.1768062 0.07809014 0.22811842 0.66283447 0.57851136 -1.083408 -0.15277979 0.4803524 0.13280259 -0.3229652 0.8641293 0.1502755 -0.35591885 -0.19745888 0.8672237 -0.26881108 0.7910066 0.25529686 -0.17911167 0.22626851 0.47060394 0.14253446 -0.20488483 -0.14770709 -0.19254777 0.22561592 -0.058016162 0.12763101 0.44721413 0.079041496 0.23590858 -0.21832664 -0.16693796 0.1093834 -0.08577321 -0.5207078 -0.46486694 -0.54889554 0.060301833 -0.58441323 0.31018773 0.7724809 0.26500404 0.5024634 -0.33009404 -0.35643262 -0.10641154 -0.33358407 0.77929133 -0.15571998 -0.21113054 -0.33515444 -0.40817967 -0.21668768 -0.40185744 -0.33954117 0.28229254 0.39232746 -0.17277043 -0.049793296 0.43085372 0.36862522 -0.29280692 -0.35810697 0.041000504 0.8238135 0.0073448624 -0.33139905 0.16281228 0.3201765 0.15266868 -0.12455761 0.5251718 -0.30794147 0.5897925 0.15217493 0.7833716 -0.43768036 0.13983747 0.33325893 0.5061873 -0.109906115 -0.63900393 0.47120488 -0.6993952 -0.6455782 -0.36355427 0.12534906 0.5040741 -0.32247126
OBT:000131 -0.60727066 -0.09971002 -0.7028081 0.93028647 0.34781078 0.055128794 0.36690047 -0.5037473 0.45940888 -0.3660471 -0.05323453 -0.42778736 0.21216771 0.3042089 0.15815313 -0.89294165 0.121548854 0.5103813 0.1769455 0.2598845 0.9880145 -0.09194039 0.07062037 -0.037290294 0.20992608 -0.12977679 0.68386334 0.5536503 -0.2020287 -0.08783997 0.21895944 -0.16287807 0.25479075 0.4237627 0.3474334 0.23330918 0.22963732 0.23440313 0.44862354 0.32988963 0.0848664 -0.30749053 -0.48332846 0.16924912 -0.16416551 -0.46988556 -0.22203581 -0.59788316 -0.23047607 -0.6071917 0.033144064 0.67690474 0.13665634 0.059147984 -0.21787351 -0.26474854 -0.20904388 -0.62148243 1.0171851 -0.32774642 0.113108695 -0.1650469 -0.049529307 -0.015706897 -0.31596997 -0.26989058 0.28830022 0.043014497 0.06523471 -0.43215182 0.441376 0.16696888 0.12697387 -0.48899338 0.2761703 0.3328732 0.22036883 -0.46034408 0.63188344 0.47058415 0.20718686 -0.22893545 0.23587717 -0.44126618 0.47290915 0.00901284 0.34996328 -0.14473848 0.18734215 0.1649921 0.6420073 -0.26071027 -0.77513397 0.09569912 -0.714645 -0.54223883 -0.073035 0.38299903 0.8822999 -0.10856861
OBT:000006 -0.6878308 0.5664917 -0.5945954 0.35721505 0.4540552 -0.10181561 0.21182361 -0.1769237 0.26370046 -0.5395734 -0.1633671 -0.41820666 0.07234831 -0.109077334 0.17185485 -0.5495427 0.053625382 0.2842157 0.407812 -0.0044468977 0.44909745 0.18181214 -0.029141497 0.07359044 -0.019234672 -0.36243895 0.6535876 0.51633626 -0.2414645 -0.3054734 0.29803586 0.36496544 0.13532215 0.3855684 0.33418167 -0.33946943 0.87288225 0.15483148 0.25342953 0.005485252 0.10265632 0.0037496868 -0.86333555 -0.36757642 -0.31847185 -0.602194 -0.28686574 -0.71351695 -0.42213908 -0.53564465 0.2327947 0.6330875 0.045866992 0.21117377 0.15913422 -0.6532288 -0.4755817 -0.15368323 0.7028714 0.23557146 0.2895395 -0.18071413 -0.22821513 0.10332426 -0.5253642 -0.06721755 0.38128406 -0.2578574 -0.17864783 -0.062279172 -0.057409745 0.24872072 0.37221476 -0.22117147 0.34479535 0.28295594 -0.15282133 -0.47858733 0.41312334 0.48182297 -0.026715638 -0.54566395 0.037712026 0.13434944 0.21047308 -0.11488762 0.46325216 -0.16857783 0.072935656 -0.3025805 0.4240106 -0.24981268 -0.4775682 0.35093176 -0.45041248 -0.3432928 -0.1897493 0.29561526 0.44001722 -0.2891812
