2320 100
OBT:000591 -0.13105743 -0.1996426 -0.40007862 -0.19722378 0.005446908 0.56659275 0.9177307 -0.44006464 0.49472693 0.13086319 0.012358744 -0.8569329 -0.24891888 0.10862311 -0.51543826 0.8214369 -0.6737951 0.62880903 0.027779037 0.03000989 -0.3781822 0.092124075 -0.47555196 -0.2813787 1.3072304 -0.02025436 -0.057999745 0.0002010711 -0.6132227 0.19892082 0.3769678 0.19803931 -0.75390905 0.46719962 0.0170764 0.52089643 0.20786893 -0.9563723 -0.5078714 0.6021513 0.042661473 -1.1892499 -0.70453274 0.1890286 0.021445157 -0.33214408 -0.2936999 -0.29343945 0.44477108 -0.15042716 -0.008929166 0.26341474 -0.18450066 0.40806282 0.30061436 0.050414048 0.1711256 -0.36078376 0.121286 0.21634395 0.011253459 -0.75255626 0.21426155 -1.0612423 -0.10386085 -0.044139687 -0.21329963 0.118802086 -0.048166756 0.067515336 -0.72446316 -0.11002983 0.056315344 0.109098144 -0.52985066 0.43102303 0.047269892 0.41138768 0.02996763 -0.2690769 -0.7446112 -0.03746582 0.077320516 -0.25331947 -0.34210208 -0.699038 0.13307612 -0.97936225 0.6665385 -0.043317847 -0.2300979 0.7387132 -0.15181114 -0.12098512 0.2826994 -0.32448348 -0.251992 -0.13209158 -0.48148724 -1.0067074
OBT:000524 -0.2065303 -0.42147288 -0.3638889 -0.027841622 0.07066389 0.4791681 0.8004265 -0.3835839 0.67993027 0.14660478 0.1009765 -0.8284852 -0.016999256 0.059263106 -0.5138767 0.7255703 -0.5402941 0.72884053 0.084752575 0.04465839 -0.24962695 0.08374563 -0.57830006 -0.023183974 1.1495774 0.024740536 -0.14737757 0.13876656 -0.60100776 0.10530816 0.39088562 0.16995394 -0.4130013 0.5872921 -0.037264414 0.4233443 0.16978632 -0.7101448 -0.34550866 0.6011258 0.04532194 -1.1393998 -0.7586298 0.13458927 -0.21762425 -0.42455372 -0.31770802 -0.12585068 0.5010546 0.043573067 0.089703545 0.13181724 -0.20809865 0.3774517 0.25605384 -0.03936877 0.1299967 -0.2541452 0.0984962 0.30426785 -0.030582748 -0.8485533 0.07237605 -1.0835891 -0.14999154 0.17212635 -0.11338678 0.29195297 0.014444111 0.11673148 -0.5188456 -0.16471797 0.0057317964 0.19506459 -0.45748398 0.36634126 -0.003084979 0.5069097 -0.008730237 -0.12586129 -0.7272714 -0.067629285 0.12330219 -0.370183 -0.16534616 -0.65356916 0.250675 -0.92366356 0.4776711 -0.3392159 -0.105656594 0.70865136 -0.027529815 -0.30375594 0.31834155 -0.15242669 -0.26696947 -0.22261605 -0.3396996 -0.8558514
OBT:000592 -0.182476 -0.2615396 -0.42060897 -0.18318264 -0.13684192 0.61859524 0.7736359 -0.3075046 0.5680981 0.16529651 0.018765979 -0.84503955 -0.14366928 0.025586495 -0.6185151 0.85104394 -0.5211536 0.69491833 0.13477422 -0.0077799247 -0.40753525 0.19715872 -0.51937145 -0.2671801 1.1934636 -0.0070546097 -0.059658088 0.12161466 -0.7299535 0.20018786 0.36078456 0.1982666 -0.52105045 0.41976455 -0.016498294 0.48215386 0.24699467 -0.95918566 -0.4520257 0.4287724 0.023511142 -1.4233538 -0.8039671 -0.023544744 -0.12254055 -0.40789405 -0.21727245 -0.15553467 0.3814421 -0.032479394 0.010805724 0.1400614 -0.16422793 0.36029643 0.36655504 -0.005613409 0.18652216 -0.44057333 0.14316092 0.24654298 -0.20562266 -1.0218246 0.16008434 -0.9956984 -0.06990041 0.031192366 -0.059987877 0.34435546 -0.05890591 -0.12779896 -0.733527 -0.23442371 0.07988927 0.02702654 -0.364024 0.25959396 0.008222042 0.50735044 -0.007192859 -0.23273002 -0.8885317 0.0064501045 0.063022465 -0.5785943 -0.20477222 -0.55610037 -0.04968472 -0.80948037 0.4956627 -0.115617275 -0.21079858 0.61603457 -0.079546474 -0.1803698 0.27646288 -0.2634218 -0.3871011 -0.12986006 -0.36139643 -1.0226897
OBT:000667 -0.28110975 -0.28561258 -0.32691476 -0.12278377 -0.2013144 0.4057041 0.5804209 -0.45338723 0.7045115 0.14820468 0.0051292432 -0.757652 -0.22613652 0.100879654 -0.46968654 0.918391 -0.42050257 0.62605846 0.16335337 -0.0088365665 -0.40879944 0.14624345 -0.6195074 -0.07943369 1.2175809 -0.022125304 -0.18522789 0.27484125 -0.49567473 0.112704836 0.55230683 0.17699583 -0.54459894 0.6023583 0.053194094 0.48854953 0.1273983 -0.6033375 -0.21251799 0.38469952 -0.0032452417 -1.1604136 -0.7903404 0.16227463 0.019184731 -0.41895828 -0.24418004 -0.2725562 0.4415786 0.0071764328 0.004238087 0.079683825 -0.22421405 0.33369136 0.4161619 0.04988988 0.17693745 -0.45509565 0.16237703 0.15967913 -0.14638306 -0.94298816 0.23122945 -1.0311528 -0.16545478 -0.029798115 -0.07187921 0.21738619 -0.03070796 0.00969578 -0.63718253 -0.102019094 -0.012717645 0.16990487 -0.38930473 0.37605602 0.059485234 0.60150254 0.063991316 -0.13936314 -0.8286931 -0.18457653 0.095914625 -0.5395086 -0.110862255 -0.5324862 0.24832724 -0.8453825 0.618601 -0.1630692 -0.11723091 0.7403873 -0.09828334 0.0005126761 0.21017137 -0.26833674 -0.30662888 -0.25262728 -0.23181786 -0.9703676
OBT:002172 -0.12976417 -0.17436378 -0.24478027 -0.38189867 -0.23656353 0.31403053 0.9346505 -0.46114665 0.5358086 0.20622826 0.117135614 -0.60318524 -0.572309 0.030875716 -0.303071 0.84385824 -0.706777 0.6429551 0.13339767 -0.14810333 -0.041629646 0.12919979 -0.58158845 -0.5152433 1.1544279 0.1484639 -0.08446162 -0.12189872 -0.436235 0.07174074 0.18141498 0.12511478 -0.36078992 0.6427805 -0.081851035 0.43801028 0.0978615 -0.7111901 -0.15589355 0.62533104 -0.04996536 -0.95757544 -0.5203135 0.026407568 0.1272436 -0.5947117 -0.0057516717 -0.2726245 -0.02660415 -0.08667558 0.04157304 -0.07746284 -0.48557177 0.3859744 0.34910813 0.030561568 0.1158273 0.021262797 0.40024862 0.30342987 -0.120590985 -0.97553414 0.032349933 -0.84815496 -0.3539739 0.20400265 -0.087990835 0.3261081 0.032163724 0.17761919 -0.7641537 -0.63250166 -0.26681116 0.21011156 -0.6214663 0.27435887 0.11915261 0.4102573 -0.06876367 0.091869384 -0.63918257 -0.25215822 -0.06500122 -0.39065206 -0.096029565 -0.6057675 -0.11176445 -1.054471 0.75614244 -0.2775311 0.09532497 0.7961293 -0.098391935 -0.29652292 0.2924362 -0.22422418 -0.45296913 -0.36957377 -0.055642765 -0.9818146
OBT:000084 -0.26810518 -0.31627923 -0.07608602 0.05284363 0.07217412 0.52952486 0.32483965 -0.31150812 0.81291866 0.15743336 0.19942723 -0.64731646 0.07234675 0.30919188 -0.17527871 0.49402863 -0.5952608 0.4787408 0.020073563 0.011202026 0.2857422 0.16809204 -0.5068112 0.092834584 1.0056777 0.029010642 -0.1863642 0.21059228 -0.41508886 0.5198196 0.002957985 0.1141301 -0.21888192 0.38749555 -0.100411266 0.26861355 0.3848265 -0.6953679 -0.06182728 0.37351727 0.21714854 -0.928827 -0.44617438 0.32625896 -0.509236 -0.21332434 -0.4230582 -0.29867303 0.48936662 -0.19531536 0.18022525 0.2658586 -0.4056687 -0.18235396 0.46650478 -0.0750361 0.16653903 -0.30020443 -0.0484232 0.5032409 -0.063149236 -0.5348381 -0.16637923 -0.8197703 -0.38293257 0.0006627106 -0.04224414 0.49974045 0.049708053 0.06914424 -0.42088 -0.05408479 0.08359864 0.13629943 -0.44154587 0.14402436 0.043290883 0.6739443 0.016685072 0.13247122 -0.63526225 0.20085949 0.16258855 -0.06273685 -0.024324015 -0.30632728 0.2764972 -0.8212519 0.14580633 -0.36796102 -0.28644088 0.614383 -0.17652525 -0.356817 0.18288925 0.14667888 -0.13650519 -0.21949628 -0.19654806 -0.8544053
OBT:002263 0.14418958 -0.5284414 -0.5260044 -0.19359154 -0.6769167 0.7421403 0.69677824 -0.38769317 0.5552345 -0.11994696 -0.1047107 -0.5621511 -0.5509929 -0.19131045 -0.3210719 0.58918613 -0.8429351 0.8792603 0.6658143 -0.03664328 -0.6013557 0.21891214 -0.33268672 -0.51858926 0.85255975 0.26042575 -0.09710634 -0.54113185 -0.2368456 0.012083715 0.48963803 0.43565473 -0.5760417 0.88728154 -0.30442613 0.32464048 0.17551313 -0.8232903 -0.26104245 0.3969915 -0.121205665 -0.047602195 -0.57996863 -0.17090897 0.6375339 -0.7131198 0.018429922 -0.19320829 0.16156074 0.039414514 -0.0379763 0.04716347 -0.076644875 0.6472552 0.096292995 0.17572294 -0.17504346 0.2867298 0.7439763 0.52120626 0.048660427 -0.7715157 0.05555019 -0.7292643 -0.317612 0.24031359 -0.08346625 0.3385172 -0.14918713 0.40254915 -0.84921056 -0.7399648 -0.27053088 0.49382767 -0.25120535 0.6868569 0.25294706 0.74999726 0.08624932 0.2322174 -0.38696593 -0.2504033 -0.20430797 -0.2825731 -0.34857973 -0.87874883 -0.91021615 -1.1329342 0.8596806 -0.27057618 0.27651694 1.0948901 -0.4906208 -0.052620526 -0.5056945 -0.32926273 -0.47783905 -0.11395427 -0.34318197 -1.0469664
OBT:002249 0.13399097 -0.5056256 -0.5559292 -0.2289531 -0.6293446 0.7863412 0.7856246 -0.3789267 0.5734827 -0.15637109 -0.068617545 -0.5956405 -0.6064564 -0.11283098 -0.28984416 0.65526336 -0.87272227 0.9847791 0.55940956 -0.04848853 -0.48682353 0.14626183 -0.41464564 -0.57994944 0.8451835 0.3083501 -0.09338116 -0.57812375 -0.23669815 -0.009876324 0.42207184 0.5057917 -0.59499604 0.942268 -0.28849152 0.41257682 0.22121604 -0.83593035 -0.31553835 0.4445601 -0.15555796 -0.18444894 -0.47593525 -0.17075497 0.6005913 -0.7631073 0.003845212 -0.21706213 0.13940135 -0.020936642 0.05881523 0.06192791 -0.10241879 0.6873501 0.19773602 0.20810406 -0.09834868 0.3105702 0.8423615 0.54901516 0.030886112 -0.77977556 0.05541771 -0.73174274 -0.37337738 0.24130255 -0.0763072 0.36734793 -0.09015785 0.409379 -0.92816585 -0.7977917 -0.28982803 0.5339769 -0.27655533 0.6118012 0.16180491 0.8236825 0.102852024 0.20557421 -0.3209548 -0.20198774 -0.24231477 -0.30609366 -0.3436262 -0.9474718 -0.9010982 -1.0975744 0.87192774 -0.2958027 0.2583526 1.0728772 -0.40298992 -0.0629681 -0.46027666 -0.37840864 -0.5220284 -0.24691859 -0.2666289 -1.140109
OBT:002264 0.15017968 -0.5041457 -0.4799091 -0.21137662 -0.6395317 0.7698851 0.73692656 -0.34808305 0.4358492 -0.0974104 -0.11007015 -0.5077408 -0.60345477 -0.22711097 -0.21065797 0.5491012 -0.85917515 0.8793543 0.61074257 -0.08510787 -0.5803472 0.2340245 -0.32557106 -0.51071286 0.8142538 0.32067746 -0.13911879 -0.5126169 -0.21218474 0.022637483 0.42869216 0.4919465 -0.5054977 0.8568815 -0.31291354 0.26806247 0.25274354 -0.7520803 -0.3206502 0.34798136 -0.14150041 -0.13214524 -0.59856516 -0.113434166 0.6324846 -0.6785646 0.0323495 -0.21288413 0.12741052 0.017031737 -0.03437664 -0.024473878 -0.030549044 0.6149704 -0.04913207 0.13478738 -0.13883995 0.28110573 0.799513 0.45362392 0.049628902 -0.7521882 0.071242675 -0.7403968 -0.3369255 0.18798955 -0.18126485 0.31078064 -0.12515672 0.5880247 -0.839153 -0.8242417 -0.26939425 0.4386452 -0.30305043 0.6110102 0.23996653 0.74530727 0.0342359 0.187395 -0.34413913 -0.19735597 -0.19083078 -0.3006231 -0.3711281 -0.85292685 -0.9362344 -1.0967348 0.90174085 -0.27767846 0.3016151 1.0664923 -0.48223007 -0.14065751 -0.48612955 -0.34997457 -0.48857808 -0.09973745 -0.33982176 -1.0539705
OBT:002221 -0.05564745 -0.46106276 -0.45225587 -0.16342235 -0.76099503 0.3568252 0.94238454 -0.5332167 0.54293144 -0.06390479 0.17856704 -0.53861356 -0.7740424 -0.16980754 -0.5037643 0.77134085 -0.7086354 0.75313693 0.35409513 -0.107190266 -0.3142775 -0.03128309 -0.45318076 -0.54903394 1.0571159 0.3474826 -0.10248932 -0.3273169 -0.3132321 0.06446106 0.34628448 0.13660574 -0.5265356 0.8024898 -0.33325857 0.3759903 0.18341126 -0.6580897 0.048859704 0.3045569 -0.19236417 -0.46948737 -0.52573925 -0.09539613 0.36167732 -0.6792574 0.032582864 -0.035331883 -0.055046383 -0.17599584 0.22492109 0.089007504 -0.2643735 0.55601656 0.25650045 0.16112761 0.04392857 0.1156863 0.5652612 0.56614035 0.23864731 -0.98821294 -0.017280657 -0.7946185 -0.39978567 0.33318397 -0.30422148 0.43894657 0.08249906 0.211373 -0.74330235 -0.67757267 -0.27795526 0.32488632 -0.33349755 0.4203883 0.11228187 0.58254415 -0.060128976 0.30641887 -0.2691938 -0.4370664 -0.32900393 -0.39330706 0.085184 -0.7462108 -0.6460175 -1.1942393 0.81846875 -0.2850848 0.3017076 0.7018688 -0.35079396 -0.20622057 -0.112802416 -0.36038974 -0.47605965 -0.23825708 -0.3642971 -0.975675
OBT:002162 -0.49554738 -0.41448098 0.014170385 0.038873944 -0.24840117 0.39269903 -0.07442836 -0.21740709 0.11310974 -0.084506154 0.036507856 0.27918267 0.20704502 0.035861127 -0.30604383 0.46864238 -0.042865377 -0.035001952 0.19130091 0.5981148 -0.06603489 -0.03542949 0.44793078 -0.104991116 0.46504423 -0.16772875 0.2067245 0.12818526 0.039000276 0.28246495 0.52934855 0.63673437 -0.0119203525 -0.16177486 -0.7340455 0.02872195 -0.010638919 0.060285173 0.02460618 -0.15961316 -0.35993138 -0.49756423 -0.3797724 -0.35414147 -0.33080593 -0.29010087 -0.2963925 0.03762747 -0.02620423 0.16700852 -0.48641846 0.39854625 -0.10006457 0.10669728 0.3645012 0.14439273 -0.07805566 0.030247891 0.64933836 0.16802521 0.14520077 0.058706198 -0.18887404 -0.16019674 -0.25272954 -0.27058244 -0.15056105 0.40639612 0.032581333 -0.4536986 0.05121089 0.15091342 -0.043879602 -0.19565287 -0.0023512035 0.19874573 -0.027930876 0.55589604 0.21199338 0.1468325 -0.4577609 0.062206794 0.10529423 0.59660673 0.045925062 -0.17802343 0.51104724 0.13405105 0.60890716 -0.033900674 -0.23860824 0.18750602 -0.2116514 0.36063495 0.26514247 0.6337177 -0.14184147 -0.0017731106 -0.17847347 -0.5169998
OBT:000674 -0.34640804 -0.69344753 -0.17553744 -0.1496549 -0.16742782 0.41383505 0.0035593668 -0.52095926 0.10096243 -0.16386087 -0.013903149 -0.02996314 -0.030411812 -0.3642337 -0.464293 0.80973816 -0.07544349 -0.043662988 0.26197058 0.99905676 0.085323855 -0.17131126 0.21349667 -0.0056673335 0.7423063 -0.2048111 0.2524884 0.17966011 0.4996815 0.097346686 0.42898285 0.6109709 -0.08864215 0.12964456 -0.65236455 0.041386798 0.13159904 -0.2214666 -0.11291402 0.16510934 -0.27495107 -0.56411326 -0.5452529 -0.49417186 -0.27873212 -0.4133535 0.11356933 0.2758354 -0.11176666 0.3252402 -0.586593 0.75297797 -0.2511789 0.5619704 0.15059961 0.22946909 -0.35145986 0.3399753 0.5565765 0.2604571 0.37093174 -0.106290944 0.0949052 -0.06453301 -0.26167375 -0.494153 -0.3621419 0.40795407 0.16187377 -0.4354587 0.17114674 0.16384499 -0.31426752 -0.22662587 0.18465923 0.47224537 -0.08644438 0.39354634 0.22049162 -0.03061445 -0.1826523 -0.14561842 0.22237885 0.46627057 -0.053903088 -0.13815063 0.62164307 0.21058483 0.24317452 -0.11459461 0.16368705 0.43193287 -0.40615112 0.4821857 0.3021999 0.8938278 -0.5150242 0.014239739 -0.14756979 -0.7587423
OBT:001897 -0.1530929 -0.6053443 -0.17289582 -0.37041482 -0.106687516 0.5167813 -0.09211725 -0.4219938 0.20281184 -0.35652396 0.25895095 -0.003274808 0.07158943 -0.18185118 -0.5453868 0.78180224 -0.026387725 -0.06469273 0.46270803 0.77623 0.24776457 -0.42824337 0.30035767 -0.35700846 0.704672 -0.15520288 0.34871975 0.13832586 0.17014812 0.36124113 0.66751194 0.5777791 0.032686055 0.050904892 -0.6693997 -0.20630896 0.059691515 -0.06398689 -0.39193717 0.038279276 -0.21023548 -0.64334047 -0.3612995 -0.46018127 -0.40648103 -0.4421783 0.051011086 0.10120886 -0.0068840957 0.49802488 -0.61791474 0.8398588 0.15443407 0.2810971 0.07808483 0.37238953 -0.41022146 0.5713927 0.6616904 0.19302374 0.17999023 -0.22909714 -0.08627736 -0.020082382 -0.27518854 -0.2008271 -0.33343986 0.52255774 0.12802894 -0.23924662 -0.10124864 0.14377835 -0.20884937 -0.07291736 0.23491141 0.33022282 -0.17714772 0.2850144 0.40122494 0.27915534 -0.57075566 -0.07134126 0.22329968 0.56164026 0.07631684 -0.23082839 0.44276205 0.49906608 0.31410718 0.0059447763 0.100548275 0.6945817 -0.3498888 0.38300732 0.29974318 0.6870049 -0.16098118 -0.26411423 -0.053564165 -0.66997725
OBT:000001 -0.13708743 -0.529973 0.13562839 -0.24735714 -0.19058752 0.36491734 0.008211571 0.025777413 0.011538818 -0.12451488 0.56153595 -0.21397135 0.20529427 0.25753492 -0.28629175 -0.041020643 0.010327992 0.2012075 0.29403523 0.45909408 -0.37562472 -0.009772441 0.18057956 -0.13806747 0.35336608 -0.3076384 0.27871108 0.21045956 -0.06393539 -0.08444836 0.3793094 0.3226946 -0.09195556 -0.065937996 -0.16995637 0.22054364 -0.09244045 -0.41183037 -0.006076836 -0.30392784 -0.2726183 -0.53427035 -0.3098238 0.10287995 -0.30490112 0.074365325 -0.36045524 -0.13783662 0.10383973 0.35393313 0.1104139 0.2037049 -0.1479052 -0.15882012 0.34115642 0.05792907 -0.045460336 -0.15158144 -0.037233103 -0.15491687 0.14418791 0.011112997 -0.16366382 -0.36146578 0.012531351 0.039793637 -0.05980298 0.08817698 0.07562403 -0.043716177 -0.088661596 0.119846664 -0.0602526 -0.0021663315 0.085486755 0.30005792 -0.15145695 0.47526997 0.20836885 -0.08413208 -0.039963253 0.18176766 0.092232324 0.12453088 -0.029002938 -0.17926309 0.22306806 -0.3185528 0.55850416 0.40178394 -0.6525878 0.19877203 0.25505078 0.05147472 0.1888199 0.15535025 0.0835607 0.1152183 -0.46295673 -0.20122156
OBT:002019 -0.035968672 -0.52139086 -0.07519148 0.20104815 -0.19360207 0.2193883 -0.32881305 0.13393332 0.12181413 -0.23892973 0.17052485 0.38788563 0.16168211 0.3101066 -0.38663125 0.30879694 0.29076308 -0.016560582 0.124142885 0.2627036 -0.09835269 0.2817429 0.48425525 -0.31242657 0.26151302 0.060597558 -0.18161485 0.36917344 -0.030945064 0.3728382 0.58209103 0.18515477 -0.005889007 -0.3657871 -0.7562026 0.2310096 -0.23573261 -0.04218581 -0.0493598 -0.35290983 -0.18405093 -0.34348342 -0.30639717 -0.31562877 -0.23820952 -0.364839 -0.16166577 0.39233625 -0.20155656 -0.08389941 -0.44301814 0.16566634 -0.09833162 0.0145206945 0.6996438 0.11943729 0.033507634 -0.11506485 0.34591377 0.18053623 0.18471278 -0.2115466 0.23930965 -0.29718095 -0.32344562 -0.1697587 0.054017223 0.43273038 -0.05073496 -0.42878246 -0.00910561 0.22028059 -0.059891835 -0.34680688 0.030331267 0.14915168 -0.19508372 0.55304843 0.36917794 -0.25827655 -0.39739552 0.03813773 0.18849796 0.46895087 0.00016530564 -0.37842324 0.49997795 0.17558113 0.5525679 0.032082815 -0.5399018 -0.09424954 0.03616738 0.29350397 0.2122675 0.08604663 -0.10058712 0.19194223 0.008451324 -0.20639348
OBT:000392 -0.35924804 -0.381929 0.11239885 -0.06544779 -0.43597212 0.40199584 -0.15521966 0.013596582 0.4283577 -0.21442677 0.35792813 0.36078155 0.20554598 0.45939663 -0.29894766 0.3791945 0.15680663 0.071266 0.19840294 0.14222004 -0.075275406 0.11982269 0.4016215 -0.2863142 0.4482005 -0.13857195 0.04415591 0.017191162 -0.13357411 0.2107002 0.40909982 0.32711256 -0.03438873 -0.17998974 -0.41918328 0.28818172 -0.19646652 -0.27791128 0.014498267 -0.14318739 -0.17947595 -0.27012593 -0.10503358 -0.48109326 -0.11568651 -0.44384426 -0.18213806 0.52609974 -0.045967966 -0.00018295791 -0.31348932 0.33009294 0.01933059 0.021406038 0.068078846 -0.0018122339 -0.12225215 0.12847191 0.52413297 -0.08161831 -0.036308244 0.048475776 -0.0097747035 -0.012084408 -0.61265355 -0.19069336 -0.17748763 0.49092552 0.054470036 -0.556853 -0.25753525 -0.21214832 -0.248094 -0.38284793 -0.3554124 0.28154984 0.18918367 0.98068887 0.3390197 -0.05941533 -0.699998 0.38167405 0.30869734 0.33755508 -0.14281487 -0.16342653 0.23287624 0.06497429 0.46004215 0.2768397 -0.43992466 0.30290896 -0.37389538 0.36812174 -0.030910086 0.540288 0.19425835 -0.2603192 -0.14579307 -0.19033076
OBT:002085 -0.108636275 -0.17705682 0.04597791 -0.11913221 -0.2573784 0.23475027 0.15155818 0.23859748 0.50051415 0.17152604 0.09858822 0.2709228 0.24064209 0.21277186 -0.29294115 0.19335622 0.0076063466 -0.021600043 0.06146864 0.6753536 -0.24888395 0.094215736 0.24182701 0.023843901 0.27142528 -0.1678464 0.3412095 0.14608623 0.24136494 0.30309755 0.6593829 0.044373497 0.034844704 -0.36298227 -0.39757073 0.25637203 0.14350314 -0.32482475 0.04800215 -0.5584993 0.0072499337 -0.35262585 -0.2766035 -0.31937617 -0.18714274 -0.4769358 -0.3172053 0.10961231 0.1470497 0.11624063 -0.33097824 0.066668615 -0.29323816 0.27369466 0.36355826 -0.04368036 -0.2792722 -0.14199175 0.3683596 0.07331034 0.21761337 0.06295495 0.2847197 -0.20631866 -0.3794295 -0.25350666 -0.25177532 0.32837856 0.25522974 -0.17033681 -0.19372953 0.1348972 -0.15491012 -0.42953637 0.11804105 0.26603508 0.026720224 0.58251774 0.23474924 -0.15723331 -0.65780145 0.18761668 0.17169192 0.6327968 -0.12724504 -0.3272543 0.39416173 0.174412 0.53385144 0.16756152 -0.2439035 0.15958793 -0.33940047 0.45040178 0.23691487 0.30416873 -0.020059109 -0.21095306 -0.26318413 -0.33671847
OBT:000056 0.03527642 -0.2198294 -0.33470583 0.0011666652 -0.092607394 0.5007674 0.2899819 -0.10213105 0.26612082 0.015445364 0.019312384 -0.49651378 0.1091031 0.14481078 -0.2220474 -0.42614865 -0.035326075 0.286268 0.15647952 0.60594463 -0.1691613 -0.10657904 0.5637124 0.11394703 0.1991122 -0.21779002 0.2175186 0.21522263 0.09790113 0.22372063 0.3635736 0.13182916 -0.42261916 -0.32071707 -0.30388647 -0.090690754 -0.110567026 -0.26541767 0.12908287 -0.078913 -0.07717154 -0.28232643 0.046761017 -0.19928734 -0.30003455 -0.18211284 0.024875285 -0.014145648 -0.2903226 -0.00498612 -0.19561732 0.43893668 -0.24696101 0.05893536 0.053952448 0.29385856 0.18495384 0.103485845 0.42973524 -0.1966324 0.05597991 0.13384874 0.47725376 -0.0033326442 -0.3354788 0.14695293 0.06493073 0.27505425 0.2935121 -0.124119945 0.28027478 0.257482 -0.07020572 -0.21089216 -0.14076659 -0.09848968 0.014351711 0.57584184 0.15674107 -0.12104477 -0.33366567 0.05763217 0.05418808 0.4570529 -0.20790912 0.016170729 0.08631803 -0.009363367 0.6523988 0.05382419 -0.33504716 0.3518651 -0.5120786 0.18765694 -0.09191053 0.262421 0.020165753 0.12646846 0.012451137 -0.4447485
OBT:002164 0.1300859 -0.52993613 -0.30229324 -0.1532403 0.08750308 0.49410653 -0.41443637 -0.48937318 0.33607748 -0.18147077 0.026135061 -0.08088421 0.05965342 -0.059954997 -0.5159535 0.9663513 0.01145511 0.057165194 0.37291703 0.65621376 0.07291229 -0.26839045 0.44160005 -0.22675547 0.6483787 -0.26089618 0.42015153 0.21036135 0.40009815 -0.083666064 0.7178198 0.7567868 0.13306126 0.12475467 -0.6598899 -0.38164595 0.14334632 -0.037377883 -0.31557047 -0.026950296 -0.44826052 -0.697756 -0.73927736 -0.28371614 -0.0039369776 -0.5876905 0.019372454 0.43578312 0.036811236 0.4957892 -0.644221 0.96357155 0.019922564 0.627181 0.27922785 0.20707662 -0.4937351 0.5661208 0.6755642 0.104313396 0.31705713 -0.4558533 0.1554577 -0.08344598 -0.4482186 -0.2795203 -0.24100956 0.6688695 -0.0032564509 -0.46804726 0.011049607 0.55155385 -0.04851434 0.006559549 0.107071094 0.18360014 -0.124075025 0.6008825 0.26685074 0.26118034 -0.28731406 -0.14013968 0.29549953 0.5266243 -0.078398064 -0.4535223 0.31007597 0.3924616 0.30411455 -0.20698324 0.065974295 0.6690534 -0.2015407 0.7197616 0.26790163 0.9526048 -0.6755896 -0.27824113 -0.0384263 -0.7293416
OBT:002168 -0.35124072 -0.5714023 -0.27166438 -0.31691715 -0.17979513 0.27719447 -0.046709012 -0.4384638 0.16783895 -0.08549608 0.26582766 -0.08643839 0.17364074 -0.15958795 -0.67374575 0.71106327 -0.15085864 0.041388225 0.2980746 0.8956907 0.14936715 -0.13874383 0.48943564 -0.10691873 0.7154253 -0.33162478 0.23719004 0.039791334 0.38167584 0.27202198 0.44742897 0.5623707 -0.010813418 0.15104444 -0.52082455 -0.073229276 0.06508355 -0.005035332 -0.27591828 0.28474194 -0.18106243 -0.67384374 -0.53165895 -0.53247327 -0.41183582 -0.38720784 0.035729736 0.29398298 -0.1264822 0.55189854 -0.5358435 0.8657212 -0.031590592 0.53523237 0.2630006 0.15984207 -0.432677 0.6104892 0.5934343 0.3991494 0.22572464 -0.44489694 -0.120331906 0.018412009 -0.5603546 -0.19035566 -0.41109464 0.7216935 0.027026832 -0.4374948 -0.12475471 0.26443645 -0.050232843 -0.028941501 0.052913595 0.34062567 -0.37339246 0.45843467 0.27959648 -0.0069847316 -0.38686514 0.007171061 0.14796743 0.784746 -0.106035635 -0.1844665 0.60140336 0.2578412 0.18018316 0.019622143 0.17126839 0.65260905 -0.40793106 0.536462 0.3159858 0.81465316 -0.5981188 -0.068316884 -0.22792152 -0.54173905
OBT:000318 0.08171924 -0.14069043 -0.23357628 -0.09888479 0.02058624 0.3140375 0.261681 -0.42927745 0.7173631 0.18109295 -0.052701216 0.07169438 -0.29211253 0.006221606 -0.2336236 0.7146931 0.21130662 -0.03701197 0.22158228 0.8635222 -0.3162736 0.22808507 0.33183116 0.1773839 0.5872665 -0.35861424 0.6626287 -0.20351893 0.40155908 0.08294085 0.52182215 0.5683363 -0.008688009 0.2188623 -0.122261345 -0.07998286 0.36224782 -0.56643933 0.004538869 0.06305388 0.045682024 -0.51014245 -0.16381584 -0.32573563 0.050369713 -0.2514445 0.21774499 0.22815754 -0.19881421 0.4626923 -0.6649608 0.3568613 0.22458091 0.5926215 0.3657079 0.06517089 -0.26101086 0.28916073 0.11127589 -0.10527202 0.4200398 0.2889386 0.43068647 0.26520282 -0.24609329 0.29993865 -0.65791655 0.22428362 0.22151701 0.10194694 -0.05319551 -0.23845325 -0.78417075 -0.33253768 0.03342645 0.23224598 -0.104599945 0.0035957764 0.35266855 0.09050239 -0.72503483 -0.088433184 0.22516896 0.6352603 -0.07747034 -0.35036317 0.17497437 0.30586585 0.120383285 -0.0016380708 0.40738362 0.6297049 -0.29780307 0.19628295 0.1468171 0.4238642 -0.60465235 -0.15960039 -0.32687718 -0.5234735
OBT:002169 -0.11904086 -0.7549886 -0.30690488 -0.28862807 -0.22045287 0.5706098 -0.05172696 -0.58410716 0.15094718 -0.35779542 0.10517517 -0.124870345 -0.14357865 -0.402863 -0.5187244 0.7726699 0.020410923 0.012723668 0.084887795 0.9351751 0.113319255 0.011067217 0.3142931 -0.032407656 0.7667113 -0.23976134 0.30910558 0.111071356 0.27257693 0.17932644 0.64823264 0.7104388 -0.12620476 0.3344859 -0.7824645 -0.12637483 0.0481941 -0.045684 -0.2214159 -0.024908349 -0.15801825 -0.74367493 -0.3675083 -0.48176053 -0.28980914 -0.46090874 -0.010385586 0.22312483 -0.37123868 0.3050661 -0.6948508 0.7685088 0.08934111 0.4982179 0.47035384 0.26443768 -0.2678313 0.49206442 0.5589344 0.44255584 0.33459106 -0.31960714 -0.16850412 -0.210515 -0.24069631 -0.21248089 -0.31830862 0.5351493 0.14446534 -0.4828613 -0.0402537 0.27206632 -0.2813685 -0.13295928 0.11917106 0.312277 -0.1423895 0.41605276 0.16827534 0.29458308 -0.30381998 -0.029224692 0.24770153 0.79012126 0.05246966 -0.025942903 0.4927898 0.33392638 0.25706255 0.10077381 0.08965636 0.59178275 -0.3470546 0.4402263 0.26561427 0.87942886 -0.24712364 -0.10415168 -0.098334625 -0.609123
OBT:001149 -0.3706972 -0.8606667 -0.3093345 -0.23639359 -0.32401645 0.59178305 0.28407735 -0.28747192 0.15047964 0.07145923 -0.00075141323 0.33327594 -0.31376883 -0.033956267 -0.3320035 0.6234823 -0.15682882 0.078646414 0.31471485 1.0394948 0.49193245 0.17565055 0.26416317 -0.2149905 0.6099688 -0.12583953 0.14847995 0.4693337 0.75717854 0.118091315 0.37001052 0.36899418 0.14338234 0.03718833 -0.9170015 0.032049607 0.25826022 0.018444035 -0.33815795 0.2059941 -0.42776403 -0.49671075 -0.68259853 -0.4821359 -0.0910014 -0.48811373 0.13579203 0.336478 0.02790039 0.62480617 -0.8279458 0.7476382 -0.018187737 0.9034671 0.44988516 0.1153089 -0.4053479 0.4080286 0.6141867 -0.10415084 0.41456762 -0.30432668 0.076595806 -0.32191393 -0.34086525 -0.5112653 -0.38271812 0.45086113 0.44553274 -0.5127666 0.5432987 0.3952561 -0.41928017 -0.07944512 -0.19985317 0.3350833 0.031548817 0.71259224 0.35361814 0.0061042644 -0.042194434 -0.1654775 0.012787225 0.7758566 -0.016146312 -0.014857184 0.62765586 -0.04427195 0.14662485 0.0074608847 0.2669296 0.6349177 -0.55243796 0.69857895 0.38504773 1.056076 -0.50109524 0.22732076 -0.1186324 -0.7553459
OBT:002179 -0.2003408 -0.6720837 -0.10906161 -0.23334052 -0.094457194 0.47384432 0.31269875 -0.570239 7.334394e-05 -0.21377318 0.17712261 0.26421198 -0.012691937 -0.23567088 -0.53776217 0.8117496 0.039424904 0.19572207 0.3646356 0.81788 0.20621301 -0.22488005 0.26747409 -0.18179643 0.6469774 -0.23010708 0.24822304 0.23438735 0.38831648 0.48570386 0.61481166 0.715986 0.12170981 0.1440358 -0.5739687 -0.20169887 -0.014714267 -0.17539951 -0.55272627 0.27340153 -0.26587066 -0.60511595 -0.4694245 -0.5064908 -0.29957494 -0.47632006 0.045134943 0.22300665 -0.13494629 0.5345216 -0.5632193 0.76926875 -0.00019651066 0.4886913 0.13493979 0.43162042 -0.47737154 0.48984674 0.5872587 0.39797115 0.35766494 -0.20263287 0.099025875 -0.21912764 -0.3366672 -0.06019762 -0.24739806 0.533878 0.31309158 -0.4509755 -0.06333195 0.08290751 -0.21918134 -0.16238831 -0.00096056535 0.38893887 -0.11861018 0.2949521 0.29767728 0.09506533 -0.2773355 -0.16559349 0.38101128 0.7674755 -0.026451655 -0.32310992 0.5598618 0.24985941 0.22938594 0.016577365 0.073413126 0.47468382 -0.48950166 0.5831953 0.17436823 0.679592 -0.43629077 0.016434623 -0.19168225 -0.72190624
OBT:002184 -0.15828097 -0.7185584 -0.36020377 -0.33201915 -0.008929427 0.4818205 0.108777136 -0.53088033 0.17513911 -0.26308027 0.42394024 0.048662003 -0.16220172 -0.17546037 -0.59307307 0.9403902 -0.07391263 0.06633751 0.47139293 0.92822313 0.22569548 -0.23442946 0.43687785 -0.09124846 0.81822866 -0.29038668 0.2199507 0.06846518 0.2980069 0.0713684 0.5353858 0.61801916 0.011528737 -0.09760432 -0.5803622 -0.2018511 0.24801938 -0.19082583 -0.20994632 0.26515082 -0.083285645 -0.6829737 -0.49083453 -0.45320097 -0.5900085 -0.56757003 0.20432718 0.011774078 0.023756988 0.43079773 -0.54410547 0.7131384 -0.011457812 0.5430124 0.26564088 0.26618645 -0.4781098 0.702416 0.73367333 0.2931281 0.1661202 -0.24704361 -0.1857587 -0.1899824 -0.33098662 -0.26108918 -0.3099811 0.6667873 0.28829202 -0.2513018 -0.08243838 0.1307731 -0.22912046 -0.18913928 0.050342012 0.51848656 -0.14647058 0.37444264 0.46931392 0.1273509 -0.29144317 -0.25516412 0.2840156 0.44074836 0.082872294 -0.24671623 0.4922618 0.3481261 0.24803439 0.08422401 0.06735678 0.6178154 -0.25415444 0.49114567 0.27588966 0.6419041 -0.33343536 -0.28969726 0.1263952 -0.4590096
OBT:001184 -0.26183796 -0.637434 0.030806137 -0.05521328 -0.079467244 0.43076614 -0.15740561 -0.5582763 0.123938784 -0.13701677 -0.06298485 0.024198161 -0.09512207 -0.19728959 -0.36403334 0.60719615 -0.0069046 -0.3270309 0.35137323 1.1899085 0.1356091 -0.008766567 0.26368114 -0.108461715 0.7030856 0.0344894 0.2572668 -0.060944602 0.42068183 0.1841104 0.43121296 0.55010796 -0.049718425 0.147118 -0.81146884 -0.14414375 0.38241416 -0.19062893 -0.23324673 0.21302904 -0.21940319 -0.76187044 -0.51735216 -0.38693586 -0.12607618 -0.5164762 0.08176647 0.367578 -0.23019427 0.40482116 -0.77319133 0.6568858 -0.21474789 0.7864587 0.23570646 0.38918218 -0.35887212 0.50682795 0.6791941 0.061832435 0.3617585 -0.21569306 0.037833028 -0.390033 -0.56893176 -0.36334574 -0.3481282 0.5994725 0.23998787 -0.59684056 0.18266746 0.46652776 -0.26871514 -0.01810788 -0.09483376 0.5203309 -0.070433475 0.40055904 0.19657406 -0.20129599 -0.22809553 0.18903993 0.23410541 0.660121 -0.074336365 -0.26208037 0.51565254 0.12016456 0.09318286 0.07654047 0.19528535 0.32712126 -0.27977368 0.34934202 0.058511987 1.0233085 -0.44785777 -0.11905729 -0.14111608 -0.7345799
OBT:001822 0.34925267 -0.31940088 -0.09018253 -0.65866816 0.07474901 0.1821413 0.035027873 -0.5104065 0.50776803 -0.28769922 0.122864924 -0.025490358 -0.23266396 0.28567764 -0.4481168 1.2450283 -0.2834621 -0.050298437 0.43118104 0.75074154 0.059383724 -0.23983517 0.31669894 -0.3312278 0.47405398 -0.22892748 0.4144534 -0.0056733107 0.32028648 0.047445085 0.6717532 0.31527346 -0.28738758 0.38491508 -0.06712093 -0.35311082 0.47914717 -0.0749276 -0.44339156 -0.3404681 0.075531356 -0.43868032 -0.013749359 -0.5320063 -0.053486623 -0.17612061 0.09944256 0.36095792 -0.008654302 0.36509418 -0.53431433 0.61980397 0.52483684 0.54233605 -0.06551172 -0.13561566 -0.34247348 0.7109649 0.2473086 0.13337706 0.21163097 -0.3159039 0.12967831 0.4246362 -0.46174943 0.2680502 -0.7293745 0.4206351 -0.27628914 0.07692493 -0.18427221 -0.05723527 -0.4829963 -0.31970432 0.27470148 0.27956334 -0.17124236 -0.020417059 0.21958862 0.11744178 -0.7695553 0.059872683 0.12895568 0.6740668 -0.28111264 -0.22693475 -0.11263383 0.018069826 0.2208532 -0.04479088 0.20316042 0.8325919 -0.3921064 0.26855263 -0.036316797 0.22308059 -0.36442778 0.24451317 -0.42024472 -0.7140952
OBT:000075 0.11356052 -0.32585284 -0.4889982 0.1977524 0.33613306 0.47756022 0.38815585 0.23881565 0.11960935 0.40424415 0.5314411 -0.32457703 0.2920641 0.06381445 0.09062872 -0.39162067 -0.27789423 0.23843841 0.18956795 0.74453324 0.13154072 -0.11306749 0.5689125 0.11291742 0.14174005 0.0012136666 0.42901433 0.12641284 0.17435892 0.20534813 0.5485797 0.043302156 -0.42753923 -0.68266726 -0.8186891 -0.16755602 -0.104964726 -0.5693831 -0.45095438 -0.004449114 0.019422488 -0.053248663 -0.14528783 -0.2240614 -0.17315015 -0.15345643 -0.36298692 0.18505022 -0.42280436 0.37141395 -0.6019692 0.20328555 -0.6822714 -0.33805823 -0.010151687 0.24956448 0.13521363 0.21642958 0.50746906 0.1986974 0.3176162 -0.19461 0.9791479 0.11963994 -0.17277575 -0.18567547 0.3533232 0.38752496 0.3491824 0.09147241 0.5088903 -0.08356817 -0.54952383 -0.3523639 -0.19716762 0.07930837 0.24253811 1.104645 0.08099156 0.5012621 -0.32476664 -0.13792467 0.08329684 0.6341255 0.17818262 -0.4542878 0.40000173 0.19555004 0.6243924 0.0057042353 -0.16310343 0.39695057 -0.44883603 0.22156258 0.28788793 0.45526165 0.45402777 0.030142773 0.14677885 -0.031793844
OBT:000350 0.17389975 -0.27051544 -0.50489014 0.44706333 0.31320986 0.5801537 0.39975414 0.19055453 0.116394565 0.28135297 0.43115678 -0.44694567 0.22731905 0.16487436 0.08151526 -0.41897324 -0.25940818 0.33671004 0.25057596 0.6328224 0.178435 -0.14903711 0.5072758 -0.12417236 0.16646935 0.018742638 0.43636814 0.1536915 0.17191066 0.06170643 0.5442439 -0.038181037 -0.44878307 -0.833736 -0.82018703 -0.17618954 -0.24429433 -0.6125844 -0.41169107 0.10988006 -0.25186127 -0.06980069 -0.37155992 -0.33985227 -0.2355598 -0.20248184 -0.40252316 0.16076872 -0.43373814 0.3528643 -0.525168 0.32760116 -0.7342391 -0.084729254 -0.009491831 0.26035404 0.055709414 0.20125209 0.65127975 0.32713282 0.29006484 -0.106895335 0.9058156 0.064597465 -0.15834244 -0.26866305 0.43587694 0.4436601 0.37321627 0.05906646 0.5218449 0.028941602 -0.69729155 -0.26063436 -0.3065917 0.15426154 0.42303252 1.0567936 0.16049384 0.30663145 -0.48327747 -0.12810543 0.32089692 0.69702494 0.1781009 -0.40505826 0.31826797 0.21716098 0.5946367 0.1437379 -0.1595011 0.42555532 -0.4660782 0.33924666 0.23922458 0.7566068 0.601554 0.08373899 0.09574037 0.012281602
OBT:000115 -0.013700844 -0.23875314 -0.22505286 0.26684484 0.17277876 0.36914977 0.45662382 -0.1363328 0.276639 -0.07396959 -0.055441223 -0.7263756 0.16408026 0.5777312 -0.30179214 -0.3107335 0.093400694 0.03243284 -0.051699188 0.5246927 -0.1554563 -0.12289124 0.339864 -0.027769014 0.53924775 0.13420397 0.45420897 0.11107488 0.27692038 0.18042167 0.38078767 0.26380363 -0.32633883 -0.44554487 -0.8083587 -0.09654565 -0.09563005 -0.26211625 -0.04136777 -0.17898515 -0.07054925 -0.33018023 -0.10306713 -0.25378558 0.04122687 -0.27778843 -0.34455958 -0.0076921685 -0.33393374 0.2802773 -0.061796248 0.5369485 -0.14689273 -0.13031025 -0.12360043 0.41661492 0.2849238 0.022556681 0.5201462 -0.21798868 -0.040663596 0.07284314 0.63134396 0.036471717 -0.19649154 0.005278794 0.16790414 0.35055643 0.15366325 -0.07184172 0.20116457 -0.13408634 -0.25788102 -0.38668185 -0.30094314 -0.29248366 -0.019051587 0.84448355 0.19524105 -0.19294454 -0.38084254 0.24527593 0.06354397 0.5871017 0.039843813 -0.34941518 -0.018059887 0.030943006 0.29100066 0.07789369 -0.32867894 0.35205835 -0.38933933 0.12409289 0.015823018 0.23427878 -0.101240814 0.005492177 -0.04911616 -0.16184114
OBT:000010 0.124677725 0.021619134 -0.23584163 -0.14411634 -0.20725863 0.5220952 -0.051295996 0.0928715 0.47216243 -0.37857452 0.24987158 -0.7978121 0.68330604 0.090047464 -0.36923593 -0.36953294 0.18064599 0.121001355 0.17261393 0.63449293 0.27403554 -0.046886772 -0.014166342 0.031524684 -0.1251563 0.036537755 0.014623745 -0.24016723 -0.5222017 0.32908845 0.7947437 -0.29695237 -0.009811425 0.26200274 -0.45889902 -0.30590218 0.3738643 -0.27501157 -0.35420403 0.096552454 -0.07408813 -0.5411647 -0.32804528 0.00029516104 0.2361665 0.55917186 -0.6155753 0.6256306 -0.5525855 0.20798078 -0.29092205 0.1075563 -0.098956294 0.083560266 0.19309951 0.29827425 0.14143787 0.32582083 0.6511545 -0.45832148 -0.7868639 -0.1919834 0.159495 0.20080537 0.096080095 -0.107647955 0.16194934 0.11646468 0.015137652 0.20796461 0.096225776 -0.04220313 -0.5033455 -0.65187055 -0.34525552 -0.23776928 -0.04654303 0.6343443 0.20707496 0.26166013 -0.4000377 0.40884647 0.18016733 0.2509365 -0.15364502 -0.3008891 0.024603616 0.03464698 0.50290966 -0.13952103 -0.34478775 0.57000315 -0.33017212 0.027755305 -0.2563342 -0.41442013 0.13805354 -0.1924081 -0.6528505 0.07648916
OBT:000217 -0.008517859 -0.4544146 -0.30669734 0.03388897 0.11186616 0.48168334 0.2699249 0.024024105 0.18844889 -0.09581072 0.018133922 -0.54427147 0.28295797 0.058262996 -0.19994971 -0.25327882 0.045660835 0.1717573 0.2725635 0.54938596 0.071531 -0.19876887 0.2713246 0.07268213 0.4742978 -0.059453662 0.310302 0.3595036 -0.05515584 0.4600434 0.42481434 0.085472494 -0.38180524 -0.5231914 -0.83612 -0.22391818 0.0952845 -0.2882535 0.28686836 -0.2538562 -0.26801324 -0.35020632 -0.056731436 -0.1890694 0.0046626446 -0.39325503 -0.2416673 0.23856264 -0.31869838 -0.046211623 -0.3866598 0.56894976 -0.32657754 0.19511579 0.015308363 0.3768654 0.3767236 0.11994614 0.502552 0.03187335 0.09245351 0.15945333 0.58132124 0.29596218 -0.33450145 0.030679101 0.09864526 0.33005503 0.17394088 0.00020121575 0.27107155 0.086554445 0.009006642 -0.39824924 -0.36903295 0.17146462 0.032828175 0.40097147 0.15098707 -0.26296115 -0.5394163 -0.11023478 0.23099534 0.48872152 -0.098583706 -0.37353393 0.028043611 -0.15882699 0.5661938 -0.135012 -0.37830794 0.520917 -0.35208786 -0.051409867 0.01860738 -0.1010812 0.15547436 0.24300109 -0.009710134 -0.2371091
OBT:000224 -0.041330487 -0.0033439503 -0.22095522 -0.17212018 -0.16754256 0.4917532 -0.005559373 -0.111970745 -0.13267961 0.14322737 -0.032315455 -0.7991636 0.119522825 -0.050085194 0.06334013 -0.2823097 -0.18677913 0.06382439 0.14080693 0.65197587 0.16900213 -0.0092271995 0.4637993 -0.05424309 0.44072348 0.41395828 0.503164 0.081380576 0.00012267468 0.38079283 0.8217095 -0.086086474 -0.120558865 -0.18635632 -0.54837734 -0.115431175 -0.22309583 -0.42990747 -0.020402415 0.12667513 0.05153933 -0.33655477 0.021344483 -0.12457574 -0.37626892 -0.22117934 -0.091005184 0.32651144 -0.35117713 -0.12438198 0.13159409 -0.106188975 -0.31448963 0.111949526 0.08831603 0.50725937 0.57384217 -0.07253889 0.79041505 -0.15790747 0.24666339 0.33202258 0.22700894 0.2238674 -0.41549063 0.14370985 0.16832633 0.079288796 0.26331663 -0.091771685 0.053658508 -0.12940319 -0.45325756 0.16628504 0.008618957 -0.1409623 -0.026081786 0.44107634 0.027480377 0.24612235 -0.26532713 0.12149887 -0.24222536 0.6274099 -0.08819996 0.008867157 -0.13266957 -0.41517162 0.13154273 0.47766188 -0.13411288 0.6801462 -0.06296725 -0.17676157 -0.16318144 0.2434348 -0.05367486 -0.1320436 0.20159313 -0.18032089
OBT:001746 0.08522799 -0.15684189 -0.35686538 0.2465595 0.2601691 0.5889442 0.037876252 -0.22852865 -0.016636094 -0.085711725 0.088535935 -0.41995078 0.25014043 0.18232308 -0.04138636 -0.47086233 -0.08801631 0.07126774 0.3772969 0.72012323 -0.3767975 0.19893295 0.57873905 -0.24930365 0.3468581 -0.08865693 0.5335555 0.090590484 -0.23298664 -0.17970595 0.16601695 -0.30438575 -0.21425019 -0.45155096 -0.73152477 -0.39096656 -0.22393687 -0.27166834 0.0058927974 -0.03163937 -0.40303245 -0.30541542 -0.25880647 -0.41192862 0.031073524 -0.1650607 -0.5007321 0.21521142 -0.07884399 0.06636579 0.09363819 0.39055657 -0.49096817 0.2393467 0.11214863 0.050462693 0.24694951 0.45958444 0.73171073 -0.53008485 0.121641986 -0.03415815 0.25298974 0.23926212 -0.122499436 -0.2532294 0.23936562 0.5347892 0.021446316 -0.7627937 0.17242321 0.06917162 -0.44730088 -0.24789274 -0.463958 0.32810298 -0.0015481968 0.6613241 0.22214021 -0.06035348 0.36201203 0.25622502 0.567671 0.693221 0.13785176 -0.14990339 -0.16190086 -0.38248622 0.53445494 0.40192106 0.26425976 0.5263742 -0.47033143 0.05126244 -0.12150007 0.17661342 0.08143378 0.18854211 -0.2433476 0.005870537
OBT:000240 0.02436523 -0.2919856 -0.327482 -0.03960323 -0.48771256 0.2454806 0.22990215 -0.30129677 -0.3591487 -0.27443334 -0.27116808 -0.31353304 0.23418865 0.47169805 0.021432003 -0.18059278 -0.021919359 0.18377459 0.27101246 0.83573115 -0.2507475 -0.1433418 0.27356017 0.19694467 0.47324064 0.24009399 0.3033299 0.14868645 0.64419854 -0.0787579 0.48329693 -0.31210294 -0.37587556 -0.33950138 0.005012827 -0.12526172 0.05571565 -0.21974465 0.06642369 -0.36377752 0.08172647 -0.15616544 0.1312847 -0.20198767 0.16781841 -0.19320393 -0.19896294 -0.01647008 -0.18079759 -0.19948736 -0.32702577 0.60495317 -0.19357836 0.070174605 -0.029141562 0.46497023 0.17077927 0.22431205 0.23183425 0.019995512 -0.005822868 0.028844144 0.4366142 -0.1157302 -0.7029381 0.021760788 0.25965896 -0.014527433 0.37174445 -0.15839165 -0.19162472 -0.014633492 -0.5413942 -0.2155493 -0.3598927 -0.04733625 -0.19963422 0.5370473 0.22448708 0.12897429 -0.5522087 -0.0055029783 0.16446328 0.37671998 0.23930359 -0.4378385 0.06605552 0.055690285 0.13774206 0.0024993427 -0.37001297 0.5462718 -0.46458462 0.20367539 -0.14349905 0.043590695 0.061444953 0.11565679 -0.22299747 -0.30429712
OBT:000099 0.13124292 -0.07471975 -0.47822914 -0.21044616 0.074269325 0.09288407 0.3801501 0.08053554 0.20847046 0.5174919 -0.017280815 -0.5307694 0.04017999 0.068152025 0.30064827 -0.27397257 0.16645515 0.1616164 0.54941255 0.6666613 -0.28770605 0.007417007 0.22651696 -0.3196857 0.46378556 0.23691832 0.23946577 0.37355903 0.29282632 0.18236008 0.28684524 0.6421009 -0.4267559 -0.10324321 -0.25032082 -0.09765232 -0.07952712 -0.037360705 -0.16484496 -0.25862154 0.09953211 -0.36345223 0.01949515 0.031940795 -0.042488974 0.09496898 -0.36164314 0.41863877 -0.19390032 0.019679127 0.34589228 0.45352444 -0.59244347 -0.29186684 -0.33029446 0.22346959 0.11216397 -0.37719667 0.54569024 -0.06592208 0.5222672 -0.12059648 0.6557764 0.28780943 0.073236905 -0.017887551 -0.21114473 -0.021866104 0.30779845 -0.253469 0.19476576 -0.37698686 -0.11027673 0.26111877 -0.0066092126 -0.16707873 -0.27574357 0.65348494 0.12692066 -0.182232 -0.121801466 -0.0777784 0.10923681 0.29120183 -0.110123605 -0.16645944 0.04445615 0.016783837 0.3191903 0.10067004 -0.26665464 0.78771204 0.08504054 0.12798724 0.13621566 -0.032104153 -0.05970294 0.29971847 -0.26646358 -0.1977668
OBT:000219 0.07977297 -0.24988155 0.051005073 -0.17085645 0.1171913 0.0870201 0.17988172 0.059452225 0.16106392 0.15460995 -0.03948267 -0.6101495 -0.0125586875 0.00042500882 -0.43500108 0.4578464 0.12614697 0.03727813 0.20648478 0.45058846 -0.41293064 0.28385583 0.36517045 0.05229671 0.64771616 -0.2723949 0.19793987 -0.15786855 0.17893961 0.12763368 0.5860253 0.5413849 0.04161778 -0.33184043 0.28180277 -0.45419514 0.16164453 -0.23642454 -0.036375154 -0.27343765 -0.26002112 -0.38224992 -0.09529754 -0.4378356 -0.16349562 0.19464245 -0.073954485 0.52980083 -0.20183858 0.092543766 -0.5104234 0.4186921 0.28826037 0.375834 -0.12716517 0.018750073 0.14559999 0.28077438 0.388475 0.108368345 0.26215458 0.31170425 0.57411146 0.57125044 -0.41310704 0.051220708 -0.6498974 0.53144723 0.5812453 0.020124296 0.17763974 -0.21988297 -0.55548686 -0.16552058 -0.26679572 -0.0027193092 -0.15688157 0.37976286 0.08109943 0.11175128 -0.34347886 0.11220595 0.0369128 0.35184228 -0.36466104 -0.09129796 0.04371765 -0.07373987 0.082134195 -0.11379674 0.2674947 0.22784157 -0.3561388 0.07181803 -0.23244567 0.10005332 0.031491857 0.00085357024 -0.21099815 -0.1106293
OBT:000162 -0.019268986 -0.3410501 0.14291754 -0.019486614 -0.41633093 0.20952655 0.01459564 0.057800844 0.21483041 0.072732314 -0.026672065 -0.30569923 -0.12014235 0.24683765 0.018180752 0.16982444 0.15553598 -0.034039583 0.40481433 0.5698197 0.088571474 0.30821887 0.17657027 0.008558027 0.4215295 -0.051000684 0.22480886 0.13944148 0.16783476 0.25573465 0.55094254 0.2143978 -0.03977476 -0.34430498 0.13803154 0.17182115 0.16761024 -0.3105928 0.2921589 -0.33268467 -0.06498068 0.14335756 -0.084114484 -0.4856649 -0.1733034 0.28290898 -0.075200185 0.3033078 -0.28936744 -0.29680485 -0.42665595 0.27690825 0.23430292 0.14350949 -0.17510296 -0.03841476 0.017761068 0.09312966 0.3065049 -0.05336816 -0.14175867 0.47407493 0.38270223 0.2044757 -0.5813162 0.15529935 0.029618911 0.72129285 0.36423668 -0.23547904 -0.11762076 -0.40112293 -0.34017938 -0.42864057 0.019139046 0.023655033 0.025088182 0.56678295 0.12970592 -0.040822297 -0.24231151 0.2508632 0.27931035 0.2575693 0.22095433 -0.21230336 0.026083581 0.08399016 0.5404448 -0.3540645 0.04365424 0.41946793 -0.5718393 0.35370937 -0.23275177 -0.13544454 0.18302363 -0.05005891 -0.20547776 -0.6720909
OBT:000218 0.09558456 -0.1703723 -0.20141387 0.04213987 -0.2012515 0.14765018 0.03594705 0.2739856 -0.034640446 0.14690043 0.5125086 -0.6464243 -0.25785267 0.056059893 -0.3633767 0.10459794 0.017488113 0.17691973 -0.08083575 0.798985 -0.2616318 0.4600128 0.12425392 -0.16160591 -0.054996006 -0.10208468 -0.12522195 0.022222344 0.30218866 0.07748812 0.487962 0.6142496 -0.56007457 -0.07968395 0.12215222 -0.40726504 -0.034423552 -0.5592291 -0.26119995 -0.27271256 -0.23012224 -0.18481481 0.03283839 -0.19925322 -0.14926326 0.04888138 0.0070959404 0.6016102 -0.23353076 0.0042229057 -0.13197707 -0.14552762 -0.11038282 -0.05727372 -0.45800427 0.17733653 0.37688237 0.22201723 0.72319895 0.0025429232 0.14113559 0.30942798 0.4077482 0.44034994 -0.31420106 0.063327365 -0.1212856 0.4113332 0.23563276 -0.11449855 0.0811626 -0.3964398 -0.22301342 0.04745876 -0.13791859 -0.012651313 0.044181164 0.06704582 0.24883881 -0.19526349 -0.40156522 0.0858212 0.036978714 0.02581247 -0.06107055 -0.0029050328 -0.16006462 -0.14807716 0.10525775 0.13836804 0.34074163 0.6428988 -0.026636558 0.38139927 -0.18934478 0.18475524 0.30337304 -0.21718474 -0.12708223 -0.32799855
OBT:000029 0.05719746 -0.13116054 -0.18092167 0.17575535 -0.4188616 0.24958551 0.1750317 -0.034700673 -0.1621494 0.03269788 -0.040090382 -0.6769993 0.28613254 0.33737096 -0.14241298 -0.3388225 -0.0051134885 -0.100258194 0.26309288 0.6260488 -0.3883592 -0.2311863 0.26779613 -0.023901194 0.4269288 -0.12731017 0.30587256 0.26497346 0.52600896 -0.11871084 0.3035852 -0.18474667 -0.55778533 -0.3676501 0.08526648 -0.39683658 -0.034734797 -0.23942102 0.07570248 -0.118178174 -0.18752472 -0.25517365 0.037816484 -0.033569466 0.26604006 0.09050092 -0.134708 -0.08697278 -0.19080034 0.085217506 0.029068751 0.1776806 -0.2838893 0.11901242 0.1804932 0.591921 0.24457534 0.24849792 0.11102867 -0.024266817 0.2242253 0.04063671 0.17518732 -0.5387788 -0.80598545 0.13949639 -0.10733704 0.12660867 0.05421963 -0.08753971 -0.102935374 0.05573315 -0.358147 -0.32963315 -0.20784608 -0.027044127 -0.31046337 0.7453349 -0.27216384 -0.16700745 -0.5832967 0.055370588 0.004631167 0.33631635 0.18798915 -0.34685633 0.2201702 -0.19054052 0.21637134 -0.06421921 -0.40049195 0.23576677 -0.283043 -0.015180098 -0.24263573 0.20079064 -0.03398487 0.11308142 -0.2001261 -0.32113278
OBT:002257 0.23394285 -0.23616956 -0.2550077 -0.18457687 -0.38877374 0.26662362 0.23949797 -0.37281144 -0.5469821 -0.1320626 -0.32781202 -0.6133121 0.09834668 0.51121306 0.27569336 0.018192258 -0.055618938 -0.021732634 0.34368074 0.7635022 -0.27996174 -0.01255818 0.16135143 0.058927156 0.22066344 0.09638635 0.42398468 0.014154466 0.43834284 -0.17371584 0.36934778 -0.33366075 -0.64002883 -0.34310293 -0.08755475 -0.2443277 -0.12789991 -0.17632435 -0.31844702 -0.70686585 -0.22971484 -0.22221145 0.11058941 -0.31831 0.11539186 -0.15972722 -0.041272126 0.016382946 -0.119058594 -0.2264886 -0.34620717 0.3774791 -0.2521244 0.008519712 -0.19971792 0.49137023 -0.0144563 0.26995447 -0.0135978535 0.17641415 0.2169212 0.06576051 0.36244303 -0.28274846 -0.73641235 -0.0015768706 0.11169199 -0.07105108 0.24935484 -0.105567604 -0.27624798 0.04093056 -0.6662157 -0.33416453 -0.36977094 -0.12339382 -0.134304 0.53557134 0.3672443 0.19790381 -0.5455039 0.0010101956 0.10792737 0.6189628 0.2573732 -0.4396202 -0.3021243 -0.063733265 0.23923662 0.15542278 -0.4098459 0.54231036 -0.39025182 0.30634743 0.12539999 0.12969564 0.05860464 0.12317557 -0.07658651 -0.3047874
OBT:002020 -0.04225007 -0.34738272 -0.15466551 -0.23934671 -0.53257924 0.056608338 0.55338055 -0.26847383 -0.32925782 0.010190074 -0.46269912 -0.5099933 0.3071426 0.33759853 0.18644008 -0.13315606 0.03439979 0.05594268 0.4654422 0.782409 -0.30407694 -0.16824502 0.20501615 0.16729033 0.37756878 0.2655726 0.114412576 0.056307185 0.37950948 -0.1836687 0.5273853 -0.24194574 -0.4863954 -0.029919606 0.043700665 0.042660058 -0.03146327 -0.11207858 0.10401889 -0.3032267 -0.31338406 -0.24357282 -0.03432554 -0.21126993 0.30203706 -0.37904978 -0.18843159 -0.1351246 -0.21938401 -0.07821869 -0.40737 0.23798351 -0.087775655 0.12708263 0.0019937453 0.22834945 0.29736137 0.36084074 0.32031316 -0.050121933 0.15654618 0.26229635 0.39090163 -0.086879164 -0.36472896 0.0578012 0.17780171 0.115004286 0.39327648 -0.1121709 -0.046104226 -0.04121135 -0.4606453 -0.39032078 -0.21220769 0.032781817 -0.10408845 0.5315411 0.12527445 0.21201175 -0.752286 0.010597264 0.25516483 0.43149772 0.45230544 -0.4703298 0.093798354 -0.012851623 0.5264801 0.23060426 -0.531232 0.3779055 -0.45723388 0.28315023 -0.29709166 0.26403785 0.123884924 0.44433016 0.01888894 -0.456102
OBT:001289 -0.027908852 -0.30609325 -0.08126584 -0.15210196 -0.3451049 0.0763321 0.14046848 -0.18029808 -0.3462728 -0.079194106 -0.5122777 -0.6339164 0.18677154 0.15437874 -0.08731191 -0.19478899 -0.0074353144 -0.07947568 0.25845924 0.8139254 -0.074375875 0.06858226 0.18024276 -0.10286455 0.32968616 0.15891716 0.31711438 0.0570261 0.289356 0.0072197206 0.8008654 -0.29431224 -0.5222708 -0.35258844 0.08337204 -0.060362685 -0.08035886 -0.3055624 0.25855672 -0.4396825 -0.051423065 -0.08547246 0.11967552 -0.19862415 -0.0045423964 -0.029896555 -0.046181865 0.0004317648 0.0009529024 -0.10286959 -0.12053598 0.22952396 -0.11344677 -0.11805409 0.10512169 0.456878 0.3600848 0.21260075 0.22477975 -0.16946928 0.06360683 0.23268734 0.3516515 -0.23369871 -0.7414283 -0.3118817 0.2764972 -0.10595169 0.3424086 -0.22579135 -0.17934823 -0.08462166 -0.5930033 -0.27635318 -0.48424846 -0.14090838 -0.07372886 0.5599046 0.16506219 0.20769557 -0.52122825 0.037961606 0.1960328 0.49642292 0.10358648 -0.46754536 0.019133458 0.06947118 0.3412632 0.051625688 -0.30917743 0.50884867 -0.48855463 -0.0040454403 -0.16965899 0.14251217 -0.006686313 0.13227764 -0.02616412 -0.4061611
OBT:001893 -0.09138402 -0.075233676 0.25979987 -0.036655024 -0.6324901 0.22640993 0.16338079 -0.041737188 -0.2577831 -0.029943362 -0.3355808 -0.25377047 0.17615211 0.09253833 -0.11700681 0.032889117 -0.025752071 0.11274852 0.43858677 0.7062976 -0.1404234 -0.107692026 0.09429434 0.175078 0.11334961 0.07409018 0.13759789 0.016173195 0.27983853 -0.23657449 0.4437587 -0.09897028 -0.259226 -0.38650066 0.13606316 -0.20410557 0.2971556 -0.21299654 0.28853768 -0.3809234 -0.089348815 0.21807861 0.19436947 -0.24206503 -0.047916666 0.08901668 0.031160155 -0.0034090895 -0.2003058 -0.24028444 -0.17441325 0.26115474 -0.009850109 -0.16294949 0.18720473 0.3874472 0.36888865 0.09222664 0.015254406 0.027844228 0.1709977 0.12692052 0.4212128 -0.047556423 -0.32657298 -0.24119005 -0.08492972 0.17688273 0.56819254 -0.3578316 -0.36965257 0.049002696 -0.46392095 -0.53067017 -0.22170848 0.17608589 -0.07538694 0.41475397 0.07869039 0.23303215 -0.56414205 -0.078271545 0.37720776 0.42720965 -0.0050874273 -0.5298674 0.10490087 0.057448786 0.6110958 0.108471684 -0.11598721 0.66915566 -0.5044608 0.08366892 -0.41748294 0.1320121 -0.16813703 0.22052182 -0.031468812 -0.36260685
OBT:002194 0.0654254 -0.15580875 0.007417653 -0.07990391 -0.30096096 0.31934878 0.16729559 -0.28532284 -0.25666958 0.16726026 -0.21258172 -0.4708264 0.23392488 0.30469683 0.004337747 0.008899125 0.21902198 -0.022710804 0.5486543 0.800693 -0.2205589 -0.03100506 0.014208784 0.065717325 0.31945413 0.09988005 0.11220267 -0.14588417 0.35890195 -0.018134307 0.4614192 -0.33089745 -0.30386275 -0.181032 0.10136108 0.18727076 0.21122509 -0.12925035 0.29391253 -0.64190245 -0.13563424 0.12767206 -0.014182118 -0.14937738 0.07674614 0.16539256 0.01181623 -0.19024019 -0.35877866 -0.034303267 -0.33806804 0.31994647 0.091394186 0.068922415 0.031250246 0.20765351 0.1619722 0.0610433 0.31539118 -0.050857555 -0.06658508 0.24181986 0.41025004 -0.0118961055 -0.5413114 0.037427504 0.26725656 0.19337101 0.44846356 -0.119019344 -0.24117513 0.17316493 -0.5339667 -0.46015984 -0.2560509 0.1056574 -0.027019905 0.5574705 0.16771084 0.09476019 -0.6539547 -0.03511181 0.25633627 0.33059403 0.13665105 -0.26495385 -0.16568048 0.0072639165 0.12453643 0.10778977 -0.23488936 0.5408839 -0.3581656 0.29215443 -0.040072415 0.068526626 -0.27095735 0.0037238894 -0.3023266 -0.34594777
OBT:001804 0.019116165 -0.005076479 -0.16970477 0.037339974 0.1556116 0.12107621 -0.16147554 -0.11633314 -0.12773384 0.061750438 0.43926522 -0.8102368 -0.08787415 0.20050755 -0.08659295 -0.15565911 0.018931791 0.17709368 -0.09889591 0.27512315 -0.39632335 -0.20744161 0.3743858 -0.35504675 0.4683255 -0.030158825 0.0053965137 0.3310427 0.052426457 0.16667823 0.28776348 0.2827435 -0.372077 -0.34554037 0.19108 -0.32292187 0.15583365 -0.2201096 -0.005674185 -0.19903104 -0.210576 -0.10382288 0.042960428 -0.038944624 0.20155673 0.4016201 -0.3522569 0.2057234 -0.3242173 0.10848431 0.067872755 -0.062372304 -0.10102568 -0.22462595 -0.08094737 -0.12474221 0.530363 0.28182846 0.17500216 -0.08017618 0.35208452 0.091228046 0.49212018 0.09803409 -0.54870534 -0.011042959 -0.072236605 0.29343972 0.25353137 -0.13137046 0.1331023 0.07270415 -0.073471025 -0.14755015 -0.08682457 0.11209991 -0.29743534 0.10415371 -0.0046944474 0.016931161 -0.42205983 0.01210616 0.15621331 0.42335302 -0.59614426 0.071993254 0.537048 -0.4889659 -0.0024346064 0.4098718 -0.38795456 0.23867893 0.15464503 0.18761013 -0.15230373 0.29187042 -0.17324895 0.056985214 0.0041967127 -0.23648234
OBT:000268 -0.07535407 -0.21638532 -0.074730195 0.22269678 -0.42241368 0.29287672 0.17797175 -0.15512614 0.16839845 0.04470351 0.47573483 -0.45588285 0.25232518 0.21098773 -0.009626432 -0.2803742 -0.038294993 0.24462047 0.24299732 0.22623816 -0.16524094 -0.2686456 0.23148592 -0.11937095 0.30387038 -0.26833957 0.544034 0.34085914 0.14076132 -8.960544e-05 0.18694976 0.18828605 -0.5125964 -0.5395287 -0.09179281 -0.6088098 0.15230785 -0.2311904 -0.13060933 0.03638266 -0.25071734 -0.010430309 -0.19727223 0.0213558 -0.07636481 0.12011353 -0.06896562 -0.2566397 -0.11707251 0.046007868 0.08374091 0.3124247 -0.2593525 -0.124467164 0.34196514 0.2624766 0.4501502 0.23756364 0.28074086 -0.23974238 0.15423797 0.5203178 0.08495857 -0.35585377 -0.6469746 0.08927039 -0.40614834 -0.08294857 -0.061636694 -0.039762188 0.22113656 0.16122027 0.24202178 -0.3221829 -0.23046829 0.11660459 -0.39156604 0.5957417 -0.050923336 -0.06040065 -0.5315834 -0.09963622 -0.16544679 0.36199123 0.12490272 -0.37450355 0.20678347 -0.3626231 0.4406081 0.044042077 -0.355388 0.6440276 -0.0905504 -0.0010530395 -0.10719033 0.04113618 -0.039459016 0.07667468 -0.28808856 -0.07281148
OBT:000037 -0.30406046 -0.2974922 0.09486352 -0.067006834 -0.20757061 0.37192425 -0.033953227 -0.13846198 0.55434245 -0.0018460781 0.36958817 -0.85893786 0.21149406 0.3632664 0.09802848 -0.2999253 -0.053790946 0.19712295 -0.14608501 0.69013596 -0.21518232 -0.30315992 0.28966865 0.077423304 0.38605818 -0.042941008 0.36128336 0.0759728 -0.09503633 0.17736185 0.38561207 -0.17083 -0.5219078 -0.44075975 0.10424787 -0.492189 0.0097188335 -0.18216218 -0.22354934 0.045616567 0.052192062 -0.354637 -0.45879558 0.12223875 0.04117148 0.29100627 0.061821237 -0.07693138 -0.6275099 0.2896767 0.028075749 0.12497044 -0.36193976 -0.109410115 -0.05188938 -0.05361565 0.1231423 0.40805984 0.05984242 -0.2806286 0.3077699 0.25247508 0.34935302 -0.37449408 -0.7528703 -0.22665735 0.058113605 -0.08367624 -0.16437167 -0.14965269 0.15797529 0.09151128 0.22566476 0.12781346 -0.36317897 0.51677114 -0.0064574205 0.51272523 -0.16663048 0.009984941 -0.446063 -0.18990037 -0.0022539946 0.26582065 0.17527542 -0.48631403 0.092806295 -0.10205604 0.47317564 0.0787642 -0.3809522 0.43670708 -0.21301319 -0.0072819996 0.17766555 -0.08329518 -0.0072781146 0.34483546 -0.54609686 -0.23818503
OBT:000564 -0.0936254 -0.17014675 -0.3352783 0.102928355 -0.28979063 0.29074094 -0.020322114 -0.20130876 0.1735113 -0.35913098 0.17154874 -0.56559205 0.4073875 0.17554483 -0.17048451 -0.28346986 0.23199637 0.3334705 0.12977916 0.6636245 -0.053561203 -0.53010035 0.29731193 0.06077182 0.5376926 0.021023713 0.3609616 0.185258 -0.10175561 0.04934674 0.20433138 -0.09545823 -0.4476162 -0.49478933 0.03685819 -0.46987644 0.13563049 -0.255322 -0.056587875 -0.0526039 -0.34119904 -0.38930812 -0.342775 -0.07637952 -0.11746614 0.018097507 -0.2909517 0.15473612 -0.18820979 0.570264 0.19791634 0.2756285 -0.17113942 -0.2728389 -0.103310585 0.20020574 0.25987667 0.16713415 0.123249695 -0.2264015 0.20866822 0.34164494 0.51717156 -0.52364284 -0.6600714 -0.02262052 -0.16464503 0.05577395 -0.16637823 -0.18604065 0.14684415 -0.10276694 0.06860685 -0.04108857 -0.19082305 0.13350338 -0.36209548 0.35582533 -0.014725226 0.16391583 -0.79407936 0.067085296 0.14877468 0.40191156 -0.065456495 -0.36124998 0.27093664 -0.4043377 0.31186974 -0.061156753 -0.12648319 0.41492122 0.07849393 -0.05399487 -0.119687244 0.2874687 0.20414582 0.029854208 -0.48534003 -0.0900802
OBT:000659 -0.25890213 -0.25340393 -0.21553113 0.03341727 -0.39220774 -0.04158919 0.13878006 -0.25972426 0.14319044 0.15804958 0.28737617 -0.64709663 0.282378 0.15424915 -0.01920641 -0.39800575 -0.02280238 0.1488274 0.22583157 0.67279947 -0.24128054 -0.34086752 0.10818651 -0.09458477 0.5381695 0.10336966 0.27414653 0.08627967 0.049014837 0.17866313 0.15654776 -0.05558379 -0.3959061 -0.44458047 -0.049284253 -0.5790352 0.0049332217 -0.1514999 -0.24641468 0.1260602 -0.2871709 -0.41828096 -0.16992216 0.013537436 0.18380886 0.1211315 -0.21882762 -0.1464593 -0.21831338 0.25341004 -0.02846864 0.4227757 -0.10581383 -0.35111994 0.23225087 0.24606559 -0.017954066 0.28249866 -0.028149392 -0.34680012 0.4397424 0.27335614 0.003298429 -0.2877228 -0.5042392 0.010116389 0.043433383 0.19098087 -0.15588687 -0.19380139 0.49236447 0.1484014 0.2218975 -0.12131273 -0.24134956 0.15698168 -0.23517741 0.76646906 0.06882991 -0.2946927 -0.8489963 -0.11614227 -0.048078354 0.4713387 0.17990997 -0.17993812 0.11632702 -0.4774355 0.3581468 0.19503231 -0.53318715 0.51598704 0.11646466 -0.13183717 -0.16108927 0.20846382 0.014875812 0.11055887 -0.27926874 -0.18634564
OBT:001768 0.16542026 -0.14582129 -0.1842579 0.21896377 -0.11866335 0.69715685 0.11903599 0.06306976 0.1341921 0.29350817 0.11697332 -0.83619756 -0.04104296 -0.022475874 -0.4047817 -0.37267894 -0.23452841 -0.14639929 0.09865574 0.6838037 -0.37837872 -0.44463676 0.65204066 -0.3067862 0.36077544 0.10625992 0.08571742 0.3317423 0.2194396 0.029177368 0.1211253 -0.4527849 -0.21159638 -0.5476331 0.20438161 -0.16122046 0.108589254 -0.3349296 -0.15923606 0.1419519 -0.109990336 -0.18140881 0.20295389 0.48880193 0.06329571 -0.06832875 -0.32301095 0.242179 -0.43075818 -0.12427666 0.0125314025 0.24565794 -0.24603513 0.14448048 0.10694289 0.18080388 0.34831414 0.18023188 0.4819829 0.4819488 0.7508775 0.22540748 0.41727683 0.08472777 -0.60558933 -0.065775886 -0.13650507 0.38791883 0.13230751 0.034119826 -0.06291175 0.059665926 -0.39107105 0.19536546 -0.17800336 -0.5526269 -0.6270061 0.7683828 0.10211899 -0.351587 -0.63220257 0.21866852 0.16910732 0.644423 0.06611109 -0.1842614 0.2508243 0.03423092 0.12612526 -0.10375034 -0.41438547 0.3111496 -0.2561928 0.09981479 -0.28960878 0.2690246 0.009700146 -0.06148398 -0.12547454 -0.18914415
OBT:002022 0.095387585 -0.23559298 -0.0030651211 -0.017273966 -0.086521834 0.41778958 0.067187645 -0.16225651 0.041385937 0.17165595 -0.009458902 -0.7425898 0.3092159 -0.049939197 -0.17047557 -0.13858537 -0.30014008 -0.059835598 -0.08367551 0.78378004 -0.39373416 -0.28653142 0.3265135 -0.14380619 0.3666793 0.17554042 0.2492492 0.40092033 0.30474323 0.07299264 0.3814178 -0.18387678 -0.28162852 -0.42620838 -0.23629199 -0.29153657 -0.031960983 -0.17797725 -0.100383684 0.20084932 -0.26366505 -0.04018868 0.19205473 0.24128945 -0.10186448 -0.31913167 -0.22279827 0.01910121 -0.50465715 -0.024897976 0.0633479 0.057928476 -0.17980364 -0.03576949 -0.060082 0.50485474 0.41270936 0.16860333 0.53921473 0.1069616 0.4039329 0.3880567 0.2820624 0.068639494 -0.7868553 -0.05595958 -0.11531643 0.7670866 0.0004313023 -0.052676063 -0.08100485 0.036576685 -0.36415175 0.18482937 -0.045229763 -0.25630122 -0.24562922 0.7871176 -0.1816467 0.035175487 -0.40281153 0.19905855 -0.00036619225 0.41645715 -0.2370588 -0.20955662 0.31152874 -0.517187 0.039909348 0.108242035 -0.5369153 0.41272587 -0.20091352 -0.15832825 -0.04826333 0.42457706 -0.17215325 0.18229389 -0.017613325 -0.23864134
OBT:000549 0.1625412 -0.17221917 -0.2343381 -0.08256547 -0.4457674 0.47900632 -0.095888846 0.16898307 -0.10523318 0.0450082 0.054947153 -0.94909763 0.22804162 -0.027477533 -0.18684715 -0.23619874 -0.25021854 -0.06422025 0.20105855 0.9719185 -0.08887739 -0.29860875 0.21605384 -0.16062446 0.08375395 0.06267932 0.45400217 0.30594897 0.25695467 0.34771973 0.55114734 -0.057585765 -0.13011579 -0.062405467 -0.46900263 -0.084035575 -0.44234475 -0.34946093 -0.20922549 0.025599837 0.14552599 -0.2918129 -0.007297152 0.024961421 -0.29752395 -0.3497407 -0.072628476 0.030062588 -0.34527066 -0.17177503 -0.061461873 -0.2009614 -0.2260935 -0.10351966 -0.21490142 0.61527616 0.43535537 -0.11229215 0.62432176 -0.10060087 0.28882438 0.057915006 0.43326062 0.31395924 -0.42897895 -0.14182965 -0.10986345 0.6706544 0.104066886 0.0052814027 0.013319889 0.08686318 -0.2642746 0.33412433 -0.18915065 0.036379542 0.09978606 0.43947077 0.07966975 0.16117863 -0.4312155 -0.041245017 -0.29871884 0.5105529 -0.35146242 -0.020794952 -0.24802025 -0.47579172 0.03971869 0.35938302 -0.2149006 0.6827533 0.09795319 -0.26009133 -0.10663359 0.2683865 -0.3001326 0.20188673 0.16063988 -0.18063287
OBT:000906 -0.029153148 -0.030976951 -0.105212614 -0.27412254 -0.10822467 0.15680574 0.19595689 0.076883145 -0.27180132 -0.059182115 -0.3284365 -0.71794134 0.25450137 0.014709681 0.0024236515 -0.35906276 -0.36607164 0.029096823 -0.082666166 1.0229675 0.18920423 0.017149355 0.40606785 -0.12998371 0.38880453 0.36119795 0.40814957 0.034075595 -0.16463232 0.276835 1.0247916 0.04666996 -0.2530925 -0.26848644 -0.33421364 -0.16987547 -0.10364848 -0.57781154 0.21636756 -0.120781586 0.12602422 -0.03179382 0.13863485 -0.46948153 -0.2070166 -0.29678226 0.14516585 0.21236224 0.06413864 -0.07913618 0.32186234 -0.035523247 -0.2864426 -0.1063208 0.1662343 0.3905512 0.43289673 0.13248008 0.24739775 -0.13477843 0.31219935 0.18153167 0.39290553 0.2826994 -0.58752435 0.08528935 0.15104179 0.19425169 0.33769527 -0.16926122 -0.2484352 0.039902493 -0.32606378 0.071610816 -0.35852656 -0.11963846 0.07277334 0.5258517 0.27302387 0.2552984 -0.3884235 -0.054347686 -0.028214168 0.26246902 -0.23927362 -0.113611825 -0.056829408 -0.32922876 0.46024358 0.32575712 -0.37654054 0.81440353 -0.24822609 -0.1564185 -0.38122597 0.35324842 0.050147057 0.11187404 0.041856647 -0.30059955
OBT:000194 -0.08088335 0.028460806 -0.13603187 -0.1300361 -0.24698235 0.5559715 0.16327529 0.2363211 0.13049716 0.034888532 0.057216313 -0.6846296 0.2716812 0.029123908 -0.044181004 -0.43781254 0.20232214 0.20666303 0.16639341 0.8681 0.295739 0.021714227 0.37134886 -0.08141219 0.2535028 0.38560802 0.38304612 0.16872561 0.07974896 0.1414949 0.7937241 -0.3830754 -0.17540857 0.014627767 -0.57161677 -0.32249576 -0.3609281 -0.4453411 0.21002261 0.19230743 -0.06577642 -0.13399647 -0.20823948 -0.30558878 -0.08778126 -0.05655199 -0.06179533 0.45713782 -0.3263391 0.18034734 0.13251686 -0.04459014 -0.3699964 0.028104564 -0.06719573 0.46854755 0.39975893 -0.13685791 0.70601076 -0.0045328126 0.34598628 0.07539861 0.3483223 0.22387847 -0.45410013 -0.01685693 0.18340383 0.49295828 0.10093057 -0.25548413 -0.19223359 -0.047341477 -0.14976223 0.1374938 -0.11873003 0.052837078 -0.082058445 0.31294915 -0.0460422 0.3572285 -0.103959784 0.11134674 -0.01628786 0.43962744 -0.1360506 0.025337629 0.07342212 -0.40137678 0.3713579 0.23180532 -0.0030512374 0.63949436 -0.22001252 -0.5293609 -0.21852553 0.35728768 -0.1507978 0.0100861555 0.10636616 -0.0332009
OBT:000548 0.10939791 0.150757 -0.121014625 -0.11799864 -0.22958314 0.35462663 0.18744373 0.029009461 0.16974206 0.025561413 -0.124434255 -0.90988106 0.15914711 -0.037618835 -0.027177788 -0.4728284 -0.21511526 0.053371027 0.09315828 0.640162 0.29360744 -0.0585322 0.43026924 -0.20501596 0.27645737 0.1756581 0.5043818 0.29358 0.23162647 0.414709 0.7766649 -0.041978475 -0.14083448 -0.13688157 -0.414425 -0.20681858 -0.21692419 -0.46235457 0.09873982 0.16742812 -0.15044631 -0.26374295 -0.03494764 -0.32859185 -0.27281147 -0.32076365 0.012160364 0.41539687 -0.3215089 0.19735686 0.0022855422 -0.11887415 -0.21390909 0.122127004 0.0018569548 0.54415774 0.5154282 -0.0934291 0.707784 -0.1014901 0.29237628 0.3216804 0.3756296 0.2158449 -0.37822613 0.022536697 0.14155847 0.3247294 0.42672896 -0.15720391 -0.0028472543 0.109604836 -0.21841753 0.047391344 -0.18412559 0.06803773 0.09673916 0.4923012 0.15682718 0.18027446 -0.3053006 0.09063842 -0.104170546 0.39220637 -0.07137764 -0.037345417 -0.02120289 -0.4072411 0.25549006 0.38520363 -0.23105139 0.71375316 -0.073082626 -0.1161919 0.0024566858 0.34931538 -0.16693395 -0.100662336 0.1926125 -0.2819413
OBT:000560 0.30602038 0.030409768 0.04326499 -0.3525828 -0.19807816 0.24899374 0.22756441 0.20066231 -0.017127568 -0.01783503 -0.10751383 -0.56355333 0.019904379 0.019530764 0.066102885 -0.115012914 -0.26511326 0.3532897 0.16859718 0.6293766 0.22952482 -0.02610397 0.37014288 -0.21244672 0.23703337 0.046848644 0.5577803 0.40756172 0.20802096 0.51192373 0.82505167 -0.025500286 -0.06962893 -0.38200697 -0.45907727 -0.30025402 -0.1632779 -0.5630751 -0.16517563 0.11135377 -0.02858946 -0.16341333 0.06137746 -0.06192325 -0.06965998 -0.30765715 -0.15308882 0.3847769 -0.22897461 -0.30319792 0.12094504 -0.00966865 -0.28207523 0.11792506 0.089536875 0.36457482 0.62786233 -0.2671633 0.6936889 -0.22037803 0.6985593 0.20536336 0.1275019 0.3150527 -0.24037008 0.15133408 0.048194807 -0.12338168 0.22857314 -0.1810914 0.11253937 -0.0040121097 -0.2957397 0.09340776 0.06319964 0.043002646 -0.17031504 0.42068407 0.13395739 0.2308926 -0.19206187 0.15541062 -0.04057444 0.259261 0.16710545 0.032054696 0.10517408 -0.48888916 0.31879643 0.23713432 -0.23629908 0.7118395 -0.030890625 -0.342307 0.03959941 0.12139188 0.014040759 0.3059521 0.0641109 -0.326081
OBT:001342 -0.21518607 -0.026277939 -0.020688599 -0.2027432 -0.11436478 0.27532873 -0.11153284 -0.023260992 -0.08631807 0.14920218 0.04124334 -0.5681713 0.18914182 0.23526041 -0.15837707 -0.20178631 -0.0732843 -0.04018689 0.0798069 0.80187106 0.07465124 -0.11307234 0.43456244 -0.15294884 0.0215143 0.3774598 0.22704132 0.22483456 0.21607162 0.30373693 0.6753636 0.062881425 -0.38794476 0.08679288 -0.3265093 -0.13216685 -0.35102323 -0.4574115 0.1731225 0.1772363 -0.1879154 -0.31202155 -0.034248456 0.043360416 -0.17260341 -0.2949041 -9.760597e-07 0.11599072 -0.6986002 0.054908223 -0.012148245 -0.24847342 -0.22646572 0.10468494 -0.12393974 0.41169083 0.6517812 0.06534816 0.90061545 -0.06308469 0.017940907 0.342331 0.49666995 0.14042135 -0.46881455 0.34495687 -0.23688757 0.30097765 0.1219089 0.05570234 0.012215745 -0.20666946 -0.3188722 0.026001731 0.0021724205 0.049709376 -0.018729143 0.3319419 -0.15647656 0.15463361 -0.28647986 0.08774042 0.06620351 0.15987632 -0.20567852 0.13768062 0.04932631 -0.44119418 0.14575887 0.3561324 0.009008576 0.63877577 -0.04738755 -0.03749165 -0.014390216 0.28021663 -0.027484218 -0.105251 0.17862031 -0.2882118
OBT:000471 0.2193546 -0.20546803 -0.24779852 -0.16832654 -0.16431867 0.19411191 0.007970766 0.2106273 -0.11564798 0.31067508 0.09504405 -0.6776744 0.1311986 0.33084068 0.1235811 -0.3141259 -0.16889983 -0.13220522 0.10943081 0.8994653 0.07135355 0.20016785 0.07301885 -0.054094136 0.27267718 0.18103722 0.31258506 0.31901318 0.27794582 0.46913394 0.6639178 -0.0690627 -0.11642234 -0.19444571 -0.4869956 0.023269054 -0.09736243 -0.22499451 -0.065577276 -0.0054390337 0.30193388 -0.3076032 -0.019431194 -0.010225918 -0.21397628 -0.059003446 0.10986388 0.23600979 -0.2114315 0.27054197 0.112069465 -0.08080248 -0.4230816 -0.14121303 0.15274505 0.31484434 0.6458007 -0.21117087 0.54393774 0.060416467 0.28078377 0.08850048 0.32055715 -0.012724942 -0.5104528 0.014390643 -0.100727886 0.5569347 0.31289864 -0.11273338 0.063064836 0.11535736 -0.22920097 0.13224955 -0.07217105 0.0007487853 0.14009175 0.44406226 -0.13147046 0.36234704 -0.16081609 0.0432092 -0.28941932 0.2578636 -0.032690007 0.1509928 -0.13835463 -0.5197927 0.01934204 0.38252303 -0.26561883 0.71300197 -0.050869163 -0.12296103 -0.18115337 0.44770005 -0.31270513 0.032797668 0.22977474 0.12442157
OBT:002229 -0.14225659 -0.078135364 -0.14098527 0.02009463 -0.36465847 0.39565265 -0.040791165 0.07224176 -0.13627289 0.31782663 0.18259875 -0.26590943 0.011252617 0.121285945 -0.14984033 0.11626386 -0.2169605 0.01742268 -0.023953835 0.38919154 -0.25102207 -0.37026066 0.08787414 -0.08922643 0.47562394 0.05846651 0.2692938 0.30923533 0.11519097 0.26048374 0.53651285 0.05310743 -0.30189496 -0.17171155 -0.51132786 -0.29892406 -0.06890499 -0.077898875 0.04808061 -0.41320506 0.09873853 0.546023 -0.24308456 -0.5996552 0.14696428 0.24005008 -0.403768 -0.27109224 0.09754941 -0.28410974 0.13954745 0.45841676 -0.17184086 -0.02683747 -0.09675356 -0.34954503 0.58279926 0.19750686 0.348227 -0.29352912 0.5711029 0.13858426 0.48624232 0.013625537 0.25726467 0.108233154 -0.21534386 0.32986596 0.19671999 0.13040006 -0.15711573 0.107541576 -0.22315906 -0.49224898 -0.12626244 -0.19389394 0.13555947 0.2335555 -0.030830229 -0.36060247 -0.42098 0.24256396 -0.007143685 0.5494665 -0.0005137226 -0.15781692 0.33448222 -0.19378133 0.37265202 0.11937171 -0.17980929 0.55140144 0.0447061 0.010458647 0.08561374 0.19582158 0.20547679 0.21177305 -0.076226406 -0.27026498
OBT:000703 -0.2330012 -0.354583 -0.06355563 -0.08499955 -0.2535021 0.65828764 0.26807585 0.37163076 -0.27720043 0.1576828 0.2279829 -0.20242448 -0.21628168 0.21762107 -0.043678965 -0.25431964 -0.15785955 0.22550285 -0.08381449 0.32940584 -0.28317276 -0.24154642 0.34182566 -0.036665406 0.47560143 0.005188847 0.39464384 0.18732029 0.31399795 0.1600283 0.9754499 0.19822809 -0.08286273 -0.059328634 -0.53721064 -0.12553643 0.0787984 -0.41585615 -0.23008692 -0.01569974 -0.20066372 -0.102861755 -0.08666919 -0.26716363 -0.14963236 -0.034136247 -0.36042318 -0.1879598 0.027875748 -0.1511566 0.068761334 0.59254736 -0.43652284 -0.22288765 -0.054342136 -0.21220003 0.5739605 -0.06748111 0.1484513 -0.17818297 0.21615933 -0.055135332 0.09036495 -0.26967984 0.31316638 -0.017452348 0.17229049 0.12549357 -0.082889974 0.38475707 -0.11666143 -0.1243042 -0.19155331 -0.2904788 -0.37973934 -0.082348414 -0.14989914 0.47973925 -0.06681911 -0.589111 -0.110788725 0.11063136 0.2224952 0.19188571 0.0319902 0.04117382 0.2879314 -0.1836471 0.24498571 0.1124986 -0.2730009 0.65102375 -0.19440769 -0.05170791 -0.007699869 0.112142704 0.07037411 0.13628931 -0.07675808 -0.19434698
OBT:001344 0.06681063 -0.22604291 -0.15672141 -0.023581121 -0.19357546 0.44635922 0.3609663 0.10757718 -0.30869344 0.11517615 0.17264193 -0.19573052 -0.06442843 0.044555306 -0.008672503 -0.20953153 -0.30409738 0.26615235 -0.051239565 0.34209904 -0.34786993 -0.33795837 0.39432135 -0.020219795 0.3176715 0.035175826 0.3063022 0.33813915 0.08839793 0.2186773 0.8399982 0.11874201 -0.21745473 -0.105313405 -0.512472 -0.23148765 0.038109157 -0.05292897 0.016969897 -0.16520622 0.16653605 -0.059090562 -0.07996648 -0.3780031 -0.24512556 0.17578554 -0.3657311 -0.13017039 -0.01307891 -0.22402143 -0.10457681 0.49110514 -0.20075893 -0.28040484 0.080101684 -0.047547378 0.51181656 0.25250778 0.37167004 -0.35851085 0.4005492 -0.14219972 0.4913352 -0.09134915 0.30910954 0.12652782 -0.15868354 0.114487246 0.23486999 0.13238898 0.01818201 0.20853296 -0.03854863 -0.21078038 -0.5192321 -0.04696452 0.08855183 0.5270716 -0.037484907 -0.37605333 -0.28185537 0.15767206 0.119611286 0.45839927 -0.15232217 -0.22802189 0.27172306 -0.3145459 0.51094306 0.102249466 -0.14743268 0.7878932 -0.08730196 0.05762263 -0.13531294 0.09707307 0.1302248 -0.008977396 0.021521214 -0.22587782
OBT:000323 0.067120425 -0.30066842 -0.26793364 -0.12834519 -0.11958055 0.50110555 0.24319157 0.15002537 -0.1977622 0.42372176 0.24992388 -0.31722784 -0.18472615 0.088230066 -0.06466772 -0.34668723 0.00663295 -0.2260505 0.20002109 0.51012206 -0.3375619 -0.07726537 0.5480073 -0.098161355 0.04714034 0.10145834 0.13640785 0.2941273 0.14962909 0.12002954 0.56853426 0.32303616 -0.4857754 -0.082143046 -0.29250553 -0.037099894 -0.098824106 -0.21724702 0.0031596392 0.16348962 -0.009200963 -0.115389585 0.18324642 0.004388113 -0.0747802 0.19246277 -0.108935416 0.13800612 -0.0044971085 -0.19215563 0.024145747 0.40760568 -0.2718278 -0.46192393 -0.0063761543 -0.014031834 0.19772696 -0.104374014 0.6964707 -0.37401846 0.4473965 -0.14989735 0.67438245 0.3393448 0.2428149 0.25679818 -0.30681702 0.14881139 0.10383556 0.087434374 -0.052644078 -0.13716283 -0.010421921 0.01818812 -0.16779195 -0.052195985 -0.1644333 0.5313311 -0.17617048 -0.5199473 -0.24501875 -0.16982897 0.20902546 0.36774895 0.08103113 -0.01566013 0.15718804 -0.2932343 0.3424339 0.16367985 -0.10985152 0.950092 -0.06641019 0.0051096566 -0.30943018 0.0781247 -0.059280965 0.20722117 -0.0384226 -0.43888727
OBT:000096 -0.038512174 0.05420823 0.15976013 -0.34330198 -0.34662747 0.30926445 0.32542387 0.24776816 0.039541215 -0.09815592 0.009966157 -0.2354249 0.0579903 -0.1722179 -0.30644628 -0.41118655 -0.029856982 0.38154992 0.2896157 0.27530575 -0.23258637 -0.27081585 0.05157952 0.15524164 0.2038426 -0.05916451 0.46866715 0.59530276 -0.17056508 -0.0013373788 0.7023248 0.25686818 -0.11768966 -0.5068066 -0.080009975 -0.53183186 -0.09202741 -0.26471162 0.098418914 -0.022725224 0.18519855 -0.2304925 0.05498451 -0.20727725 0.07880738 0.16772267 -0.1529202 0.20863853 0.033795755 -0.21735147 0.2560762 0.47153312 -0.32178283 -0.2923103 0.19074929 0.020235684 0.687701 0.25356454 0.51934457 0.01674069 0.5568307 -0.112992816 0.051511183 -0.19652669 -0.055254236 0.11557608 -0.32572097 -0.09486069 0.12822121 -0.0291587 -0.040266883 0.10588285 -0.38190243 -0.14541227 -0.4340453 0.219804 0.25252002 0.51167434 -0.083004154 0.18650037 0.015717601 0.22390842 0.41019025 0.53037393 -0.18368474 -0.09670937 0.21349494 -0.6197592 0.34677467 0.18857078 -0.15778139 0.73466945 -0.18045664 0.09920782 -0.12814221 0.19164412 0.16906705 0.1173699 -0.23679577 -0.20834476
OBT:001260 -0.061339278 -0.05778021 -0.039753266 -0.085826464 -0.19505925 0.49094975 0.07430146 0.20997526 -0.20815319 0.009371529 0.09479918 -0.32919323 0.04060554 -0.1132504 -0.0039862306 -0.2828946 -0.30365792 0.26797765 -0.07986411 0.55561066 -0.21448238 -0.18536918 0.50711864 -0.19426739 0.19034265 0.12231373 0.5737424 0.14447643 0.037795145 0.3264274 0.959335 0.008457076 -0.42980537 -0.17709018 -0.37026396 -0.105340905 0.07414049 -0.34062585 0.14974713 -0.09267277 0.24049273 0.0419132 0.15321328 -0.44841316 -0.17863943 0.03301144 -0.39294025 -0.032360166 0.05238615 -0.016086675 0.20043135 0.4430559 -0.27212146 -0.3134126 -0.18199554 0.022439133 0.4157126 0.052211337 0.2992961 -0.24153987 0.49726045 0.03892 0.4593548 -0.11750668 0.20787384 0.17976888 -0.012535004 -0.0050946847 0.2597682 0.019434027 -0.22778179 0.010165826 -0.24908935 -0.16409531 -0.25597396 -0.05629708 0.08419924 0.3229063 -0.070225865 -0.3048833 -0.22698084 -0.05146551 0.28954396 0.5849068 -0.30068034 -0.4184396 0.09601126 -0.32114783 0.6677987 0.15670773 -0.33941954 0.71903586 -0.29585493 -0.04770661 -0.20065907 0.26294994 0.0052010813 0.09430546 0.11508946 -0.37937614
OBT:000905 0.10340776 0.060872335 -0.28313816 -0.19814335 -0.18867218 0.42380935 0.4693404 0.14579627 -0.19443448 0.11766889 0.070217565 -0.25678265 0.082395114 -0.07672917 0.0645421 -0.30809116 -0.32604635 0.27521843 0.023347782 0.37348428 -0.2591451 -0.26298913 0.39042795 -0.11123977 0.3458564 0.23237981 0.21443759 0.1641476 0.011279444 0.09762246 0.8777688 0.12518406 -0.2684092 0.023790114 -0.5344032 -0.1342748 -0.07613793 -0.18547761 0.039646808 -0.021431075 0.07657784 0.0051122834 -0.021724705 -0.26088718 -0.043615397 0.0623299 -0.00061591296 -0.044973925 -0.08889061 0.06996186 -0.20812589 0.6285198 -0.26536667 -0.05479846 0.10258431 -0.05633963 0.4981279 0.062468536 -0.012115075 -0.32007587 0.6270072 -0.121331915 0.5923049 -0.122867875 0.30551872 0.13129002 -0.109631956 0.018551122 0.27688453 0.17088574 0.110471666 0.21166144 0.14444129 -0.13653705 -0.47171193 -0.0027049824 0.07538807 0.583698 -0.021159086 -0.62656516 -0.41196623 0.06309856 0.5745095 0.49894297 -0.050330352 -0.12142691 0.02376029 -0.4050078 0.39778042 0.28518316 -0.24566245 0.8775505 -0.3002755 0.2692982 -0.24247926 0.19484577 0.43618038 0.24415837 0.03774196 -0.25572708
OBT:002177 0.005707813 -0.19634433 -0.02497885 0.07029939 -0.176083 0.5460914 0.33751374 0.14916314 -0.21410325 0.16568553 0.36377874 -0.389226 0.056751106 0.23740624 -0.0021149013 -0.07484566 -0.2365735 -0.024972089 0.02835011 0.42460698 -0.47619164 0.0061496436 -0.03862391 -0.27482828 0.32592788 -0.09096305 0.16612485 0.335376 -0.02036015 0.046772722 0.8444982 0.17306006 -0.21260585 -0.15617938 -0.40219864 0.30278087 -0.024429778 -0.19183707 -0.029602427 -0.26956117 0.1757716 -0.24823762 -0.05728399 -0.32983494 -0.24404027 0.4453559 -0.19552518 -0.14380287 -0.07289254 0.12179631 0.06012339 0.41834635 -0.23986304 -0.13550712 -0.09582222 -0.06080342 0.612665 0.158096 0.2412075 -0.20583636 0.28797054 -0.03806362 0.3213466 -0.059054963 0.090555824 0.05233759 -0.1726168 0.19784087 0.19483535 0.08154412 -0.17115371 0.22112094 -0.0065410365 -0.02697321 -0.39448377 -0.01704602 0.21200836 0.18358965 -0.0055409893 -0.052180186 -0.11451275 -0.0049669426 0.40573028 0.43519688 0.010463458 -0.20653534 0.46824798 -0.23312955 0.31304073 0.32186717 -0.29844132 0.702642 -0.04644309 0.03284755 -0.42855912 0.1768182 0.19629352 -0.27994356 0.027627217 -0.0787071
OBT:001340 0.061899066 -0.2847451 -0.15983434 0.057994653 -0.15705444 0.5540273 0.37758872 0.020691713 -0.09989934 0.097460985 0.22546098 -0.40216178 -0.026089838 0.10066065 -0.045796692 -0.13489395 -0.2177601 0.19422689 0.059048608 0.34693235 -0.24051437 -0.05193327 0.33103892 -0.026690766 0.38337228 0.16096784 0.4646981 0.23225911 0.095803805 0.21439572 0.68876165 0.16526683 -0.3423238 0.024985284 -0.58179015 -0.0619062 -0.017549086 -0.19775239 0.081889115 -0.13602468 0.04698085 -0.086427025 -0.13457067 -0.3670713 -0.22570986 0.11786527 -0.24432187 -0.12639277 0.005074468 -0.11691267 -0.030081315 0.5857634 -0.43007916 -0.3294019 -0.1556651 -0.063615665 0.58805794 0.077180296 0.47046912 -0.13378382 0.5034128 -0.049395606 0.5433163 0.037593246 0.3946881 0.11880117 -0.11432906 -0.03761484 0.19242805 0.20253567 -0.1476499 0.19390222 -0.01048164 -0.1724582 -0.4877899 -0.08298679 0.011849574 0.33031094 -0.042184744 -0.41850156 -0.3032391 0.24061951 0.15958625 0.54871255 -0.12083803 -0.2632163 0.22878979 -0.27167574 0.3082717 0.07600266 -0.27182454 0.7783721 -0.18571441 0.12535205 -0.37651998 0.15617584 0.17709513 0.13468954 -0.22329977 -0.2747658
OBT:001925 -0.12069826 0.090680346 -0.18575345 -0.28271347 -0.21351485 0.6099712 -0.26573876 -0.07603106 -0.06394021 0.21868464 0.12675297 -0.9662692 0.3290474 -0.2544496 0.07446562 -0.16647448 -0.30311373 0.07658893 -0.07218411 0.54376894 -0.16723505 -0.11580698 0.26976088 -0.16965264 0.4062178 0.19867001 0.32732937 0.18233626 -0.09979284 0.41473225 0.3666339 0.0102529405 -0.3529482 -0.20403714 -0.30997616 0.017442537 -0.11340633 -0.2403292 0.012318087 -0.0742362 -0.039771475 -0.2903397 0.006814914 -0.044724453 -0.41497424 -0.21082924 -0.27424496 0.2750661 -0.39915088 -0.08406704 0.066759594 -0.048225347 -0.38075227 0.27956167 -0.012431309 0.35203233 0.28845212 0.008291385 0.717446 -0.05918315 0.3694061 0.3412743 0.44127098 0.35051644 -0.41776338 -0.03620386 -0.0151518425 0.36904207 0.14601123 -0.15576512 0.020153305 -0.0646521 -0.41056094 0.1338552 -0.10461104 -0.17839052 -0.111384556 0.57853884 -0.2194318 0.03022203 -0.32944372 -0.043039482 -0.1296376 0.5561305 -0.21603309 0.112746485 0.07245468 -0.27965274 0.042780705 0.43655983 -0.23561537 0.61460584 0.046669297 -0.16778228 -0.075420655 0.2785898 -0.097815044 -0.13626134 0.24437019 -0.2513668
OBT:002153 -0.16062152 -0.12947215 -0.020870183 -0.2223708 0.0044305203 0.93303645 -0.14494148 0.09352523 0.12624913 0.41192454 0.19347669 -0.57449853 0.24355975 -0.007439319 0.022648327 -0.34358644 -0.28135654 0.010484632 -0.03751594 0.61075246 -0.19802168 -0.3696555 0.6476942 -0.13237633 0.14735411 0.29891965 0.20488222 0.19684187 0.08375388 0.37363297 0.21897991 0.22128786 -0.7224584 -0.33402592 -0.15969159 0.016883673 0.07028244 -0.24675323 0.029012933 0.05407339 -0.11123464 -0.19599345 -0.152492 0.0656996 -0.35106137 -0.22777237 -0.15578312 0.19692217 -0.5213112 -0.0016882968 -0.07468498 0.2515367 -0.23003195 0.045255654 -0.07874798 0.4131564 0.4177438 0.13658302 0.8116106 0.015464124 0.3724691 0.22561964 0.3654183 0.29003435 -0.28326032 0.12146016 -0.03137511 0.49022746 0.015762445 -0.028926942 -0.19600737 -0.23247631 -0.36886653 0.232627 -0.12677027 -0.21487443 -0.31143263 0.59864104 -0.13458884 -0.36230806 -0.22320506 -0.04979925 0.17665514 0.5769503 -0.17821929 0.06461603 0.101478554 -0.24853502 0.006096484 0.29751205 -0.3866161 0.4740351 -0.10000591 -0.22243674 -0.21555404 0.24356422 -0.19259387 -0.13190071 -0.017874245 -0.44072995
OBT:000316 -0.09406113 -0.30080894 0.026476206 -0.42995504 -0.076681964 0.3963857 -0.080734186 0.45039764 -0.058637295 0.4264151 0.19724713 -0.4372633 0.022601329 0.32508925 0.07591241 -0.5268109 -0.088814266 0.2816012 0.2950235 0.48338574 -0.19161604 0.050735578 0.15971282 -0.25385317 0.31318405 0.25817117 0.40012527 0.31120738 0.32228598 0.32371396 0.3440148 0.3731689 -0.09426232 -0.11485618 -0.16200383 -0.32378995 -0.03741096 -0.20055093 -0.21157804 -0.17422742 0.19656901 -0.60976624 0.038019925 0.10280751 -0.21954016 0.038847327 -0.15459953 0.24873587 0.06099418 -0.104579255 0.024260236 0.09053587 -0.37198028 -0.041702513 0.28946927 0.13928923 0.4329781 -0.096823044 0.49305576 -0.063970104 0.31747675 -0.24351825 0.14455059 0.24172124 -0.18438101 0.25721204 0.08929684 0.102034666 0.35497752 -0.12776138 -0.24042912 -0.10164114 -0.3663462 0.11456293 -0.053467035 -0.061530914 -0.33761698 0.42392397 -0.39802176 0.03708517 -0.24939774 -0.01749752 0.09069611 0.05117265 0.04199877 0.2312364 0.14218417 -0.39121768 0.07767751 0.30490246 -0.20840792 0.45919573 0.2481799 -0.089966804 0.11326403 0.09115895 -0.016062371 -0.06886417 0.19547163 -0.08995095
OBT:002023 -0.11807166 -0.10158047 -0.24590673 -0.29805866 -0.09122212 0.5607379 -0.20814602 -0.17210189 0.13728318 0.29275364 0.19163148 -1.0474283 0.4580776 0.10044753 0.044291303 -0.0653982 -0.10301832 0.16368613 0.028095309 0.8197368 -0.22917968 -0.17892939 0.29400045 -0.16431448 0.41080803 0.21371673 0.251764 0.2711461 -0.03875983 0.18299128 0.3563681 0.054892596 -0.47701696 -0.43365073 -0.34219143 0.0027921032 -0.1888998 -0.1558403 -0.08110774 0.11022615 -0.16397859 -0.2917603 0.015698532 -0.02189332 -0.27205074 -0.26276496 -0.2181942 0.29441935 -0.5079371 -0.19954868 0.20393448 0.018012509 -0.22292715 0.2553043 -0.32230544 0.54459804 0.26630548 0.07697038 0.7720799 -0.14625777 0.30833057 0.39702055 0.377034 0.3137242 -0.27714217 -0.04920719 -0.06777136 0.57986265 0.16044976 -0.030859131 -0.20837249 -0.0022377905 -0.29052517 0.23792332 0.17221051 0.012982213 0.1195646 0.66640985 -0.23408794 -0.091453075 -0.33192435 0.2749338 -0.09504866 0.37087554 -0.2937523 -0.036871474 0.04164514 -0.26266503 -0.0039358716 0.32640952 -0.48539546 0.42399746 0.011739859 -0.08434551 -0.22227065 0.24355422 -0.3497215 -0.106795445 0.12100182 -0.23910742
OBT:002133 -0.091709696 -0.02028078 0.027989235 0.06120716 -0.47594413 0.39356253 -0.025583087 -0.009379903 -0.11646489 0.1755341 0.33366716 -0.69662046 0.1422763 0.29074627 -0.08967631 -0.31655407 0.052321013 0.31080955 0.22557147 0.3342512 -0.3804204 0.17290549 0.1603769 -0.17054324 0.58098346 -0.14313413 0.5330583 0.18453129 0.2579184 0.0038963428 0.34666726 0.38701385 -0.17154978 -0.20562904 -0.086861774 -0.3398651 -0.010511829 -0.36000234 0.09206058 -0.10171011 -0.15864874 -0.038525794 -0.3103192 -0.18483861 0.25328487 0.10244456 -0.059437938 0.018629147 -0.068081595 0.09675085 0.15733138 0.23875032 -0.3487986 -0.47605616 0.30956212 -0.08482412 0.4432837 -0.17733525 0.38408527 -0.3354905 -0.0027029796 -0.14181505 0.14843245 -0.28959933 0.14272308 0.19062512 -0.053530253 0.37281522 -0.07289684 0.2397119 -0.09795725 -0.15013288 0.04047639 -0.21893097 -0.3007435 -0.23504736 -0.2343169 0.52266586 -0.11685772 0.23890097 -0.21182916 -0.025466736 0.077463135 0.10508237 0.016578656 0.16028638 0.5177278 -0.21782409 0.05930886 0.24143612 -0.30251402 0.21376397 -0.12027216 0.17908908 0.28333005 0.24918942 0.0735352 0.21610731 0.016742116 0.000494256
OBT:002205 -0.22938418 0.005810923 -0.1341192 0.23801659 -0.2398275 0.33901617 -0.01578827 -0.19966605 0.32538992 -0.09040949 0.3477722 -0.4817305 0.06273539 0.48790163 -0.18080692 -0.09883045 0.19101287 0.0443749 0.5277083 0.47957858 -0.010298339 -0.037680924 0.33841163 -0.4272299 0.4115904 -0.23867302 0.28340098 0.37905708 0.2504964 -0.448498 0.4197232 0.1344909 -0.2809187 -0.49884933 -0.1710604 -0.53145546 0.2420771 -0.16169432 0.1354552 -0.09352653 -0.044349346 -0.07831393 -0.13231213 -0.0019063767 0.18811469 0.01681135 -0.11843922 -0.14985284 -0.16707967 0.1178481 -0.066314444 0.16729237 -0.4177216 -0.056082953 0.3095705 0.3552509 0.40281427 0.14746578 0.45067087 -0.17387727 -0.032229662 0.3440493 0.14000595 -0.4209832 -0.2964322 0.24824287 -0.21839833 -0.027926639 0.14082152 0.19021747 0.32356486 0.03212905 -0.022253245 -0.23509161 -0.27882755 -0.11405572 -0.3732109 0.782041 -0.42554426 0.100869656 -0.4189656 -0.3406614 0.08867382 0.464599 0.05093671 -0.20839238 0.3196566 -0.14219502 0.30514616 0.13796282 -0.59603226 0.42049363 -0.2599309 -0.03657572 0.021505458 0.25832412 -0.18490903 -0.053483214 -0.10251994 -0.028024083
OBT:000381 -0.15303431 0.015473137 -0.3262232 0.018615307 -0.34468383 0.46204776 0.055573966 0.085548624 0.13052496 0.18097156 0.013892879 -0.3442635 0.12565073 0.24678327 0.044353627 -0.1342558 0.27007776 -0.00047495635 0.57616836 0.45818344 -0.05795295 0.042526487 0.25822756 -0.09439543 0.51354605 -0.19646706 0.4210019 0.15695852 0.3026651 -0.44519228 0.38593858 0.0034746553 -0.3697477 -0.2184079 -0.18079887 -0.53950804 0.14556202 -0.201643 0.27876016 -0.1259294 -0.17850941 -0.237712 -0.47904122 -0.039649736 0.14519973 0.15810293 0.046600446 -0.049390167 -0.2526928 0.28009397 -0.006170231 0.23856758 -0.47694832 -0.2530452 0.1620957 0.33016697 0.4957303 -0.14503942 0.30169722 -0.04477191 -0.042883754 0.12681863 0.14472905 -0.082807906 -0.18084233 -0.04574354 -0.2316776 0.26757517 -0.10656254 0.11911616 0.42911598 0.16792913 -0.23116748 -0.08744972 -0.28941378 -0.24744815 -0.30672738 0.6377734 -0.105875455 0.26909178 -0.42555943 -0.07274824 0.11839903 0.15551813 0.18082651 -0.31886604 -0.029525362 -0.15426894 0.33661044 0.37412754 -0.386392 0.3496838 -0.11859953 -0.004799188 -0.11318463 0.13566916 -0.1757831 -0.2620739 -0.20957941 -0.17836197
OBT:000935 -0.28203526 -0.009286732 -0.17890331 -0.08611201 0.07016052 0.2925752 0.60884804 0.38222504 -0.027162792 0.12076172 0.33210516 -0.3334081 0.29129872 0.4043149 -0.078312226 -0.17079885 -0.19787532 0.07580506 0.87967944 1.1677207 -0.07567194 -0.00022556019 -0.07972485 0.04948268 0.49057648 0.27711606 0.1820021 -0.09435362 0.41417423 -0.046639595 0.14455809 0.12906522 -0.44894773 -0.16356559 -0.7006916 -0.21571022 -0.018871035 -0.5045038 0.0092967255 0.2555567 -0.3083242 0.13203156 -0.0129562225 -0.15170237 0.10237487 -0.24880962 -0.087180965 0.029627861 -0.2645333 -0.05198935 -0.11542045 0.42749232 -0.25663084 0.0525106 0.32341912 0.40330833 0.3022767 0.1737643 0.24175055 0.106799096 -0.26103655 0.12646624 0.39780554 0.118960634 0.02818089 0.44240987 0.16158387 0.24373697 0.27803454 -0.034091376 0.6218143 0.014451572 -0.14198378 -0.39506024 -0.41512457 0.24317196 0.08884857 0.54915744 0.35005522 -0.111142576 -0.6087948 -0.3451618 0.5815812 0.10458107 -0.13168585 -0.18064998 0.060691446 -0.28317288 0.5478437 0.016926924 -0.66009486 0.8009685 -0.320117 0.3807438 0.16516379 0.29875818 -0.18421577 -0.13326286 0.5563104 -0.26856843
OBT:001293 0.01618336 -0.27201188 -0.09655408 -0.27268374 0.09332135 0.33240497 0.612357 0.14062758 -0.11344348 0.11011412 0.18690501 -0.14966655 0.09757174 0.5418471 -0.25014293 -0.023868753 0.0566944 0.1889132 0.9017798 1.2441378 0.011114442 -0.10847656 0.027601182 -0.17068262 0.4516377 0.035027333 0.1494476 -0.30164495 0.33419222 0.08733689 0.22750348 0.082125396 -0.5677206 -0.2133591 -0.35273668 -0.22211514 0.048238646 -0.19901815 0.22609036 0.083581544 -0.15306911 -0.22304906 -0.24934576 -0.13776183 0.0067516584 -0.14726272 0.31001946 -0.14083247 -0.17878199 -0.117636956 -0.07262596 0.29340476 -0.45566797 0.31265515 0.3775278 0.14389032 0.44099203 0.14788215 0.20299882 -0.020351076 -0.11365063 0.34860563 0.52724767 0.23873629 -0.2003736 0.1868804 0.4789938 0.43179163 0.20941135 -0.09397847 0.28867924 -0.07886042 -0.46212447 -0.42973253 -0.45645893 0.20406683 0.017131874 0.7857809 0.40854463 -0.06277813 -0.5862388 -0.09939877 0.5237598 0.14175804 -0.13116223 -0.10889609 -0.22812101 -0.32421213 0.38750863 -0.058213465 -0.50777847 0.51188236 -0.1476426 0.21570887 0.17514999 0.2270732 0.10648685 0.11871972 0.34126607 0.17199548
OBT:000492 -0.3128086 0.1921401 -0.42027795 -0.14528413 -0.47394747 0.5484753 0.34054533 0.26808196 -0.015015173 0.15621336 0.34669524 -0.17421348 0.07775715 0.22374469 0.015547643 -0.058141295 0.12457356 0.109767094 0.7492933 0.6237424 -0.2902912 0.19543996 -0.0072263526 -0.038733814 0.5265394 -0.10315352 0.35284573 -0.064942494 0.45922798 0.15561981 0.074566565 0.118756555 -0.4140538 -0.0062008146 -0.4811181 -0.31185976 0.099841215 -0.3252541 0.13835597 -0.17195219 -0.21329907 -0.3714233 -0.28019178 -0.18766093 -0.10195292 -0.0334003 0.1950723 -0.13220444 -0.11810085 0.14787106 0.16255327 0.5030499 -0.35411555 -0.3360579 0.45268136 0.07648404 0.27368233 -0.08053801 0.1889133 0.040074293 -0.120994546 0.049149703 0.1466636 -0.039023492 0.00095300237 0.047952544 0.36548758 0.27603775 0.0486145 -0.012549889 0.56823444 -0.00325781 -0.24773237 -0.15222383 -0.38665903 0.039012704 -0.4190786 0.5086132 0.27538717 -0.10330112 -0.4171308 0.2609791 0.51483375 -0.23649053 -0.0469237 -0.25141993 -0.046488542 -0.333563 0.32699704 0.24573396 -0.36626887 0.51514643 -0.19313672 -0.09375173 0.07738523 0.46312878 -0.11388878 0.11042736 0.38688082 0.16237618
OBT:000543 -0.13314603 -0.31153816 -0.0033408045 -0.385591 -0.37463444 0.099248104 0.5836401 0.1521485 -0.09484024 0.13817579 -0.17990907 -0.3476261 0.38152122 0.1258858 0.15165718 -0.4402707 -0.33699253 0.16071041 0.5236488 1.2663231 -0.47495967 -0.17531267 -0.031469863 -0.2320475 0.37468532 0.055318017 -0.044306163 -0.22524014 0.111339614 0.1128405 0.37199658 -0.013475194 -0.46996292 0.21650653 -0.3374014 -0.02222367 -0.12741555 -0.16897565 0.31165907 0.19821934 -0.13527635 -0.2936469 -0.15347807 -0.13002872 0.045125097 -0.071725816 0.289262 0.0264605 0.05288033 -0.33381864 -0.048933372 0.453343 -0.18760444 0.24657859 0.115063116 0.25949925 0.4850314 0.16162413 -0.20457406 -0.16808899 0.14407296 0.13254972 0.508279 0.25825766 -0.11266379 0.055900216 0.25002956 0.018033698 0.4188334 -0.086849414 0.23506285 -0.077459715 -0.129096 -0.37226924 -0.54480326 0.33875456 0.051166087 0.52975625 0.22978763 -0.05361279 -0.5070722 -0.024627862 0.57133883 0.4322042 0.14040504 -0.30972537 0.186929 -0.5347107 0.5588425 0.24219309 -0.49123633 0.38113502 -0.23979472 0.2046641 -0.19939665 0.31157398 0.061400294 -0.060464177 0.2126749 -0.26261088
OBT:002242 -0.3501488 -0.038621653 -0.05111878 -0.2628063 0.18086722 0.2270056 0.55468756 0.0048207096 0.20999594 -0.053177275 0.06996589 -0.40740404 0.13707744 0.41897085 -0.3950995 0.0068263113 -0.16079615 0.11463269 0.73033667 1.0879995 -0.28656027 0.020829594 0.22199003 -0.16577938 0.5087 0.18480486 0.27352512 -0.13244405 0.48414254 -0.1637672 0.17299901 0.13681005 -0.25527713 -0.18017627 -0.8464955 -0.23188092 0.011168011 -0.19748947 0.10826399 0.19254749 -0.15601775 -0.14402898 -0.27482846 -0.20605098 0.34879258 -0.0062415996 -0.16018414 0.00039324575 -0.28316575 -0.43660125 0.06628232 0.3113457 -0.31818807 0.24200542 0.39546847 0.37585518 0.3729125 0.13838208 0.11993148 0.008623474 -0.18965808 0.31865582 0.38653103 0.17107329 -0.18788108 0.06542909 0.25343442 0.49700445 0.17808405 -0.043398242 0.58506876 -0.05497943 -0.08904186 -0.4425535 -0.3420292 0.09728103 -0.052056957 0.79045653 0.2147862 -0.08673454 -0.49648622 -0.38562673 0.6171978 0.25468415 -0.16654138 0.087510824 0.04562759 -0.3641465 0.3894597 0.2592153 -0.568705 0.7430887 -0.21105368 0.13229805 -0.010710061 0.33719337 0.043439608 0.19261318 0.5593318 0.0874762
OBT:000729 -0.14019984 -0.15081035 -0.22811721 -0.14158276 -0.00874042 0.174481 0.61984736 0.017443297 -0.07250254 0.021210857 0.11414074 -0.53589475 0.20912993 0.35846955 -0.23988624 -0.18695405 0.08754284 0.14303622 0.57831997 0.86384594 -0.10466198 0.031806633 0.13993928 0.00047666152 0.36058575 0.24820828 0.25018725 -0.1106603 0.28246102 -0.04854307 0.20305622 0.031019485 -0.48006684 -0.03305388 -0.683505 -0.28631347 -0.008661878 -0.13853373 0.32608277 0.13020292 -0.16614309 -0.25572196 -0.035326548 -0.3195684 0.00340529 -0.016724624 0.18040152 -0.1061894 -0.38019964 -0.21512885 -0.00063736347 0.46516022 -0.31644478 0.1828499 0.5554963 0.2595959 0.16031249 0.02681768 0.21568716 0.16723363 -0.043534476 0.19316433 0.46052334 0.29951072 -0.09296939 0.18423484 0.27369058 0.40196097 0.24054788 -0.21659298 0.53071237 0.04459159 -0.37919366 -0.23956384 -0.5120042 0.1825153 -0.0354109 0.6266211 0.25198963 -0.29452506 -0.52727276 -0.0461305 0.48221588 0.23020488 -0.0476577 -0.16131814 -0.14384934 -0.17652003 0.49231395 0.22149606 -0.48796985 0.5066937 -0.2629484 0.22517446 0.08160406 0.22293982 0.04067273 0.017247247 0.68447244 -0.05691369
OBT:000076 0.023043433 -0.4072092 0.585705 -0.2685308 -0.27690586 0.21148026 0.083894834 0.042765606 0.62818754 0.18865824 0.15684825 -0.18293633 0.11265495 0.37294164 0.043602355 0.35548565 -0.16898896 0.45269442 -0.00033449454 -0.17460038 0.21759757 -0.5887534 0.20670211 -0.4921026 0.009652787 -0.1881164 -0.91063714 0.50877184 -0.2618293 0.68876976 0.48992833 0.20161402 -0.0316381 0.48914674 -0.027738394 0.25341856 -0.039059784 -0.38796738 -0.50192547 0.060040336 0.059469182 -0.9403054 -1.1447557 0.3309682 -0.17614429 0.1288729 -0.37788704 0.4646346 0.43099898 -0.17466955 0.501905 0.20884252 0.0072617847 -0.5713284 0.88248247 0.22482885 -0.119668424 -0.028725918 0.3212741 0.1718657 0.11616542 -0.017335393 1.0569721 -0.7623582 -0.7134627 -0.31471825 -0.13411717 0.27892518 -0.11675136 -0.18678431 -0.26454955 0.2069853 -0.6941852 0.15681443 -0.17034958 -0.019175334 -0.23280458 0.2151198 0.2764941 0.054521475 -0.14855541 -0.064584434 0.91960835 0.15662129 -0.33563432 -0.20316236 -0.058221206 -0.072510764 0.4986411 -0.1576969 0.12125086 0.42400563 0.10980906 0.44981635 0.42139682 -0.23785661 0.19991526 -0.25563988 -0.54319763 -0.60486907
OBT:000038 0.06352833 -0.55367726 0.45848632 -0.26373413 -0.20963162 0.105211355 0.124591656 0.11333328 0.76871777 0.1670074 0.37135682 -0.19147745 0.32665056 0.43360928 -0.12022435 0.5114424 -0.34430602 0.36833015 -0.06813859 -0.25340703 0.22510965 -0.45931837 0.24878913 -0.26669404 0.13578896 -0.17499056 -0.785896 0.32878646 -0.21323442 0.5915444 0.25219777 0.13744725 0.059620243 0.36362186 -0.12390314 0.059469465 -0.08190039 -0.43544623 -0.64911157 0.19550338 0.23888399 -1.0741303 -1.1015102 0.2449646 -0.2203508 0.025471637 -0.26022822 0.40036717 0.42624304 -0.13384555 0.52719057 0.027832814 -0.003095253 -0.43869662 0.88318306 0.14252451 -0.0444469 -0.1899959 0.39111486 0.053060062 0.26814482 0.13061713 0.9366786 -0.78974247 -0.599268 -0.22520296 -0.1760104 0.57857245 -0.14132066 -0.046109427 -0.028127298 0.17518719 -0.63488376 0.3577598 -0.083365746 -0.22590488 -0.29754087 0.13870066 0.45616996 -0.22006203 -0.10080931 -0.03584472 0.9064506 -0.05010934 -0.4173993 -0.2031962 0.16824642 0.05004359 0.47674483 -0.18675081 0.2712194 0.42992693 0.012721509 0.5422336 0.24374178 -0.12418146 0.29688197 -0.44680342 -0.3401069 -0.44841576
OBT:000094 0.3301604 -0.33233947 0.14665496 -0.22536288 -0.14058419 -0.14927126 -0.2010645 0.22055727 0.8315511 0.66388077 -0.120254084 -0.5897242 0.21190718 -0.020908218 -0.15160805 0.31742913 -0.2816212 0.18069965 0.115663975 -0.11873154 0.4596765 -0.2448871 0.11516891 -0.62177354 0.13961829 -0.30703923 -1.1707246 0.49030244 0.2209647 0.7151294 0.05989698 0.0231013 -0.060352866 0.310823 -0.24866207 0.07681368 0.5635106 -0.6553064 -0.6251577 0.24617678 -0.0011396409 -0.95814157 -0.8774849 0.5004827 0.14598855 0.074450225 -0.17810719 0.09666808 0.5362916 -0.37657297 0.4649945 0.17072664 -0.49470678 -0.29488605 1.1177981 -0.033693843 -0.33309138 0.10682026 0.30664867 0.451336 0.32739574 -0.1746215 0.6149903 -1.0540885 -0.39381742 -0.15526043 -0.36145312 -0.20615011 -0.011839041 -0.20585829 -0.19655006 0.13388005 -0.71571475 0.7135864 -0.3529303 -0.16219723 -0.1328741 0.18113343 0.20059581 0.012225828 -0.0041945907 -0.18849644 1.139414 -0.0020732787 -0.6098356 -0.02562501 0.045853794 0.13734871 0.46962544 -0.45499435 0.07566379 0.77060837 -0.1299698 0.22416645 0.35120285 -0.0013461399 -0.34559214 -0.12782964 0.28009188 -0.791346
OBT:000131 0.057611685 -0.5489455 0.40172115 -0.012417281 -0.2157504 0.22493698 0.032495875 0.16610996 0.7415074 -0.09042461 0.2692728 -0.2944729 0.120248966 0.61226755 -0.039627545 0.37016454 -0.336429 0.3112851 0.04090125 -0.16804564 0.14721447 -0.1571609 0.3490408 -0.48982045 0.346837 0.04748687 -0.9927181 0.35579938 0.012687238 0.69370806 0.24756862 0.3025446 -0.119658895 0.66349083 -0.1877634 0.092383504 -0.057279468 -0.4446187 -0.7075533 0.17641813 0.31055704 -1.2450879 -1.0991129 0.30101195 0.041849677 0.022286968 -0.4061579 0.51728916 0.2798085 0.028765509 0.46910182 -0.014954466 0.037306048 -0.22011705 1.0710039 0.21183091 0.057283062 0.03518536 0.5805774 -0.0147761665 0.2575276 -0.01820129 0.89714146 -0.742463 -0.7259626 -0.58629864 -0.16966344 0.21388897 -0.20070453 -0.08308085 -0.16719405 0.44344726 -0.7076372 0.076089874 -0.15317905 -0.20453666 -0.3237704 -0.046734795 0.42017016 -0.09849153 -0.027705232 -0.03572106 0.7904462 -0.09706145 -0.6650979 -0.045417003 -0.005811517 0.117686994 0.390963 -0.12756707 0.22824205 0.51913625 0.16593555 0.55989206 -0.010384931 -0.1235682 0.08316578 -0.16242853 -0.1924241 -0.4949544
OBT:000006 -0.11797092 -0.39212245 0.05695785 0.14166136 0.039638545 0.5039772 -0.21343312 0.12297184 0.50961316 -0.24181731 0.4350782 -0.56144047 0.1972966 0.3151062 -0.124484934 0.29889154 -0.37347803 0.52064085 0.012937026 0.24756522 0.34510103 -0.12140568 -0.39364338 -0.16595784 -0.009981953 -0.1876662 -0.45620188 -0.34141412 -0.48843816 0.6145221 0.42270592 0.4196554 0.10314012 0.79685724 -0.24055903 -0.17777666 0.46041986 -0.2807676 -0.643756 0.15009601 0.33966947 -1.191163 -0.5660179 0.5504249 0.10801473 0.2629627 -0.5702697 0.066664204 0.36019704 -0.018790405 0.1375884 0.0128278965 0.1609443 -0.2902063 0.4670988 0.33775806 0.21111004 0.033201065 0.23934251 -0.21088088 0.078684874 -0.14126307 0.46064425 -0.7351639 -0.53325635 -0.25065207 -0.028470205 0.04472054 -0.07916503 0.23494084 -0.49042886 0.11034096 -0.43695384 -0.43432525 -0.15557729 -0.1830516 -0.023404049 0.45712402 0.38423777 0.13798197 0.02640164 0.2039258 0.6068428 -0.31101543 -0.2847398 -0.17132482 0.016530216 -0.26189804 0.52726406 0.09677646 0.124517396 0.57534665 0.08260127 0.18824305 0.36295888 -0.2180772 -0.30013454 -0.31934637 -0.39832386 -0.74446934
